G000830275	0.06949556	-0.08934371	-0.21975899	-0.61374307	0.32490498	-0.5840933	-0.025636721	-0.88748974	-0.05483452	0.5078279	-0.09674324	0.11309168	0.14359906	0.1627543	0.3275398	0.4251756	-0.16149376	-0.27257138	0.09258803	0.11990907	-0.026920993	-0.6210538	0.18996277	-0.15284534	0.14399281	-0.3295659	0.21791935	0.039868645	-0.8375042	-0.1485992	0.07325947	0.03844665	-0.60038966	0.29481044	0.02310656	-0.28007367	-0.3624914	-0.26836306	-0.22905388	0.104008414	0.8831004	-0.15329774	-0.25717866	-0.4323162	0.69526047	-0.187709	0.40228167	-0.36524072	0.800508	-0.46619764	0.45654505	-0.042082567	1.0323168	-0.04246737	-0.29779324	-0.39679337	0.26711747	-0.110976405	-0.12077243	-0.3058416	0.45191056	-0.24358699	0.16813721	-0.03310296	0.6926748	-0.5176226	0.25473174	-0.2411734	0.092895515	0.18497929	-0.136517	-0.20893903	0.09247632	-0.22643732	-0.42828864	-0.12453587	0.66413456	0.55108905	0.14094391	0.005002588	0.24484663	0.07704297	0.3834369	-0.029601656	-0.2878432	0.3744108	-0.40724915	-0.5947145	-0.18907027	0.17127036	0.0084986985	0.054462932	-0.008514807	0.18130516	0.23929098	-0.26082012	0.35537195	-0.23165661	-0.19930276	0.17062616	-0.6007738	0.36125666	0.16665523	-0.1323942	0.56737995	-0.1708197	0.015045494	-0.3890692	-0.19889313	-0.16412753	-0.060452335	0.12124421	-0.05219687	-0.054114375	-0.20621617	-0.1455368	-0.22535825	-0.4464801	-0.1924276	-0.9351343	-0.10872616	-0.39408302	-0.08731409	0.35126105	-0.12878136	-0.04492771	0.12779541	0.06659387	-0.0460934	-0.21683672	0.28007174	0.2983615	-0.28404504	0.9023523	-0.49524188	-0.12111303	0.30363578	-0.36828503	0.0765282	0.2694526	0.42061615	0.70332575	0.1002561	-0.4045748	0.2542698	0.585431	-0.06687909	-0.13016538	-0.09800286	-0.06140267	0.22555955	0.08127488	0.0045986846	-0.045578726	-0.2761089	-0.33095783	-0.18717402	-0.21581857	-0.52771944	0.21774355	0.4216798	0.8814192	0.30175552	0.60323673	-0.13899137	0.022092767	-0.24374476	0.24185598	-0.25636876	0.06056434	0.32191032	-0.5491524	0.35202125	0.22702137	0.22613691	0.059594497	0.26376912	-0.26698625	0.13192478	0.10056823	0.28597012	0.0006157756	0.33662382	0.6144703	-0.038425285	0.65552765	0.26731178	-0.34615004	0.02857989	-0.25879714	0.020574445	0.20792459	0.2906407	-0.3956414	-0.2413331	-0.4034416	-0.2030647	-0.07956202	-0.72665995	0.23739392	0.4341601	0.31610692	0.3155463	-0.11406982	0.22704008	0.6190064	0.31375933	0.18945602	0.028172575	-0.4984656	-0.16399571	-0.24141759	0.34823543	0.04230766	-0.36509073	-0.029190823	-0.07756327	0.0094543025	-0.32359987	0.3001933	-0.43941274	-0.23600876	0.59927654	0.29834938	-0.38023412	-0.64172155	0.33053607	-0.09739697	-0.19480492	0.034997985	0.26622698	0.075257786	0.7812793	-0.05889526	0.11902061	0.57633036	0.2523564	-0.047340535	-0.12999275	0.39204788	0.14781281	-0.2868911	-0.5453846	-0.12942925	0.5643837	0.25614914	-0.6275414	0.38248795	0.43287748	0.12437412	0.07152307	0.42479295	0.03649975	-0.054297715	0.40826887	-0.25540107	-0.31435958	-0.008133762	0.3915391	0.17360657	-0.30607715	-0.3180176	0.15122935	0.19764686	-0.062103756	0.27835357	-0.2818454	-0.15304923	-0.19978766	-0.21089463	0.45753273	0.7911262	-0.38835895	-0.118675366	0.061368898	0.2805785	0.7684769	0.5991288	-1.0611465	-0.6454778	0.40056905	-0.12479246	0.26507705	-0.5135006	0.30643252	-0.704351	-0.08920045	-0.3183755	0.4111442	0.119819805	0.36252967	-0.09469801	0.5949178	0.3311591	-0.09021778	0.24215586	-0.13831031	-0.2783565	0.3959016	0.118268	-0.0756083	0.2206609	-0.16137126	0.7550515	0.5461049	0.4475169	-0.20376094	0.7222397	0.44863138	-0.24363889	-0.45030865	-0.062260464	0.04937468	0.36586165	-0.13632956	0.30910078	-0.28518757	-0.18727115	-0.14161372	-0.010715719	0.15160283	-0.68580085	-0.28041637	-0.29625016	-0.21871911	-0.121200845	-0.0049664564	-0.28456914	0.20733175	0.07428241	-0.24465427	0.2816558	-0.91487527	-0.38896513	-0.2698719	0.32711858	0.13030346	-1.055974	-0.59208536	0.49905545	0.109228894	0.30583683	-0.4084209	0.017864738	-0.24341811	-0.39594674	-0.26235318	-0.28018418	-0.057650074	0.0027639717	-0.1608111	-0.5816289	0.35970348	-0.0004208833	0.27159986	0.53384346	0.65934336	0.05898328	-0.2783983	0.2713529	-0.20867285	-1.1244898	-0.19216794	0.03833279	0.020965867	-0.30880433	0.31329715	0.6005416	-0.24161343	-0.44136116	-0.7381313	0.27825743	-0.48276383	0.14341883	-0.38173464	0.1382783	0.94465894	-0.5392335	0.5102522	0.29377055	-0.37431663	0.35031724	0.03307788	0.07210216	-0.513635	-0.0025858246	-0.3284871	0.05233602	-0.3570072	-0.79538906	-0.59280807	0.064568624	-0.476004	-0.10760676	-0.27165866	0.25012857	0.18418711	0.06770408	0.4918946	-0.4662441	0.06799595	-0.55724114	-0.02565676	0.15165392	0.13453694	0.29372	0.6593123	-1.0452467	-0.75099397	0.060480814	-0.4998142	-0.09017788	-0.18275918	-0.35193917	-0.035078116	0.22954816	0.18046413	-0.5931146	0.40395382	-0.577082	-0.4509179	0.3661395	0.21810162	0.11690057	-0.24720891	-0.2818352	0.4344044	-0.43066448	0.056164313	0.07034809	1.1636807	-0.023742858	0.26050392	-0.004979573	-0.51396656	-0.41592103	-0.27443263	0.08170682	-0.13933423	0.052506946	0.32539743	0.28888628	-0.21275795	0.65682596	0.26635194	0.21861058	-0.5395234	-0.30261046	-0.43882567	-0.12003905	0.31619298	0.43222332	0.24084845	0.20892942	0.35965347	0.10575518	0.7349298	-0.3089763	-0.2275091	-0.543442	0.21428886	-0.44937155	0.046581216	-0.32785615	-0.82264566	-0.1825771	0.07816474	-0.073421456	0.15792209	0.21069987	0.058893435	0.07348582	0.5502037	-0.22478235	0.20434721	0.018140301	0.042230606	-0.06966754	-0.5818602	0.42523026	0.25646794	0.11512313	-0.05038491	0.30440822	-0.15447208	0.28204137	-0.33192202	0.26514584	0.16896598	-0.19014753	-0.6783995	0.39047402	-0.62241495	0.2368074	0.59350806	-0.36037645	-0.27184704	-0.047115132	0.35188037	-0.071777284	0.22272858	-0.5010194	-0.4299233	-0.2127718	-0.3856423	0.24029735	0.49980727	-0.23683082	-0.06078227	-0.5049245	0.119449414	-0.012572922	0.37955958	0.4290502	-0.3418352	0.0043570995	-0.55126196	-0.22623801	-0.5658094	0.39676353	0.48319566	0.13548136	0.09923371	-0.17682096	-0.08742052	-0.18149655	0.5159218	-0.2678037	-0.60248756	0.008341819	0.2113209	-0.27521572	-0.00939884	-0.22026879	-0.07015855	-0.12700506	0.47975102	0.43026736	-0.16926244	0.0931859	0.33859667	-0.1951639	-0.09526185	0.07888459	0.4267014	0.6498195	0.4148768	-0.19399199	-0.014549116	-0.16709721	-0.5458409	-0.114272654	0.48201823	-0.06376606	-0.4651008	0.23292665	0.0064599514	-0.048541263	-0.27957186	-0.08206931	0.464133	-0.80244875	0.25083297	-0.4749079	0.07352468	0.63162863	0.14334883	-0.33787796	-0.11228868	0.11359073	-0.23358901	0.06267125	0.12651634	-0.5527504	-0.21750617	-0.33393967	-0.9885634	-0.81602895	-0.40130475	-0.046856277	0.29006815	0.00021446869	-0.41734177	0.020390362	-0.09050244	0.16100638	-0.09487489	-0.036115035	-0.2542085	0.069339424	0.23654583	-0.11502761	-0.21800749	0.21506122	-0.03320864	-0.502686	-0.12411968	0.55169445	0.37750518	-0.04166147	0.29636547	0.14965546	0.39057678	-0.5639672	-0.7923998	0.2090527	-0.08888903	0.528248	-0.6716709	-0.046900377	-0.3335603	-0.51448876	-0.49019742	0.33324486	-0.04166438	-0.024783809	-0.11318226	-0.16905482	-0.5607427	-0.21209368	-0.55093694	0.49126193	0.22008032	-0.64562196	0.57636404	-0.33298525	-0.3235807	-0.44806302	0.44396895	0.057624597	-0.47885936	0.11999276	0.07778558	0.022379732	0.19676033	-0.20955124	0.3345316	0.09800342	-0.20520248	-0.0034557004	0.26001495	-0.5259778	0.6366228	0.034897342	-0.13748607	-0.25811082	0.4183764	-0.49232575	-0.0033831298	-0.7126654	-0.24730897	0.11314139	0.50666	-0.4514647	-0.38432857	0.22305621	0.47942752	0.18138349	0.091270365	0.19939852	0.31499457	-0.5093361	0.08380754	0.50028044	-0.19542521	0.01637841	-0.4505329	0.7102243	-0.41033748	0.17751423	0.2738275	0.3038963	-0.3764172	-0.8401337	0.20586628	0.068484694	0.32957873	6.810203e-05	0.50074095	0.1813853	0.12173538	0.30230364	-0.019295484	0.23021653	0.038452387	0.08964579	0.39934206	-0.24054562	0.13141893	-0.66016126	0.37377143	0.061066516	-0.278903	0.43056408	0.44979048	0.34542692	0.5549026	-0.42361277	0.18619208	0.59200794	0.25930896	-0.710876	-0.033433855	-0.085573524	-0.18470784	0.7064375	0.6586922	0.8315095	-0.051825445	-0.6040699	0.04301048	-0.16553065	0.39804792	0.78203225	-0.25354227	-0.31612927	-0.35293776	-0.009143693	0.1674127	-0.39460045	0.4878954	0.19107544	-0.047597595	-0.43820557	0.16283646	-0.4022554	0.7102608	0.868322	0.1227708	0.05842728	-0.13626808	0.1307773	-0.22356181	-0.29941097	0.4233273	0.45321047	-0.15409249	-0.19547361	0.0803716	0.4260109	-0.16783857	-0.43236744	0.22507232	0.43014413	0.05712089	-0.008974511	0.15853605	0.03806731	0.14617904	-0.0155489	-0.18537226	0.41135377	-0.039358348	0.8608434	-0.09315428	-0.22362538	-0.7360129	-0.053033248	-0.17289641	0.52152413	-0.13154504	-0.108895876	-0.3697104	0.14509112	-0.59568447	-0.13418111	0.41206518	0.045731045	0.37884477	0.5542105	0.20713648	0.04507658	-0.064265445	-0.026388168	-0.090077415	0.0114224255	0.28456396	0.0459098	0.19542435	-0.0046530813	-0.41237006	-0.30906564	-0.60533077	0.26051483	0.1730158	-0.43222362	0.35776535	0.08974479	-0.2129871	0.059890687	-0.42439532	0.12896809	-0.48361787	-0.542441	0.3973044	0.4646949	0.11190162	0.25052053	0.029482111	-0.67005575	0.07131027	-0.012225002	-0.8051117	0.31253302	-0.1286133	-0.084828034	-0.11297241	-0.37470874	-0.22305223	0.41508704	-0.45848393	0.4315072	0.047072146	-0.4667481	0.2562604	-0.11998111	-0.45741957	-0.4057241	0.31935588	0.024943218	-0.48132604	0.13584036	-0.265122	0.3070982	-0.068864435	-0.10434456	0.13519712	-0.27334186	0.4270703	0.37109888	0.2429005	-0.3754513	-0.25755504	0.20853743	0.06648444	0.09309228	-0.049753144	-0.25403064	-0.21280313	-0.23830804	0.92674524	0.13958517	0.26466012	0.14078316	-0.067539155	0.034944266	0.70075923	-0.9019935	-0.20321947	-0.15315765	0.16121522	0.46502367	0.1563457	-0.3642876	0.038083732	0.19187392	-0.1466037	-0.5838084	0.15292737	0.009341046	0.18672648	-0.4411111	0.06746711	-0.11377215	-0.516776	0.43449494	-0.025054902	0.24681044	-0.015507773	0.40301904	-0.011286303	-0.5898684	0.23259738	0.15496616	0.06893734	-0.06178943	0.020643651	0.25512916	0.35391167	0.11033627	0.34590626	0.58040804	0.50420135	0.48722115	-0.054209396	-1.2220467	-0.11766729	-0.37273425	0.50022995	-0.19392228	0.24199724	0.10947889	0.60146976	0.10497151	-0.3957318	0.037924297	0.36145586	0.17681381	-0.36801475	0.488771	-0.36863005	-0.03611049	0.30316293	-0.014206676	0.1225131	-0.18833277	-0.8051489	-0.5990704	-0.4575741	-0.26607466	-0.053604826	0.3675825	-0.061838746	-0.29455096	-0.050175745	-0.41512674	-0.10471313	0.35945243	0.36898756	0.6715754	0.27361047	0.05004061	-0.6092302	-0.40138477	-0.3911653	0.1645768	-0.06523593	-0.3741025	-0.5309912	0.11846252	0.226803	-0.7073344	-0.113426685	0.28765318	-0.543321	0.5492102	-0.633461	-0.14970717	0.39042085	0.29959548	-0.16844982	-0.13008887	0.01919496	-0.2795784	0.40478548	0.007532865	-0.061415225	0.2692489	0.030721366	0.45338175	-0.23520526	0.38160774	-0.19655848	-0.13406897	0.08892129	-0.26378945	-0.13003865	-0.45128953	-0.8050919	-0.1471623	0.2884553	-0.15701059	0.87912196	0.18418145	0.3292348	-0.86698025	0.17565458	0.18398058	-0.32020184	0.010193702	0.5648503	0.7518731	-0.8046789	0.16339174	0.74685955	0.14827447	0.38623303	-0.046581298	-0.3475243	0.7440444	0.45722073	-0.2088491	-0.06998593	0.33516413	-0.20415911	-0.15049297	-0.459848	-0.16879946	-0.19588672	-0.33243465	0.8314468	0.5979766	0.10296326	0.013007149	-0.2331587	-0.048993573	-0.016333133	-0.39022765	0.40450674	-0.11723432	0.55752563	0.109218016	0.21938449	-0.04050769	-0.04328955	0.002508685	-0.39040235	-0.63288176	-0.26022634	0.12846686	-0.16291627	0.4486013	-0.6226889	0.20247339	0.5572849	-0.1017309	-0.19552611	0.22799733	-0.42723164	0.1170266	0.13558048	0.10266247	-0.1559863	-0.09510635
G000402355	0.06069085	-0.10873619	-0.25455678	-0.56782705	0.2942423	-0.54114735	0.021410722	-0.8769141	-0.10054605	0.63868517	-0.18462864	0.09262158	0.10783961	0.21637121	0.33415148	0.42580009	-0.2130227	-0.25283167	0.06390457	0.104222424	0.01569289	-0.5585615	0.12248764	-0.081860706	0.21135558	-0.32014936	0.13343571	0.059500962	-0.89320433	-0.23542419	0.10725072	0.009135814	-0.49639216	0.31594682	0.044880897	-0.27720022	-0.3510737	-0.22054827	-0.28869832	0.13255043	0.8954569	-0.10853395	-0.2400761	-0.508697	0.5731761	-0.19145569	0.42810777	-0.43268728	0.86767197	-0.4309707	0.38336527	-0.013795622	1.0151681	0.07349712	-0.3009058	-0.44594935	0.20202284	-0.08782968	-0.16832897	-0.39556372	0.48511317	-0.21838948	0.22053301	-0.029036267	0.6642364	-0.60378915	0.2432347	-0.22077411	0.07350696	0.28337643	-0.14818345	-0.2795155	0.018810675	-0.2529696	-0.4383142	-0.22049782	0.6514217	0.5617324	0.20864443	0.020216286	0.21694727	0.05600208	0.44237992	-0.09958656	-0.3075083	0.344829	-0.39956748	-0.5986239	-0.23610324	0.19999894	0.10953594	0.17439394	0.06335445	0.1175659	0.23558153	-0.2524056	0.41185525	-0.19116338	-0.16345242	0.23952755	-0.5234535	0.27369505	0.104716755	-0.1276094	0.50932	-0.16861874	0.08196862	-0.37006703	-0.16387984	-0.08553938	-0.021603104	0.24128008	-0.09717262	-0.08504901	-0.24216762	-0.13502282	-0.27125275	-0.49145436	-0.1652393	-0.9860593	-0.13298477	-0.445287	-0.10782954	0.38432783	-0.15148866	0.019213207	0.19022267	0.07064093	-0.022097182	-0.19405368	0.20942532	0.18169302	-0.2836209	0.89826816	-0.49885678	-0.13852242	0.34942427	-0.36773154	0.12730516	0.27124903	0.49643075	0.74041945	0.0374327	-0.39391398	0.27433446	0.58621955	-0.059402585	-0.18657906	-0.09184611	-0.011869434	0.2430099	0.03496386	-0.059115767	-0.025530249	-0.2633137	-0.3414446	-0.21999332	-0.16305947	-0.5771863	0.17308474	0.43716425	0.8735117	0.31122398	0.61586773	-0.009052545	-0.029245863	-0.28084847	0.21998966	-0.19057104	0.07331747	0.35892922	-0.5771068	0.25786835	0.29826024	0.21167368	0.03773582	0.28194728	-0.2685055	0.08565818	0.09591679	0.31223023	-0.0471036	0.37383154	0.55740076	0.0062993728	0.6736056	0.31757027	-0.40294647	-0.019030318	-0.33927792	0.011107385	0.2140316	0.36608955	-0.35048154	-0.26572007	-0.45160896	-0.19205281	-0.036291182	-0.6721779	0.20609522	0.4290961	0.333696	0.32128432	-0.104766056	0.23306316	0.51548755	0.43565518	0.19416772	0.0026514381	-0.37503898	-0.341027	-0.21885113	0.43505228	-0.107343934	-0.3293931	-0.06546017	-0.04772404	0.071793534	-0.2957186	0.3453648	-0.35893834	-0.3933249	0.58454096	0.17642175	-0.39682394	-0.64196944	0.37365106	-0.21043627	-0.14996883	0.09062007	0.1885498	0.1645064	0.82762164	-0.039956287	0.12124494	0.60211855	0.20840539	-0.07112623	-0.15863359	0.40477633	0.030583695	-0.34711307	-0.5223303	-0.22441809	0.56388414	0.25343794	-0.7033244	0.41804242	0.32965523	0.090139925	0.038622506	0.35892445	0.01998537	-0.08928457	0.4845184	-0.2157639	-0.35957956	0.0120563805	0.31881082	0.163876	-0.3578229	-0.27268574	0.074734196	0.25071073	-0.10590419	0.27719066	-0.32296017	-0.157114	-0.12906942	-0.2561457	0.41470882	0.83479834	-0.3561837	-0.117086455	0.13200714	0.32961714	0.7009037	0.56092685	-1.0769111	-0.6255715	0.32002968	0.019608907	0.25945163	-0.48201105	0.32160988	-0.6514631	-0.10058566	-0.25875837	0.34283808	0.18838197	0.32142505	-0.018884838	0.5394038	0.37020904	-0.08999624	0.21837609	-0.08173355	-0.25400764	0.43579242	0.07269177	-0.12745991	0.1496729	-0.18974647	0.767403	0.6114019	0.4461904	-0.1754259	0.61758894	0.48057756	-0.21388026	-0.4899165	-0.04463149	0.035750266	0.25869602	-0.095953904	0.2805442	-0.23891221	-0.21069999	-0.028467447	0.0069513414	0.16552663	-0.7282698	-0.2726317	-0.21131876	-0.22694932	-0.08150521	-0.0036487281	-0.2874255	0.21739253	0.058227524	-0.23733336	0.20215574	-0.8957839	-0.39832747	-0.28661084	0.23955569	0.07813678	-1.0653512	-0.5135219	0.4529665	0.13937278	0.20576064	-0.34496087	-0.10715602	-0.33581445	-0.39717978	-0.27721298	-0.31469297	-0.1080817	-0.024846971	-0.23196769	-0.71028197	0.44474792	0.041721597	0.22312	0.49317718	0.68837714	0.02742292	-0.26595235	0.23729356	-0.24957171	-1.1331065	-0.26059434	0.11208813	0.0038849525	-0.23915018	0.34253243	0.612744	-0.32383552	-0.40007842	-0.78737605	0.2796252	-0.49775183	0.16606651	-0.3030469	0.12243398	0.89753914	-0.6319012	0.5399186	0.2816431	-0.3675552	0.39793527	0.0052207783	0.0256304	-0.4902215	-0.008898515	-0.32562107	0.08522739	-0.3793285	-0.8491307	-0.6331664	-0.011568308	-0.4653369	-0.0221548	-0.26487637	0.24719143	0.092117034	0.062021002	0.45540124	-0.4239906	0.22093622	-0.6571454	-0.12060714	0.10232929	0.13495824	0.17478636	0.7431021	-1.0756682	-0.7298812	0.07863158	-0.5275929	-0.050045207	-0.11014314	-0.3002143	-0.07612129	0.27309296	0.25804183	-0.5725262	0.36527687	-0.5464514	-0.45979384	0.4011904	0.26582962	0.005476173	-0.2624321	-0.22472328	0.42809534	-0.30816194	0.037514187	0.11823666	1.081646	-0.07781424	0.41855696	0.06490931	-0.5342132	-0.39389074	-0.2246706	0.030196879	-0.12779501	0.07604629	0.39752582	0.27191398	-0.2544912	0.59621197	0.34041628	0.29705247	-0.4828841	-0.34691367	-0.4564705	-0.02053582	0.31029895	0.44854316	0.25879934	0.25250214	0.40867603	0.13357124	0.65065515	-0.3800835	-0.14249383	-0.5165907	0.17281245	-0.43554989	0.05177419	-0.2853915	-0.77852446	-0.13185358	0.027471345	-0.13230568	0.11648802	0.18025832	0.024969146	0.10172622	0.65068233	-0.18897897	0.19338664	-0.042743146	0.0066145547	-0.022365667	-0.55625236	0.3563009	0.33836502	0.13804525	-0.009297229	0.24845923	-0.19221501	0.24699688	-0.22679533	0.28523633	0.17392512	-0.2715847	-0.6784005	0.42601967	-0.6460018	0.19073923	0.61139655	-0.35801348	-0.29040098	-0.0033952445	0.37504137	-0.03162635	0.2078157	-0.5528493	-0.4368963	-0.25540662	-0.3001039	0.20703991	0.4557568	-0.21191606	-0.03442362	-0.46920896	0.102646664	0.019303203	0.35563502	0.43915915	-0.35760248	-0.10903488	-0.51768446	-0.14442876	-0.5439218	0.46753502	0.5070975	0.03890509	0.106676616	-0.199395	-0.17946404	-0.16538708	0.5212353	-0.25177225	-0.6412807	0.018369466	0.29220492	-0.2886086	-0.02293985	-0.26671776	-0.0679916	-0.14225763	0.4905327	0.33126852	-0.24541542	0.017169178	0.36482275	-0.17890945	-0.029709946	0.126905	0.40494788	0.67346084	0.43532604	-0.087016545	0.023543837	-0.23521629	-0.6317493	-0.066112876	0.5357595	-0.06651673	-0.45348996	0.16426474	0.034525692	-0.076728344	-0.35615566	-0.14545041	0.41625303	-0.83794594	0.22306839	-0.4099341	0.084610656	0.69689214	0.24173254	-0.36818355	-0.094304875	0.18174544	-0.21664888	0.14859095	0.08939931	-0.50160724	-0.21190831	-0.3259975	-0.92934364	-0.7743876	-0.42687652	-0.10580542	0.28272176	0.04409223	-0.41379714	0.06767648	-0.058504842	0.07582748	-0.1473896	-0.025970683	-0.23974922	0.020813033	0.25857472	-0.08215621	-0.19306985	0.24236338	-0.044926614	-0.51301914	-0.13465427	0.52188635	0.3046491	0.0027575642	0.30030444	0.15260422	0.3938673	-0.51573366	-0.8421376	0.21393391	-0.07742557	0.5117589	-0.65096986	-0.015348686	-0.29806295	-0.51289994	-0.46697626	0.27829427	0.0012339256	-0.08913499	-0.10330944	-0.09145625	-0.52106535	-0.2456544	-0.63591766	0.46425736	0.19947472	-0.63833845	0.5734279	-0.2500159	-0.33389258	-0.41516662	0.39064857	0.003029324	-0.41468233	0.1985703	0.024047837	-0.101104975	0.22315755	-0.14591512	0.30356684	0.07178099	-0.14962609	0.032052387	0.22394988	-0.41827342	0.6566147	0.060965568	-0.094631575	-0.24361913	0.39475185	-0.49587733	-0.015440598	-0.6715505	-0.26730785	0.08299753	0.5348902	-0.41635177	-0.41443712	0.2583402	0.5512313	0.2515127	0.080063395	0.20472208	0.31736696	-0.46866885	0.06972615	0.5966358	-0.18007477	0.02775109	-0.42780352	0.78877306	-0.40839666	0.16929255	0.32479292	0.28031534	-0.388389	-0.84257007	0.3187264	0.024788454	0.3751033	-0.057279516	0.5446701	0.21422529	0.13013369	0.41962835	-0.12245032	0.26276582	0.12270737	-0.016883582	0.4143294	-0.20324065	0.19699898	-0.66554177	0.403579	0.03241169	-0.34082	0.34359267	0.45798755	0.39803648	0.5082714	-0.5116855	0.18815674	0.6448028	0.2468276	-0.72284913	-0.041352138	-0.075397104	-0.25069895	0.6910919	0.6326921	0.772578	-0.056470454	-0.6042453	0.0052779913	-0.16989698	0.36753	0.78673154	-0.2799137	-0.25249675	-0.32310086	-0.024674341	0.2562868	-0.49707562	0.42938045	0.18226227	-0.019990575	-0.43194374	0.15386443	-0.3618517	0.70651513	0.8649921	0.19673914	0.12870869	-0.11205308	0.20867787	-0.13035129	-0.33290625	0.48015997	0.39957097	-0.14783518	-0.20204335	0.13270447	0.3965609	-0.17033565	-0.49069038	0.11378467	0.41260397	0.08017854	0.024586022	0.08881193	-0.004332781	0.16321285	0.010642201	-0.20881774	0.478278	-0.057418585	0.82607394	-0.078211315	-0.26921326	-0.73018134	-0.053398374	-0.25260767	0.5305987	-0.112973064	-0.14551245	-0.3193667	0.14569831	-0.5811267	-0.11934531	0.33110875	-0.025183745	0.3191084	0.45583186	0.105803765	0.09859612	-0.12093516	-0.00015711784	-0.033303726	0.14335148	0.22094212	-0.043073058	0.23443128	0.038476363	-0.51003116	-0.34774905	-0.58024716	0.2038247	0.16638646	-0.5115209	0.3292208	0.0711369	-0.20557526	0.025026277	-0.46398473	0.1000833	-0.3638951	-0.4872396	0.3964777	0.45112094	0.21327579	0.2503042	0.041492954	-0.6986855	0.10718038	0.050208844	-0.7386386	0.29495716	-0.11049664	-0.11064404	-0.154768	-0.48892248	-0.26827002	0.44476935	-0.43120733	0.4542164	0.09679231	-0.5397017	0.369107	-0.12829524	-0.53339696	-0.47270006	0.28668085	-0.023847573	-0.35767317	0.16703475	-0.30388868	0.40194237	-0.056346834	-0.11801841	0.16845162	-0.27932283	0.425914	0.37441784	0.2124373	-0.39801544	-0.27579942	0.20940381	0.0889518	0.044023	-0.030950002	-0.20936373	-0.19209519	-0.14570522	0.8455923	0.12225501	0.27821738	0.15541871	-0.053094104	0.108928755	0.5832418	-0.8263694	-0.17138562	-0.19445474	0.117026575	0.5730295	0.12757593	-0.41325068	0.06636134	0.1904572	-0.095496625	-0.5565634	0.079481706	0.05188617	0.16792935	-0.35426506	0.07847786	-0.1420296	-0.50102925	0.48269716	-0.03701342	0.17185135	0.052720338	0.482617	0.02194582	-0.55084723	0.24085912	-0.0023960192	0.078746036	-0.07486853	-0.007622421	0.14264384	0.29897362	0.07202734	0.33164132	0.52937686	0.5062181	0.54070985	-0.023807615	-1.1193924	-0.18408397	-0.3926229	0.58180463	-0.13612226	0.2704966	0.15270773	0.5745796	0.2531883	-0.43311322	0.06921081	0.38621247	0.09160182	-0.37449563	0.504612	-0.3627842	-0.13889827	0.4056595	0.011584744	0.15654254	-0.2091936	-0.8366609	-0.5493983	-0.46881026	-0.2956798	-0.04655111	0.2718054	-0.14061677	-0.25666913	-0.04826552	-0.37319663	-0.080239065	0.2835241	0.32676977	0.57569784	0.34174848	0.054377213	-0.5784741	-0.4158646	-0.35721138	0.22294119	-0.053569183	-0.37927827	-0.5972524	-0.015906945	0.2273387	-0.6870769	-0.08869815	0.4200796	-0.5688437	0.59130764	-0.634827	-0.10113688	0.44812304	0.22107877	-0.19852018	-0.17913792	0.06681627	-0.26001906	0.37907934	0.06648547	-0.048599765	0.27038696	0.13753594	0.37673736	-0.22281697	0.4723222	-0.21052161	-0.17007983	0.12822616	-0.18992162	-0.16644263	-0.47367248	-0.7856637	-0.16618289	0.3100448	-0.13238984	0.8344232	0.1522162	0.39520347	-1.0234739	0.2243968	0.21711516	-0.3042205	0.0034945868	0.64298713	0.7933598	-0.82172203	0.24644384	0.6645482	0.12863345	0.29075038	-0.027937517	-0.44806522	0.6660318	0.43940732	-0.19790457	-0.02066058	0.3324989	-0.2634025	-0.14801058	-0.47685304	-0.21228907	-0.14942452	-0.3494227	0.87911713	0.6469702	0.116361074	0.05269757	-0.27568966	-0.09414085	-0.08857234	-0.40688488	0.3963861	-0.15131202	0.5182887	0.10772243	0.19420867	-0.04647672	0.0069683194	0.013327498	-0.43589225	-0.69528353	-0.23786823	0.12797065	-0.1458494	0.47983512	-0.62427896	0.19540976	0.5774612	-0.11741446	-0.21748388	0.19591889	-0.30691093	0.16942863	0.10989113	0.083727784	-0.16572082	-0.06302334
