G000402355	0.08819642	0.084311195	-0.03580121	-0.0787275	-0.25359783	0.4339035	0.2723339	-0.22007093	-0.43713772	0.29393813	0.085910246	-0.33020824	-0.23198196	0.43559185	-0.208506	-0.05407267	0.04882808	-0.09139574	-0.31805035	0.019940056	0.63086164	0.3294925	-0.0223825	-0.23014426	0.2376181	0.08623153	-0.04106675	0.014411872	-0.36333063	-0.3894462	0.05250376	-0.09952281	-0.04891286	0.059343014	-0.38409033	-0.11411394	-0.031042913	-0.21480282	-0.17426237	-0.27284753	0.17840296	0.48596236	-0.07063826	-0.19776364	-0.14281248	0.14440611	0.29693273	-0.11450583	-0.091436066	0.07934802	0.07479345	0.2935083	-0.14257655	0.1655293	-0.09746162	-0.37281048	-0.0854817	0.40597603	-0.52161676	0.08616952	0.34466633	-0.059922792	0.28022495	0.22372462	0.011104742	-0.109698005	-0.13460441	0.4650222	-0.36750302	0.26614702	-0.31498772	0.15259778	0.09484537	0.2441971	0.69046587	-0.1377155	-0.05052657	-0.0029712694	-0.6515625	-0.1160414	0.39764458	0.29636684	-0.0843884	0.4319798	0.47588724	-0.09010898	0.4055626	0.2743972	-0.122911796	0.20696346	0.0075456616	0.17776868	0.42945558	0.094054736	-0.048738766	0.4157816	-0.3538492	0.4479846	-0.39852214	0.0018565548	0.36042744	0.35770816	0.28182432	-0.017718686	0.011873094	-0.20071921	0.016244672	-0.11319581	-0.02703218	-0.37582946	-0.07005243	-0.3029587	0.60864043	0.23124415	-0.8603412	0.66294724	0.31374466	-0.015877753	0.04670054	0.21358596	0.19789806	0.308691	-0.25812593	-0.008725343	-0.49128008	-0.5552099	-0.5808397	-0.200862	0.054051943	0.12079137	-0.26794326	-0.5557858	0.07157799	0.15098807	-0.75689656	-0.11671756	0.30379766	0.555641	0.111402474	0.17586882	0.17703292	0.07005655	-0.45305926	-0.1600512	0.8129625	-0.12231413	0.42478442	0.3502699	-0.3929694	0.22410019	0.1286018	0.022285074	0.3027772	0.33506745	-0.14895439	0.20649272	0.13080958	-0.34122932	-0.31662118	0.53099525	-0.09509065	0.44796172	-0.14568287	-0.029860498	-0.32655755	-0.10439555	0.40059698	-0.35247675	-0.07355984	-0.4656583	-0.23566936	-0.7518031	0.22235754	0.006976569	-0.2694782	0.40581936	-0.1737355	0.2993746	-0.20860757	-0.09802998	-0.11391961	0.22060713	0.010530501	0.27531672	-0.5555783	0.09696036	0.24319373	-0.28731963	0.035108287	0.34122744	-0.24457775	-0.16858955	0.28393802	0.5312569	-0.39105624	0.067408346	-0.019613236	-0.045933858	0.24532744	-0.09421172	-0.14639463	0.25222942	-0.5549382	0.12858076	0.11167335	-0.49477315	0.076331064	-0.639468	-0.03702604	-0.26268545	-0.38915035	0.18761048	0.106901154	0.69149905	0.120277636	-0.002786719	-0.4133323	-0.36172515	0.21290958	0.5233283	0.2805981	-0.32672912	0.31797415	-0.39676562	0.041666877	-0.31888312	-0.5133429	0.5332907	-0.08230998	0.09979261	0.3452259	0.21240655	0.0035487853	0.7325448	-0.095389016	-0.117540605	-0.0015583122	0.11564112	0.49893683	-0.098801896	0.13923012	0.098420694	-0.60436314	0.41667742	-0.11169873	-0.6235524	0.58677655	0.27747518	0.09174964	-0.38846043	0.2640371	-0.06372935	-0.08039109	0.115563974	0.005062759	-0.49330518	-0.351644	0.29870722	0.45912185	-0.6889024	-0.25733635	0.07482879	-0.13002515	-0.10768779	-0.38359216	-0.014431747	-0.2109556	0.052176215	0.2471522	-0.097759336	0.21114378	0.12416485	-0.8624206	-0.2804504	0.0052918433	-0.14091736	-0.33032608	0.2716872	0.5211843	-0.15398714	-0.43933287	-0.010802968	0.27185082	0.5092436	-0.29505083	-0.0874264	-0.5346454	-0.026605858	-0.25838828	-0.10972688	0.18826018	-0.001140347	-0.097424425	0.13039163	0.36681652	-0.97453344	0.1677122	0.103182025	-0.06561044	-0.5642657	0.37849778	0.31431124	0.2344671	0.1248999	-0.14030422	0.007358388	0.43104866	-0.16883485	-0.49257648	0.42463422	0.027667632	-0.10880201	0.3746018	-0.03069531	0.12372463	0.034565758	0.63609695	0.36305344	0.054534186	-0.21875867	-0.3020658	-0.09135553	-0.15002204	0.10304569	-0.5089444	-0.37432608	-0.27119687	0.08794815	0.10981986	-0.14443395	0.15865353	-0.12925322	0.09430138	0.41249907	0.58737755	0.22112533	-0.36288983	0.031789448	0.32933858	0.003443184	0.05084473	0.076603554	0.6405509	-0.0451689	-0.29838216	0.18292664	0.39552817	0.005975128	0.36289874	-0.20912139	0.34761226	-0.5516855	0.7300303	0.1234894	-0.054279104	0.14493528	-0.071438424	-0.22269802	0.23982409	-0.4921834	0.56273425	0.20588921	-0.084270634	0.6082025	0.09349256	-0.22738998	-0.6539959	-0.3403737	-0.09206375	0.34129822	0.15828262	-0.15943152	-0.01896963	-0.0056476253	0.04846665	0.14433506	0.25917238	-0.16584122	0.27531117	0.1401403	0.22577628	-0.21788146	0.022845024	0.368628	-0.28495443	0.64919394	0.51672214	0.3070568	-0.44571882	-0.0013662718	-0.16074722	-0.09765867	-0.27093115	-0.23854694	-0.31644022	0.060257003	-0.16430256	-0.043063633	0.14404254	0.38111877	-0.08523226	0.004188667	-0.44673356	0.2004293	0.1399683	-0.17198007	0.3104307	-0.1923856	0.53010434	-0.22224939	0.1670382	-0.3891937	0.1901309	-0.12233259	-0.16890754	0.04649481	1.2667822	0.17670216	-0.24514596	-0.6148228	-0.35987616	-0.17180681	-0.3600462	-0.3063286	-0.2533101	-0.38458204	-0.20735078	0.16030642	-0.29644984	0.21071652	-0.5459992	-0.49023107	0.14389864	-0.43797287	-0.10985944	-0.20564204	-0.30128455	-0.0487698	0.24262606	0.090741605	-0.29595447	-0.2929274	-0.41312847	-0.074135326	-0.003041728	0.26221305	0.12053709	0.08667387	0.38606036	0.6909518	-0.14934923	-0.15533736	-0.27826434	0.118930995	0.16074325	-0.7862272	0.3719527	-0.2862713	0.28085765	-0.04706778	0.28548732	-0.65934396	-0.21474841	-0.25975493	-0.25658822	0.32936528	0.007921092	0.16801399	0.16256091	-0.39081445	-0.30688632	-0.067494996	-0.49190998	0.14888662	0.017188504	-0.010690699	-0.26883736	-0.2887702	0.1830975	0.18199478	-0.27116588	0.10764585	-0.028700532	-0.28725284	-0.13519397	0.053165544	0.34012052	0.0151036875	0.062330015	0.50499094	0.02443921	-0.42253175	0.07738855	-0.3862378	0.4145205	-0.021917665	0.10185155	0.18716365	0.24879146	0.7228238	0.91959786	-0.096086755	0.46137583	-0.445336	-0.21223378	-0.13124375	0.21378432	-0.37791148	-0.33757612	-0.31300953	-0.113928005	0.37942952	-0.21422453	-0.37234047	0.066909835	0.5003211	-0.29113406	-0.094665475	-0.066468805	0.6529133	-0.11998202	-0.18013021	0.14471254	0.13101365	0.12759872	-0.046534136	-0.10851952	-0.1335541	-0.14326882	-0.7448956	-0.36109906	-0.1734543	0.35713637	-0.13348617	-0.13680395	0.19761403	0.623614	0.46852127	0.2524162	0.08577149	-0.06040328	0.28729793	0.58381605	-0.10884205	0.3533068	0.3491217	-0.39534608	-0.109086	0.41855535	-0.39131212	0.10291199	0.28213155	-0.01140148	-0.008113906	-0.2007802	-0.01764477	-0.2987437	0.11695004	0.474169	0.00794826	-0.17384051	0.2877747	0.030278774	-0.14373578	-0.16811793	0.9154261	0.0036804553	0.0912884	-0.23146805	-0.058165353	-0.43261832	0.3859709	-0.17537497	0.15911591	-0.228184	0.15559326	0.588473	0.23659517	-0.57160527	0.1645875	-0.24107078	0.24733758	0.39231002	0.13890524	-0.018259238	-0.0543965	0.21753368	0.19139111	0.078493536	0.25863767	0.068250924	0.27155748	-0.22183147	-0.49345496	0.32504538	0.17470653	-0.28059658	0.08322839	0.53059393	0.11832816	-0.16953771	-0.042987835	0.26437953	0.15757337	0.22962895	-0.057503294	0.06527466	-0.10752228	0.16619748	-0.14674994	-0.020707816	0.012066235	0.12403401	-0.27153584	0.06444305	-0.03376949	-0.19333889	0.080730885	-0.009903495	0.23761337	0.4019194	0.17558303	-0.025852846	-0.22101179	-0.0154172545	-0.75588423	-0.26073417	0.13949509	0.040494774	0.19849415	-0.17109683	0.11593424	-0.13607319	-0.5592547	-0.5853936	0.2085935	0.27771953	-0.13848707	0.48193738	0.38418025	0.066876225	-0.021215968	0.3977445	-0.37516946	-0.22373351	0.17191148	-0.23710074	-0.1109092	0.33714306	-0.09619584	0.089526586	0.21072438	0.40730497	-0.3898883	0.2579422	0.13730265	-0.03152117	0.44026625	-0.4587274	-0.036539137	0.1557146	-0.22090654	0.03720497	0.14761896	0.13359444	-0.15267922	0.4396964	-0.32008982	0.1626868	-0.7423315	0.037907906	0.083071634	0.33096704	-0.09154565	0.21898003	0.10264521	-0.14789513	0.43643716	-0.4351425	-0.38130817	-0.23758651	-0.057428587	0.52318794	-0.055913724	0.14606008	0.03610283	-0.24658738	0.78985876	0.14268982	0.35757864	0.007974182	-0.23098162	0.09877694	-0.14453852	-0.012081333	-0.30573693	-0.24302843	0.022852179	0.3235071	-0.10740721	-0.23366782	-0.13659991	-0.26755384	0.10120791	-0.46114925	0.0077699968	0.08221529	-0.08375427	-0.07015832	-0.3015897	-0.120352946	-0.6870903	0.33423942	0.33031803	-0.194354	0.37410352	0.011132957	0.5682187	-0.14975709	0.011988282	0.7345449	-0.088719025	0.012122023	0.25587496	0.07556371	-0.045065615	-0.025481705	0.4206823	0.34072095	0.109755956	0.18008257	0.36591783	0.1060452	0.088030085	-0.18925765	0.06017118	-0.41659102	0.027351657	0.07488449	-0.15195976	0.024363657	-0.20308524	-0.14526816	-0.21248716	0.44770688	-0.03555034	-0.20390339	-0.05822684	0.11457781	0.05776134	-0.16979663	0.7508226	-0.102093056	0.020077148	-0.47622004	0.24868633	0.16548462	0.3227285	-0.0936396	-0.14554226	0.21515395	0.13229512	-0.14955768	0.44019324	0.0630165	0.6678632	0.52967685	0.08319588	-0.21364446	-0.32299182	-0.60961705	0.62316865	0.09535356	-0.42280033	-0.3196412	0.4016889	-0.1559992	-0.3957542	0.14617759	-0.91745085	0.019598614	-0.53387064	0.15134813	0.29902813	-0.31335413	0.023145827	-0.14399618	0.25403193	-0.4530263	0.18982154	-0.17037275	0.061659686	0.32713187	0.23071744	0.08314183	0.008937933	-0.18542145	-0.063758545	-0.47043824	0.44604495	0.32261243	0.25331864	0.4200958	-0.19264425	0.62193805	0.057748143	-0.37297666	0.35814098	0.077740006	0.3422705	-0.10989211	-0.2564622	-0.15410146	0.32864377	0.096217275	-0.49028713	0.10072548	0.17647634	-0.25265905	-0.11792482	-0.31924987	0.16703843	-0.28207484	0.09872497	0.2197187	-0.43770817	-0.47405475	-0.2508275	0.13875294	0.0049932976	0.08233702	0.24582727	0.12197131	0.4321293	-0.4077879	0.008263034	0.26792887	-0.24693772	-0.32775068	-0.225235	0.47072786	-0.018231926	0.29529694	0.14858754	0.6601149	0.41694665	0.059685323	-0.07291308	-0.3023438	-0.0028969718	-0.17464711	0.051438328	-0.22746156	-0.2729991	-0.02861155	0.188136	0.38901278	-0.17470604	0.08965351	-0.43907997	0.21197774	0.06752808	-0.40480077	0.037321597	0.5846521	-0.16401489	-0.21147116	-0.3120661	-0.5517893	0.5303228	-0.058202278	-0.115812585	-0.014652758	-0.32277915	-0.111849695	0.16740444	-0.16142392	0.14181198	-0.1261891	-0.2858951	0.36978763	0.5320121	0.08456526	0.11053545	0.2528615	0.6212201	-0.04972712	0.015368643	0.1874186	-0.0522131	0.19219309	0.4322468	-0.45587122	0.054835327	-0.036582485	-0.07128012	-0.40474725	0.13797866	0.33598793	-0.5165375	0.5914673	-0.098413125	-0.49174938	-0.06586082	-0.18462232	0.42545685	-0.7538547	-0.19340031	0.7636952	-0.3586907	-0.2017181	0.13714997	-0.10491363	0.4833363	-0.4141921	0.67433393	-0.2562329	-0.2790838	0.11374326	-0.12011161	-0.074038364	-0.2486062	0.4530155	-0.1480505	-0.22953337	-0.11535679	0.28492138	0.04375433	0.26815295	0.5964809	0.23034686	0.37970665	-0.22368416	0.317097	0.016532736	-0.5764562	-0.19848117	0.28665242	-0.19668445	-0.045087185	0.05688167	-0.13138734	-0.28210914	-0.062828496	0.08434278	0.1605266	0.44661066	0.2266465	-0.28492057	0.091306806	-0.03321708	0.41533566	-0.3747974	-0.27742144	0.010384646	-0.6019529	0.14582238	-0.27459392	0.17862391	-0.21454126	-0.03648431	-0.14716674	0.14538255	0.041487735	0.43463403	0.097889505	0.08140595	-0.14833689	0.26629645	0.31285754	-0.12701814	0.3615533	-0.05180475	-0.47536063	0.24558477	0.1616942	0.1281223	0.06682244	-0.14018616	-0.3200596	-0.3318586	-0.33137524	0.25499618	0.29860792	0.29442954	-0.050470788	-0.09381745	-0.118986905	-0.009826649	-0.258649	-0.4693164	0.15457673	-0.109300785	-0.3756787	0.85574615	0.067614496	-0.72580487	-0.3825091	-0.1640026	0.39664805	0.03247178	0.3888984	-0.2876048	-0.035368115	-0.115580484	0.26909244	-0.44216475	0.2732403	0.22416097	-0.15800406	0.13633731	0.043377984	0.2833467	0.13335146	0.041579228	-0.18672462	-0.5986428	-0.008880563	0.4796726	-0.025208611	-0.07631434	0.17722522	-0.008835247	-0.13105369
G000830275	0.10918432	0.06777724	-0.01149255	-0.03546489	-0.29249752	0.42603695	0.2614064	-0.20597221	-0.4457476	0.28577298	0.10982313	-0.37674293	-0.21527706	0.4446494	-0.20252424	-0.0654335	0.09254752	-0.1015093	-0.30173028	0.049101025	0.5997723	0.30806282	-0.025649678	-0.21828353	0.2475798	0.07091851	-0.025441555	0.025010092	-0.3591722	-0.37664115	0.06817055	-0.107421316	-0.056382153	0.01952234	-0.41393805	-0.12528136	0.008762316	-0.21878158	-0.15062065	-0.2959244	0.19534124	0.49987575	-0.04872402	-0.17561121	-0.16494237	0.16390464	0.31282157	-0.12451926	-0.11028491	0.08646217	0.04645361	0.29608512	-0.1603135	0.14268647	-0.08847245	-0.36401412	-0.017140934	0.42267114	-0.532802	0.054420937	0.33543158	-0.09055674	0.29431453	0.23086423	-0.0130783515	-0.077841096	-0.11743562	0.46129012	-0.3563248	0.24246371	-0.3502332	0.16001976	0.10677751	0.2597969	0.702512	-0.14148091	-0.05831247	0.0029639842	-0.6342839	-0.07545999	0.35790962	0.280128	-0.05267601	0.45495886	0.4835127	-0.083168894	0.42719805	0.25974357	-0.14868787	0.22831929	0.023838555	0.15601118	0.43050036	0.08581175	-0.061527617	0.3911409	-0.34196007	0.46270537	-0.40514937	0.012521711	0.32652172	0.3671843	0.26184052	-0.03532365	0.039931323	-0.23329341	0.009313457	-0.14356276	-0.035282843	-0.38085338	-0.07140656	-0.28677854	0.60371864	0.25086004	-0.88403976	0.6885809	0.32974726	0.015617264	0.031173166	0.21911258	0.1863378	0.33503103	-0.29176965	0.005024558	-0.4811297	-0.5163083	-0.5968205	-0.20460327	0.041916657	0.1554659	-0.26075348	-0.5710356	0.075522736	0.11180725	-0.7338152	-0.124464355	0.28846124	0.5377481	0.06482968	0.18223138	0.1701775	0.06291044	-0.45585224	-0.19041717	0.797647	-0.107544124	0.45698807	0.33252528	-0.3775153	0.2178399	0.12271865	0.009581669	0.3069757	0.3197944	-0.14790225	0.22290994	0.09380073	-0.34832016	-0.30190045	0.50202125	-0.11894223	0.47869232	-0.17357834	-0.039363764	-0.2854983	-0.1431543	0.37808925	-0.3555897	-0.09455677	-0.45221964	-0.22353281	-0.7608497	0.20934942	0.003191585	-0.32620388	0.39618927	-0.18604192	0.2634063	-0.23283002	-0.12698145	-0.10747917	0.18615189	0.035958607	0.30152437	-0.5422597	0.14039777	0.23975697	-0.2935031	0.050759036	0.3260007	-0.23992349	-0.1508978	0.30586034	0.5501686	-0.38437167	0.031796686	-0.030175235	-0.039377898	0.23255314	-0.12058366	-0.1575371	0.24066538	-0.5804509	0.13675587	0.086073145	-0.5287023	0.035650097	-0.6442435	-0.04391843	-0.23505887	-0.39798257	0.16688593	0.11796521	0.694619	0.10689328	0.009149672	-0.40380168	-0.3412037	0.18753582	0.53808945	0.2587591	-0.31662354	0.36364734	-0.42989847	0.02352353	-0.23977801	-0.5020976	0.5154537	-0.13074522	0.083680384	0.36217374	0.20092359	0.009769129	0.7169653	-0.07666514	-0.14283215	-0.008038413	0.10527613	0.49428135	-0.09623386	0.13527495	0.10643984	-0.5932533	0.44767183	-0.13302056	-0.6297731	0.5935139	0.26425737	0.06276449	-0.37240097	0.25407925	-0.08608581	-0.08464176	0.08427405	0.016696382	-0.47882664	-0.35447216	0.33093205	0.47848892	-0.6593125	-0.23374839	0.06040012	-0.12709664	-0.1585847	-0.38438967	-0.03383746	-0.20285338	0.063153446	0.22152607	-0.080111936	0.2482285	0.11398778	-0.8651539	-0.30034712	0.017351057	-0.16565342	-0.3196744	0.26291955	0.4625965	-0.1743964	-0.4577452	-0.034533475	0.2634411	0.52604324	-0.28497308	-0.1010734	-0.5232694	-0.03236014	-0.2205805	-0.087456055	0.1542211	0.011138163	-0.07532196	0.14353684	0.38648653	-0.97826844	0.20110567	0.12808025	-0.034051206	-0.5431643	0.3943389	0.2836599	0.27245325	0.103085876	-0.11109685	0.027527865	0.44099626	-0.14552994	-0.475777	0.45777762	0.015578705	-0.11357224	0.33940905	-0.04040551	0.13773261	0.045321148	0.6265207	0.3429666	0.04734842	-0.20500095	-0.27691466	-0.111582026	-0.18006338	0.12251561	-0.5051075	-0.39748314	-0.25737855	0.11037049	0.12885036	-0.17647836	0.17184518	-0.12242416	0.061430212	0.34663388	0.58294	0.2188002	-0.3409473	0.016695214	0.37936312	0.029188592	0.046198472	0.08326205	0.65564394	-0.019471444	-0.26211557	0.15886478	0.3874192	0.024102757	0.33514464	-0.23472519	0.3189086	-0.576934	0.751815	0.13441478	-0.07700535	0.16926749	-0.061637584	-0.19689558	0.2539228	-0.45300972	0.59019166	0.18268521	-0.12081142	0.6117339	0.08067501	-0.2441408	-0.6445611	-0.36094955	-0.10742135	0.36337572	0.17731442	-0.14776736	-0.04763922	-0.035232957	0.036877822	0.10398167	0.24115722	-0.15942954	0.26743898	0.1391667	0.2296323	-0.20399857	0.06545318	0.34795478	-0.27345663	0.62371576	0.50844836	0.29474494	-0.45786694	0.0083611505	-0.16489664	-0.0609098	-0.26417032	-0.20816162	-0.2881226	0.043085985	-0.17933825	-0.05340086	0.16708396	0.3999926	-0.06769263	-0.003788136	-0.45778745	0.18187836	0.1003144	-0.15836269	0.30383196	-0.21231233	0.5278773	-0.23424357	0.15015335	-0.40037754	0.1507216	-0.1423649	-0.15498716	0.054132137	1.2739768	0.1387433	-0.2616279	-0.59863913	-0.38764104	-0.1849507	-0.34730813	-0.2815764	-0.24776693	-0.37797588	-0.19753844	0.15084362	-0.32919413	0.23678681	-0.5302492	-0.49834257	0.13413355	-0.39082628	-0.07825637	-0.20166098	-0.30783716	-0.056811307	0.20393471	0.101969376	-0.3127013	-0.31084242	-0.38133544	-0.084561884	0.015588175	0.3020724	0.0981513	0.09928096	0.37266952	0.6731176	-0.16366118	-0.18268727	-0.26332414	0.08786987	0.19119489	-0.79860836	0.3495129	-0.2826794	0.25488013	-0.05147583	0.2786372	-0.6572885	-0.21991828	-0.26675522	-0.23612656	0.35022715	-0.016445644	0.19144253	0.15372215	-0.39536488	-0.33122596	-0.07690226	-0.49611238	0.11753118	0.009077554	-0.0153833795	-0.28017253	-0.28164804	0.19317453	0.16493325	-0.31133553	0.12382759	-0.0021761488	-0.27294314	-0.0922109	0.06480249	0.31438524	0.020603774	0.078561015	0.4635112	0.040049907	-0.48044437	0.061262958	-0.4143317	0.40117985	-0.0356339	0.109649666	0.16951762	0.2291606	0.70911735	0.93147606	-0.12643573	0.44934082	-0.43061012	-0.1962758	-0.11057375	0.19427714	-0.33316728	-0.31359163	-0.32058966	-0.14016062	0.36937922	-0.23720874	-0.35425335	0.07600405	0.5335255	-0.2846609	-0.110982046	-0.06017796	0.63094455	-0.12753467	-0.16463917	0.1314491	0.10806851	0.10815218	-0.08565467	-0.1336957	-0.11550991	-0.117459185	-0.73210645	-0.3699073	-0.20796749	0.34135517	-0.14143272	-0.09075991	0.15806286	0.6085393	0.4626751	0.22338966	0.07388817	-0.013484729	0.3052135	0.58608514	-0.083290234	0.34511235	0.3332523	-0.41593733	-0.11431888	0.39965764	-0.40544945	0.120421514	0.27382702	-0.017208835	-0.0038303097	-0.19695409	-0.023777263	-0.28347617	0.10470647	0.44959602	-0.036266193	-0.21320584	0.30105087	0.017177047	-0.1631627	-0.1519579	0.89487666	0.04046341	0.09775486	-0.24635531	-0.016328566	-0.41314337	0.39701054	-0.16865	0.14377518	-0.1984781	0.13782865	0.63911825	0.20280214	-0.6047578	0.200401	-0.20858127	0.27253374	0.40933478	0.17955673	-0.07829767	-0.07529303	0.22225155	0.17703791	0.054295234	0.2622922	0.079221845	0.23185346	-0.1888307	-0.51098037	0.28253382	0.16817364	-0.27410161	0.099085346	0.5553006	0.12744999	-0.22055006	-0.020694602	0.29214963	0.13994218	0.20422731	-0.033015464	0.07324253	-0.09980158	0.17033339	-0.12389762	-0.028689181	-0.030384135	0.16012728	-0.26201025	0.09779183	-0.017031973	-0.21004905	0.032885868	-0.055550475	0.24898678	0.3938896	0.15240388	-0.044985503	-0.20860852	-0.03797391	-0.71672714	-0.23230045	0.114961185	-0.022902068	0.16911758	-0.203948	0.1572289	-0.16178598	-0.5189974	-0.55833185	0.20407517	0.25411788	-0.1429497	0.46288195	0.38098818	0.052693598	0.0027750146	0.42083785	-0.36957422	-0.21776372	0.20194276	-0.25254682	-0.11532988	0.3627569	-0.12708232	0.083255365	0.21737345	0.41643298	-0.3792461	0.2678566	0.16395058	-0.014072471	0.4341314	-0.44565395	-0.052615296	0.17591779	-0.20263654	0.018399598	0.14432047	0.112806566	-0.14326502	0.4408609	-0.30811438	0.15537454	-0.7613909	0.053023033	0.07308468	0.31079906	-0.068050586	0.21869206	0.04799775	-0.15002978	0.4269518	-0.46228996	-0.35690343	-0.18859333	-0.053565774	0.5530808	-0.032883257	0.13162859	0.008989169	-0.25795326	0.75663805	0.13411632	0.3470768	0.032748677	-0.21307203	0.10478225	-0.15431064	-0.03972418	-0.29482305	-0.22617425	0.05772732	0.34382224	-0.121787526	-0.24519919	-0.08273007	-0.2454366	0.11922301	-0.44229722	0.0037902666	0.100025326	-0.09648886	-0.07879399	-0.31662914	-0.14794573	-0.6706001	0.31665486	0.28710833	-0.18425128	0.3787997	-0.027877359	0.5732369	-0.1925399	0.056157067	0.7180975	-0.10354407	0.015644267	0.26195934	0.0498355	-0.057433814	-0.02069661	0.3906101	0.33639017	0.13255237	0.22845866	0.3606882	0.083647884	0.082043655	-0.16091113	0.078931324	-0.39294574	0.035383485	0.061441895	-0.13989335	-0.0079868985	-0.21170606	-0.16079995	-0.22526336	0.47352	-0.046244875	-0.21338755	-0.055032663	0.13327847	0.045526236	-0.1763976	0.7284969	-0.11445917	0.02716336	-0.4512757	0.21992518	0.14682262	0.3164478	-0.07352779	-0.15136802	0.23188476	0.13847089	-0.17208923	0.42836937	0.08556154	0.68313134	0.55144984	0.09897027	-0.15846907	-0.3054667	-0.59518534	0.6101906	0.07220288	-0.43224013	-0.30139145	0.3808534	-0.1464009	-0.39558	0.15398332	-0.9332964	-5.2907388e-05	-0.5041205	0.15946454	0.29575163	-0.27462417	0.028484335	-0.14010546	0.24069895	-0.49070218	0.14842656	-0.17886873	0.08659072	0.3312845	0.2512654	0.111012645	0.035618726	-0.18109192	-0.043156795	-0.4906977	0.4391203	0.32133022	0.24871315	0.39490035	-0.20423597	0.639707	0.049624182	-0.363908	0.36386073	0.08472206	0.36905238	-0.08511271	-0.24910393	-0.17571333	0.32699642	0.1329965	-0.45171407	0.084956475	0.1893565	-0.2427773	-0.094353884	-0.28083998	0.16898705	-0.2661064	0.08984193	0.23661925	-0.44831046	-0.46173203	-0.29056153	0.19938412	0.033770204	0.05657114	0.2767481	0.13770019	0.39562926	-0.42575797	-0.03469459	0.25728026	-0.24322811	-0.35702547	-0.24529266	0.44646496	-0.01036125	0.26347822	0.15737674	0.68471164	0.34036103	0.051207505	-0.1089706	-0.3409331	0.0061867447	-0.16724536	0.0533172	-0.23756175	-0.34430522	-0.003888227	0.21537572	0.37526774	-0.1660564	0.0971762	-0.4576568	0.23442453	0.089523256	-0.3953568	0.014678166	0.56762993	-0.15014201	-0.22310151	-0.29770514	-0.53572196	0.5191339	-0.014231998	-0.110841125	-0.011672387	-0.3104482	-0.12301471	0.11858248	-0.17834768	0.12875529	-0.092670865	-0.2824931	0.34944087	0.5066598	0.062146235	0.14004664	0.25510854	0.60667604	-0.0262148	0.02831505	0.22172889	-0.06906397	0.18660055	0.436075	-0.4284104	0.030091496	-0.030803436	-0.095536426	-0.3947059	0.13295174	0.35160178	-0.5313693	0.6094508	-0.0906001	-0.43700206	-0.05152786	-0.19658126	0.4194237	-0.777163	-0.19994138	0.7579151	-0.3519199	-0.17891845	0.08530054	-0.115243085	0.4759512	-0.42328072	0.6858282	-0.3078002	-0.24059245	0.09128397	-0.09188961	-0.06566972	-0.26425824	0.42935467	-0.15810187	-0.21399784	-0.1296829	0.26725113	0.0036699714	0.3032053	0.57015175	0.24269325	0.3621976	-0.22895312	0.32377353	0.03605615	-0.55656713	-0.17927398	0.31840652	-0.17613833	-0.040517516	0.033830695	-0.13847442	-0.257782	-0.018236376	0.05245939	0.1672	0.47171247	0.20748594	-0.32143953	0.106896654	-0.029293839	0.4011453	-0.39327466	-0.3083405	0.024176447	-0.60905653	0.16221982	-0.25457093	0.16533843	-0.24702646	-0.05758418	-0.13955551	0.13714558	0.05718597	0.4411916	0.120438434	0.047212813	-0.15957987	0.27441955	0.29417142	-0.15752785	0.34179613	-0.003955534	-0.48766765	0.22396776	0.19517012	0.13836928	0.05296137	-0.13557935	-0.30843696	-0.3232928	-0.3146096	0.2516811	0.3196707	0.27145836	-0.068809696	-0.07883364	-0.103205346	-0.02629778	-0.25173494	-0.44449678	0.12520353	-0.072407015	-0.32553348	0.8494351	0.10087213	-0.7015415	-0.39543727	-0.1963014	0.3698313	0.005107878	0.39786398	-0.2767278	-0.021699212	-0.08848888	0.24739797	-0.39919904	0.22985788	0.24187751	-0.16226642	0.1689867	0.057704188	0.26135343	0.10811469	0.051102273	-0.22052379	-0.6169893	-0.01890435	0.5096949	-0.044918355	-0.10772697	0.13921838	-0.031945307	-0.11427301
