G000830295	-0.036223155	-0.36144653	0.09834743	-0.108444996	0.416484	0.048542544	0.4092997	0.16539186	0.3318765	-0.048473842	0.37844247	0.34741116	-0.12742968	-0.3911389	-0.016057359	-0.13004132	0.7077394	0.19598909	-0.3097236	-0.059641186	-0.21129857	0.6449713	0.2821681	-0.32901287	0.51494795	0.005267686	0.34631824	0.3588688	0.111287594	0.19363974	0.084236026	-0.14468674	-0.036246605	-0.3064563	0.88137054	-0.079461895	0.14256787	0.21693973	0.30707198	-0.19153646	0.18452515	0.45333946	0.42312017	-0.412676	-0.49125347	-0.2234971	0.10762616	-0.13459192	0.011086438	0.12798773	0.089100994	-0.07775901	-0.0020878632	-0.6363925	0.18067682	-0.25724447	0.2629332	0.010492609	-0.17032467	-0.11205821	0.17108685	-0.034297258	-0.06475482	0.051669415	0.25540444	-0.15825427	0.23793021	-0.07488942	0.017097192	0.14825685	-0.3852788	-0.37261528	0.13385135	-0.22358616	-0.2029838	0.25240383	-0.02730497	0.047263317	-0.4404379	-0.24429443	-0.017691597	0.07277995	-0.13476114	-0.13902754	-0.09977116	0.16228409	0.41860464	-0.03646659	0.034362637	-8.4414205e-05	-0.1339648	-0.019497715	0.42800668	-0.053103756	-0.14014122	-0.26741254	0.07895409	0.12305712	-0.22320774	0.05805584	0.027217465	0.14491543	0.28608036	0.16732557	0.5331597	-0.3216385	-0.43697208	0.23234075	-0.21399987	0.016703228	0.010713614	0.10205529	-0.06338915	-0.05978577	0.26207826	0.23702079	-0.58501625	-0.10710818	0.0138969105	0.31374842	-0.18075676	0.2615674	0.09138224	0.005693052	-0.10812947	0.11269578	0.14051259	0.38188764	-0.28595427	-0.19475171	-0.09093728	-0.37600267	-0.059538946	-0.08303231	0.011163596	-0.12778597	0.4032855	-0.43608156	0.030795883	0.51649666	-0.047738615	-0.07874816	-0.28824842	0.16878851	-0.14015535	0.14465524	0.26365492	0.0038161657	-0.14215398	0.08961754	0.5243223	-0.057921927	-0.42922458	0.047298297	0.110561065	0.13033395	-0.24908015	-0.36231306	-0.4373329	-0.16247791	-0.062180188	0.13454214	-0.09615161	0.31388515	0.25050974	-0.07239956	0.15019137	0.34549922	-0.38790798	-0.04972972	-0.0942336	0.28618965	0.16032413	-0.26504716	0.30872157	0.35709465	0.41451755	0.08428641	0.3164268	-0.004543992	-0.0003182725	0.2182944	-0.12810121	0.4216295	-0.045703225	-0.07911825	-0.022067457	-0.0067895236	-0.061433624	-0.028634455	-0.2128373	0.0125894835	0.17910524	-0.21064888	-0.15608291	-0.39104357	-0.63715124	0.18118025	-0.2912026	-0.2267077	0.18168499	0.29448587	0.21070705	0.0038431094	0.10891128	0.2710662	0.059000544	-0.14301756	0.3565645	-0.18254986	0.19372562	0.18571682	0.0108912345	-0.044121612	0.006976123	-0.23627008	-0.04341747	-0.23312494	0.36867088	-0.25665677	-0.095230475	0.21957827	0.12855197	-0.38429064	0.12399996	0.036950402	0.12441834	0.13438958	-0.42243406	-0.13078745	0.15291943	-0.039698366	0.16253714	-0.32907444	0.20985171	-0.20180073	-0.2832087	0.13220228	0.005597021	0.3438627	-0.21461503	-0.31448525	0.17230573	0.007253824	0.1581545	-0.6269012	-0.34612232	-0.1933549	0.036994476	0.16665323	0.20645474	-0.23601857	-0.4363133	-0.07630223	0.39127102	0.13078743	-0.41687268	-0.07648763	0.3414784	0.065892	-0.37610734	0.12823804	-0.14336763	-0.067518316	-0.24392837	0.15931441	-0.25228542	0.0399828	-0.041567326	0.03131718	-0.002541531	-0.17816377	-0.20126767	-0.2878508	0.19406371	0.0939525	-0.16171889	-0.12562582	-0.09441221	-0.26807284	0.33558726	0.26274675	0.13576813	-0.2897067	-0.20403495	-0.08240789	-0.33760518	0.04803207	-0.14393313	0.33101678	0.22423422	-0.14081727	-0.078199536	-0.31570864	-0.13329385	-0.46680218	0.092979275	0.16186655	-0.1429288	-0.14653862	-0.46565044	0.16191815	-0.2995384	-0.05984571	-0.01217372	-0.13428897	0.095364325	-0.2165422	-0.092436686	0.035159037	-0.09950197	0.14740041	-0.09470308	-0.17623277	0.04652485	0.13069704	0.47209445	0.0035828282	-0.049227722	0.11328337	0.0023191064	0.042598866	0.26709458	-0.078815326	0.15060662	0.21972924	0.15974613	-0.16924939	-0.50821936	-0.039670914	0.032486822	0.20765224	0.26259348	0.043376774	-0.3165002	0.24325469	0.22904181	0.2378985	-0.30561668	-0.16987866	0.5304153	-0.2447741	-0.34485245	-0.2263009	0.17548719	-0.0052940645	0.6164572	-0.012555363	0.14632565	0.4609206	-0.065490685	-0.262239	-0.13715507	0.0673331	0.30166408	-0.11134846	-0.067343205	-0.13370219	0.13250689	0.26598993	-0.06486296	0.2650128	0.18017511	0.015625492	0.201333	0.2911348	0.101387136	0.39912632	0.07627378	0.116139084	0.17159578	-0.21805446	0.15045491	0.06231971	0.1775506	0.33197376	0.3971724	0.06133233	-0.09448585	-0.017263748	-0.25722164	-0.17308597	0.044296872	0.32600495	0.43194672	-0.31187198	-0.01680328	0.36860976	-0.042726766	-0.038991764	0.020147914	0.0442255	-0.16915919	0.07267449	-0.13217665	0.013982071	0.56432426	-0.1191887	-0.10436897	-0.15120791	-0.13807969	0.3468099	-0.3162455	0.43893307	0.1480866	-0.26197225	-0.2502043	-0.070595734	-0.21451592	-0.19116145	0.25116432	0.076372005	-0.27106488	0.06119574	-0.1693359	0.24814372	-0.40168762	-0.25648078	-0.3979811	0.26177683	-0.039472364	0.005149816	-0.091987684	0.21987055	0.300027	-0.12266094	-0.23122342	-0.11939251	0.044797353	-0.0928697	-0.015921142	-0.30445346	-0.21487394	0.14349467	0.11949853	0.46646672	0.0543958	-0.062101737	-0.17521945	0.16541454	-0.15527344	-0.10095882	0.10627674	0.2975546	-0.12458926	0.23697895	-0.02303944	-0.35559574	-0.026459316	0.087156005	0.018565174	-0.12839186	0.44529614	-0.19971816	0.29679996	-0.14228992	-0.3529947	-0.29147306	0.060126346	-0.03495752	-0.1713764	0.003258274	0.3048944	-0.17335555	0.11467648	-0.12912035	0.08326579	-0.031750854	-0.11652966	-0.090688124	0.12042732	0.22867791	0.042566925	0.059345596	-0.34395927	0.14637229	0.23311284	-0.09543743	-0.046396747	0.1314393	0.18590672	-0.32060555	-0.26072335	0.014729512	-0.53665084	0.24633281	0.13376953	-0.097325824	0.15699473	-0.025106516	0.12073195	-0.5133303	-0.20391291	0.31253865	-0.06824428	-0.1192158	0.026905024	0.16037787	-0.019966358	0.09675721	0.2412861	-0.15923306	-0.30513284	0.15385826	0.10780603	-0.23364004	0.022566603	0.09069169	-0.26765317	-0.3025236	0.2509601	0.1307339	-0.17128123	0.12974404	0.06630767	-0.0056067933	-0.010830982	-0.1247483	0.097373664	-0.15632722	-0.13617557	-0.19211723	-0.33240214	0.35513765	-0.12633277	-0.11474325	0.39603376	-0.341862	-0.064198375	-0.06309142	-0.06126137	0.103351526	0.045813363	-0.16100939	0.12348953	-0.40139243	0.24626759	-0.087688185	0.03213836	-0.494819	0.20761015	-0.21235418	0.46465668	-0.44964215	-0.34974554	-0.2860932	-0.4678984	-0.17607519	-0.005967693	0.057373304	-0.29550865	0.2280846	-0.40714827	-0.03668874	-0.4483268	0.05346584	-0.1650374	-0.10606121	0.03985315	0.0075239977	-0.39524567	-0.5110291	0.14856835	-0.25298467	-0.20659778	-0.14808251	-0.3567263	-0.096274585	0.27834147	-0.22051924	0.00044484963	-0.09617954	0.20061179	-0.037829548	0.22807133	-0.110399686	-0.13182245	0.113945805	-0.039428245	0.32896224	0.14442363	-0.27038336	-0.006096707	0.65288556	0.11777456	-0.5626566	-0.68089515	-0.07142367	0.08465694	-0.16466309	-0.28318524	0.25173512	0.29623097	0.1323495	0.08751099	0.16176488	0.14555089	0.1532864	-0.4594001	-0.05014514	-0.19421244	-0.07001341	-0.036074884	-0.2769803	-0.005147035	0.44580114	0.019792663	0.085640326	-0.09381253	-0.036440056	-0.14754228	-0.0053625363	-0.059136555	0.20160732	0.29704973	-0.12458055	-0.054419674	-0.27770734	-0.19152053	0.0005317857	0.19860895	-0.15278229	-0.26052535	0.14257014	0.10580648	-0.5369443	0.0353281	-0.0030735924	-0.012788185	-0.28345042	-0.18840913	-0.3600022	0.09551949	0.10187187	-0.61360687	0.098794624	-0.28781196	-0.037036918	-0.066763245	0.059061587	0.45030907	-0.4875017	0.29559	-0.026979264	-0.047577314	-0.09400372	0.095217384	0.19410539	0.13838004	0.0007827657	0.12195638	-0.31518754	0.42988023	-0.37223476	0.263086	-0.39117458	0.381194	0.108357534	-0.2806545	0.4284582	-0.16906112	-0.091828994	-0.099829406	0.36032233	0.103322566	-0.2587545	0.27412865	0.19692262	-0.31916317	-0.15067156	0.3147512	0.16906142	0.26496527	0.28221196	-0.08923457	0.19981775	0.2511593	-0.29107195	-0.07332164	-0.062430117	0.19737576	-0.20102006	0.48778424	0.25661337	0.06520989	0.2391019	-0.07789664	0.31948772	0.390602	0.40370554	-0.09748082	0.30181414	0.0393159	0.040617537	-0.041851744	0.10225908	-0.34290746	-0.042488415	-0.21742396	0.04181822	-0.06731097	0.19688608	0.18253699	-0.40430555	0.19961539	-0.21274601	-0.013210854	0.048056256	0.07164295	0.24317668	-0.010734667	0.16416419	-0.09777307	0.2748709	-0.02211973	-0.09905576	-0.13797237	-0.34108073	-0.05565293	-0.43081895	-0.35303214	0.01277609	0.04480639	-0.5585836	0.017842527	-0.3639961	-0.23147973	-0.07888457	-0.4272663	-0.076273955	-0.2849565	0.5112526	0.33544174	-0.25601152	-0.3313841	0.30994087	0.1658069	0.07391648	-0.07203252	-0.29651642	-0.0032077243	-0.2334158	0.20129304	-0.06581213	-0.31656083	-0.43314412	0.13903227	-0.2464881	-0.3224698	0.07078051	0.32489696	-0.1749844	-0.27743986	-0.0160493	0.15218498	-0.122522205	0.07047348	-0.48851448	-0.051367212	0.04464391	-0.03294224	0.39883548	0.22512516	0.023606729	0.033105444	-0.25586593	0.3745078	-0.3295968	-0.03937957	0.13734797	0.19278125	0.34257257	0.22545817	-0.09048534	-0.15844019	-0.017155433	-0.2860417	0.06666361	0.4381411	-0.04125989	0.16067642	-0.30938324	-0.11711457	0.008835387	-0.5393135	0.052548554	-0.12684369	-0.029544836	-0.0053608515	0.0608001	0.106197886	-0.07652117	0.31117043	0.11383729	-0.1704031	0.07322957	0.001982146	-0.2046175	-0.33124438	0.3378984	0.08418378	-0.12799402	0.12015562	-0.3609859	-0.23482221	0.1013732	-0.5445534	-0.36726168	-0.035825092	0.19847064	-0.32570156	0.26885846	0.026069548	0.06269443	-0.21389149	0.14100958	0.10731021	-0.07713809	0.15413503	0.24587847	-0.057902258	0.10524988	-0.026593234	0.03669642	0.24906638	0.033783972	0.03688373	0.4695872	0.340797	-0.07764404	-0.022161271	0.113557346	-0.03778482	-0.10265003	-0.36700577	-0.07367339	0.4673822	-0.3994396	-0.28698263	0.42353812	-0.20323674	-0.1932191	-0.016656917	0.38418385	-0.21763366	0.36667243	-0.47581503	-0.057494625	-0.033291295	0.28618678	0.36588433	0.28186	-0.10802318	-0.20338343	0.04519884	0.064073585	0.20945212	-0.51186025	0.18182439	-0.57882655	0.35173306	0.10846969	-0.24541052	0.19570535	-0.06169223	-0.15533416	0.18161711	0.06350691	-0.035499733	-0.21320038	0.061370194	-0.17858757	-0.5289022	0.37453297	-0.47012514	-0.13538824	-0.07410527	0.00020503261	-0.21715234	-0.11653581	-0.05602643	-0.14634874	-0.29819116	0.031590924	0.07917449	-0.27817348	0.48421866	-0.54832524	0.060139075	0.47373685	0.19256632	0.21302988	0.32685995	0.08043127	0.16579938	-0.21130233	-0.28666642	-0.1898013	0.16653925	0.49864966	-0.1804409	-0.18771243	0.23756449	0.08591766	0.23903376	0.31946057	-0.41569743	-0.04006078	-0.023443036	-0.06538132	-0.13688397	0.054004572	0.18676358	0.13597202	-0.161382	-0.40251642	-0.4862501	-0.33737618	0.14218365	-0.28545675	0.06558119	-0.18253197	-0.15894757	-0.1664999	0.33006603	0.0805636	0.090320304	0.26337397	0.113761716	-0.35602847	0.58914936	0.049894184	-0.046917595	0.15892087	-0.05441467	0.01351087	0.04359391	0.020907708	0.12520047	-0.102874175	-0.23961735	0.05165621	-0.22285351	0.19369265	-0.21088573	0.2519583	0.31962407	-0.17894429	0.31001765	0.07368454	-0.237609	-0.012344287	0.29964918	0.22174709	-0.20746204	0.07148977	0.29711288	0.16015083	0.14472635	-0.18121004	-0.17242563	-0.20868966	0.14028375	0.25273082	0.23219539	0.20153204	0.12349561	-0.49130407	0.39911246	0.592123	-0.33581945	0.2072604	-0.19770437	0.19650514	-0.42230582	0.2843191	-0.05488517	0.25512886	0.021817982	-0.34420702	-0.12072706	0.1811393	0.130554	0.45545718	-0.2240216	-0.15346408	-0.0023358648	0.26361305	0.1546567	-0.25234017	-0.54502124	-0.18189164	-0.10766675	0.22721787	-0.09121242	-0.06307237	0.56793964	0.33448067	-0.09871133	-0.17780598	-0.14530693	-0.14885832	-0.19684862	-0.49701422	-0.10172924	-0.6485573	-0.45140177	-0.034886014	-0.1729373	0.011959555	-0.2429049	0.12883565	-0.051287647	0.1549137	0.022391105	-0.050960142	-0.39150244	-0.018167743	0.27986404	0.17538124	-0.2268464	-0.16034865	0.010685982	0.14056511
G001940645	0.017721593	-0.32836485	0.083126	-0.10543277	0.41979557	0.03500591	0.39627948	0.20272714	0.3389524	-0.052415982	0.3735821	0.30521807	-0.13293873	-0.35776064	0.014787958	-0.15588026	0.6538941	0.17693925	-0.3155949	-0.13127199	-0.2012157	0.6154245	0.2370029	-0.3171335	0.504794	0.014046835	0.3370527	0.36676294	0.053382184	0.19827479	0.08721576	-0.15583593	-0.02013732	-0.3219393	0.8582638	-0.07398506	0.13810913	0.20523544	0.29871303	-0.19407319	0.20776658	0.43935245	0.3447311	-0.38336992	-0.447725	-0.21374422	0.15767607	-0.14532179	0.014612458	0.08642387	0.16294228	-0.021702912	-0.047749456	-0.6323911	0.18580306	-0.25077263	0.2825753	0.023243003	-0.21982113	-0.10669395	0.22493576	-0.056394964	-0.042022746	0.029654713	0.23870997	-0.19478339	0.27182466	-0.10217362	0.005078603	0.17275563	-0.37903425	-0.36400223	0.10925814	-0.23591915	-0.2351389	0.24926513	-0.025991011	0.08654029	-0.40359396	-0.24196017	-0.0046137366	0.085445136	-0.15591636	-0.15887243	-0.12501001	0.18737793	0.40193388	-0.029657155	0.036693975	0.0014136822	-0.10849906	-0.008124564	0.4203548	-0.062586494	-0.10912298	-0.22990741	0.061382245	0.13309206	-0.24832179	0.057791192	0.07752346	0.12733386	0.2485695	0.14912972	0.48239437	-0.3408585	-0.39404932	0.25642836	-0.22857831	0.044996303	-0.022947518	0.06296835	-0.06027147	-0.052821424	0.19282722	0.22434829	-0.64941615	-0.15782034	-0.015839107	0.30041447	-0.14880097	0.24157266	0.10325283	0.01451865	-0.09124596	0.14851083	0.12592809	0.38447544	-0.25868478	-0.18239242	-0.107681476	-0.31849286	-0.08619383	-0.06154905	-0.0021971718	-0.11804943	0.38868323	-0.42650613	0.096251	0.54753894	-0.034494672	-0.07234889	-0.29194665	0.16574049	-0.19381188	0.1637679	0.28065082	-0.044704843	-0.11936207	0.015350088	0.48728892	-0.026336944	-0.4432644	0.017320402	0.10845195	0.1686302	-0.2479569	-0.3818826	-0.47326502	-0.17430961	-0.08087013	0.10528272	-0.09154296	0.27734283	0.25028127	-0.105659686	0.13355353	0.31050783	-0.36566016	-0.05083314	-0.08864511	0.29749814	0.1402821	-0.2715384	0.28238034	0.37878507	0.41686162	0.11395199	0.29710874	0.020695867	-0.004127065	0.2585472	-0.19174531	0.43625665	-0.07550071	-0.03305467	-0.034929134	0.010160721	-0.057436682	-0.03755587	-0.18898085	0.033147536	0.17328987	-0.19422694	-0.16021363	-0.37920195	-0.61706036	0.18177472	-0.27836648	-0.22319254	0.1616477	0.26270044	0.21502809	-0.025046539	0.06902189	0.30945387	0.063533135	-0.13119304	0.38111126	-0.15743382	0.18838874	0.16204809	0.011461661	-0.046079468	-0.03379722	-0.18968806	-0.04607286	-0.2059594	0.38300627	-0.24740149	-0.13043885	0.23910421	0.13584699	-0.3755362	0.12598842	0.03748443	0.12681814	0.11012843	-0.37862566	-0.113511086	0.14370099	-0.017425774	0.095520794	-0.40900517	0.17797725	-0.2181961	-0.3169866	0.12563235	0.047236707	0.3371493	-0.22983208	-0.30762553	0.16929118	-0.027306784	0.14479354	-0.6229638	-0.34624332	-0.15832847	0.013177564	0.17112944	0.24981609	-0.17635027	-0.44352815	-0.14489153	0.3495481	0.1258565	-0.4338255	-0.092648424	0.32687965	0.057410356	-0.35182175	0.09903251	-0.18704171	-0.08388029	-0.23516764	0.18056676	-0.26148325	0.015889978	-0.06065445	0.015288817	0.031446867	-0.16401224	-0.19056539	-0.2797426	0.23709694	0.13080025	-0.16606033	-0.14730509	-0.122783855	-0.29104123	0.28675127	0.24973343	0.14443137	-0.24991068	-0.20401075	-0.120755695	-0.34064335	0.116916634	-0.14145319	0.33668256	0.18746231	-0.10639777	-0.058129385	-0.29576147	-0.12269996	-0.47370994	0.022875289	0.109413795	-0.13624008	-0.14378867	-0.39194414	0.13456964	-0.24378419	-0.032285962	0.042438682	-0.09279683	0.09935337	-0.18906128	-0.06981491	0.06192843	-0.06792172	0.119905226	-0.12249132	-0.17325915	0.0009518226	0.14131361	0.46317208	-0.0036304554	-0.07043087	0.11275851	0.077830255	0.039389346	0.26096147	-0.1670815	0.120430805	0.17174222	0.20321977	-0.18808624	-0.48092353	-0.038172062	0.031328406	0.21080373	0.2072464	0.022193912	-0.31500626	0.23191209	0.21798673	0.2465735	-0.2926868	-0.1327947	0.5240041	-0.26050666	-0.3151124	-0.22397287	0.16964464	0.037673302	0.59772563	0.021297518	0.1730292	0.4499727	-0.065056734	-0.2894279	-0.122108154	0.07118867	0.2760406	-0.12717706	-0.057213966	-0.09662528	0.11481919	0.24865171	-0.046087403	0.27433234	0.14610092	-0.021515256	0.16225277	0.32645825	0.044252582	0.37617475	0.010033274	0.11171463	0.1499026	-0.18836872	0.13465892	0.037041545	0.18061607	0.34187853	0.34768283	-0.02981469	-0.05843587	-0.010607039	-0.2879623	-0.15957578	0.049283408	0.34576914	0.45116016	-0.3388655	-0.020821346	0.33148485	-0.109084755	-0.022576747	0.04771607	0.065299	-0.15667428	0.10092016	-0.13672349	0.020036053	0.52056956	-0.14707439	-0.105679125	-0.14891529	-0.1481597	0.31745443	-0.3231353	0.46348956	0.103497304	-0.21557151	-0.17677091	-0.059666608	-0.2045866	-0.19006498	0.24761459	0.071742795	-0.2615792	0.10145311	-0.21123207	0.285422	-0.40737766	-0.23444903	-0.4296734	0.20928982	-0.050081335	0.043286186	-0.09692653	0.20047468	0.23551627	-0.14964813	-0.24948393	-0.10461883	0.06305934	-0.08467238	-0.022508215	-0.29496747	-0.20350724	0.14982894	0.12186316	0.422171	0.009840567	-0.04058946	-0.14434952	0.17378545	-0.12440501	-0.11326108	0.12598215	0.26314363	-0.057938524	0.25251213	-0.06417484	-0.38969937	-0.025613306	0.06573986	0.016363017	-0.1264941	0.45115286	-0.21724184	0.27156013	-0.1475086	-0.39100012	-0.270556	0.12564887	-0.09428492	-0.12613411	-0.050201025	0.3047773	-0.15046455	0.12785217	-0.13549007	0.08315837	-0.029953325	-0.10649583	-0.055160116	0.16362056	0.22990125	0.03822196	0.11459875	-0.29160234	0.13637415	0.22234003	-0.113968514	-0.04997876	0.12322638	0.1760278	-0.32988214	-0.22193865	0.043352522	-0.55265737	0.20408636	0.12693791	-0.11078342	0.15615882	-0.09784929	0.10074424	-0.50891703	-0.16153395	0.32981196	-0.06391358	-0.12504552	0.047628522	0.12206844	-0.036917154	0.0770828	0.2661355	-0.12563528	-0.28279012	0.13958147	0.09956954	-0.1902952	0.037724435	0.10682687	-0.24364276	-0.31027296	0.23468867	0.03196996	-0.14264795	0.13058217	0.061790965	-0.019262647	-0.0037320196	-0.15825312	0.098758414	-0.11081487	-0.14871693	-0.1922256	-0.34568915	0.33228117	-0.11262401	-0.13149184	0.3832667	-0.26876232	-0.12388217	-0.067650236	-0.06169135	0.11398868	0.023911541	-0.20526947	0.11003756	-0.4268098	0.2219087	-0.05692914	-0.01941407	-0.5034539	0.24693899	-0.2136163	0.4616122	-0.44144064	-0.29610282	-0.25038224	-0.4805169	-0.1501313	0.0080059	0.05888311	-0.273986	0.22635138	-0.40673423	-0.009187208	-0.39809117	0.042519167	-0.19158015	-0.08867499	0.014638407	0.052909315	-0.38124508	-0.48658317	0.13835157	-0.27644148	-0.16876669	-0.16533214	-0.32455555	-0.10302297	0.23051095	-0.20266509	0.016708495	-0.114035055	0.18676475	0.0027356853	0.20670792	-0.06521402	-0.13749741	0.12923864	-0.023076378	0.31233302	0.14824487	-0.2964069	0.036844127	0.65096796	0.10463781	-0.5518329	-0.65639085	-0.13331579	0.12028816	-0.11265704	-0.2656502	0.2750617	0.2728031	0.12488122	0.04884901	0.14970689	0.10290036	0.14072594	-0.44283873	-0.05887656	-0.20951776	-0.13593973	-0.005332464	-0.3199716	-2.6667652e-05	0.39061204	-0.010094803	0.0914641	-0.04493744	-0.044385828	-0.18219988	0.024546467	-0.13754904	0.1647908	0.24407977	-0.09495131	-0.033087637	-0.27331433	-0.24146938	-0.008367058	0.20458516	-0.103608295	-0.2448653	0.13811843	0.09183234	-0.53692836	0.025239915	-0.0044774353	0.008088327	-0.26811516	-0.16463143	-0.31879577	0.019992877	0.094347745	-0.515452	0.10119452	-0.24531324	-0.058005452	-0.08290417	0.1289925	0.4439712	-0.50003475	0.19220999	-0.030842336	-0.044933658	-0.06513129	0.079063	0.14544177	0.18215373	0.006360438	0.11660652	-0.3001016	0.39496866	-0.30082342	0.26359466	-0.35792336	0.38604516	0.0898367	-0.27865067	0.37589705	-0.1630137	-0.10435405	-0.045689277	0.40990767	0.105488315	-0.3137489	0.26308656	0.19240777	-0.32303175	-0.16054079	0.34161797	0.18599111	0.25685787	0.34026814	-0.08780486	0.16350536	0.2730893	-0.26508868	-0.047370795	-0.08412502	0.18072297	-0.21857382	0.49839842	0.21783926	0.062148005	0.23626705	-0.052490354	0.3001183	0.38436618	0.3656942	-0.106612474	0.22037557	0.10793449	0.054442562	-0.089052096	0.0834124	-0.3291911	-0.05372698	-0.194398	0.012904861	-0.04493501	0.19478	0.17679876	-0.4015695	0.17361607	-0.16164933	-0.03918894	0.044131782	0.10072902	0.2279433	0.026693862	0.12722467	-0.15719517	0.29025805	-0.014684032	-0.10656493	-0.12590788	-0.33560982	-0.008943452	-0.4799085	-0.4026817	-0.046027564	0.038453583	-0.44834232	0.0009988267	-0.34463552	-0.22409227	-0.043585442	-0.44849104	-0.07300628	-0.27574155	0.5027852	0.34470692	-0.22319469	-0.33383548	0.29802573	0.14482667	0.04047423	-0.044024024	-0.29230598	9.423702e-05	-0.22763668	0.20868732	-0.055699535	-0.31638914	-0.42923075	0.057732254	-0.256338	-0.32849663	0.06648936	0.29686415	-0.10371241	-0.28761142	-0.013738734	0.17596698	-0.12990962	0.05761831	-0.44461986	-0.06822289	0.013917623	-0.028932583	0.41693324	0.23673618	0.036753133	0.026820734	-0.26077458	0.38610953	-0.31065506	0.017631333	0.1286675	0.21293002	0.3404212	0.2288547	-0.09157027	-0.1632132	-0.019482248	-0.2815057	0.07875769	0.46312392	-0.04802254	0.1924335	-0.3319522	-0.09113864	0.022627255	-0.45779735	0.044199165	-0.12495979	-0.016785227	-0.0056511317	0.07396549	0.04896861	-0.078720726	0.3129703	0.10279195	-0.16725333	0.09947281	0.004895956	-0.24013686	-0.30850193	0.34657136	0.11625265	-0.14354713	0.07274903	-0.32260454	-0.21252793	0.1554801	-0.56439763	-0.31535038	-0.05139804	0.22474723	-0.31999308	0.27642435	0.014677983	0.051764414	-0.17993271	0.10901153	0.16547471	-0.1148546	0.1496383	0.22830033	-0.00039331953	0.114612386	-0.016763473	0.02408036	0.2725779	0.03235437	0.0054204306	0.514448	0.34173623	-0.009181075	-0.06980097	0.13981193	-0.07298996	-0.09341376	-0.37644428	-0.026732258	0.46213287	-0.4050101	-0.23348574	0.36791626	-0.19984677	-0.17212695	-0.011020997	0.3693243	-0.20196712	0.36758524	-0.4786754	-0.06597784	-0.05084144	0.29150882	0.38609484	0.30117276	-0.10685709	-0.17728269	0.06941825	0.024962312	0.16924156	-0.53054494	0.17628074	-0.5646538	0.35627893	0.09634102	-0.25920856	0.19976383	-0.068580434	-0.15506047	0.1905015	0.11003534	-0.039714236	-0.25124916	0.15667652	-0.15562713	-0.55665827	0.38119107	-0.47053915	-0.1428913	-0.009389866	-0.032934926	-0.20654932	-0.121806175	-0.021712432	-0.111914776	-0.25353268	0.035355065	0.0783789	-0.32459563	0.4701232	-0.5353141	0.02046689	0.4975818	0.22893211	0.24941686	0.36837438	0.070996836	0.17301795	-0.19483481	-0.2912179	-0.1948242	0.11665249	0.50373834	-0.20941721	-0.17337705	0.25937158	0.096269995	0.24568406	0.3219658	-0.3694074	-0.03848687	-0.009312915	-0.040698405	-0.11389186	0.060880657	0.1938437	0.14993595	-0.1795645	-0.3720337	-0.49139085	-0.27324092	0.12778321	-0.258422	0.07756762	-0.1556233	-0.16854176	-0.20112106	0.3582433	0.054018006	0.1492005	0.22739078	0.10784477	-0.3552904	0.5370259	0.06374609	-0.07516974	0.16017263	-0.10591958	0.030773895	0.029382112	0.03196615	0.14298515	-0.098641895	-0.2410358	0.044027194	-0.23461413	0.19790687	-0.23160566	0.22377315	0.29967508	-0.1496092	0.2923018	0.0729141	-0.21902975	0.0036772632	0.29169005	0.18003882	-0.19261846	0.06665588	0.2988237	0.12330915	0.15899289	-0.18362936	-0.1635382	-0.19161075	0.1702663	0.25685135	0.22271803	0.16081207	0.07887122	-0.4051841	0.4088395	0.572444	-0.3323523	0.23526981	-0.21625596	0.20844941	-0.4172032	0.28018415	-0.02069142	0.23170114	0.015320956	-0.33405843	-0.099474825	0.15597042	0.12399213	0.37508827	-0.25324258	-0.14178523	0.02155159	0.25461587	0.15089881	-0.23954195	-0.55991095	-0.14226349	-0.1296149	0.21694373	-0.0981396	-0.045267217	0.5571562	0.33041543	-0.0969719	-0.1793516	-0.1815266	-0.12046971	-0.17363426	-0.54119855	-0.13741544	-0.6696265	-0.48931408	-0.007575223	-0.18223916	0.057178736	-0.27002126	0.13221128	-0.05929195	0.1414719	0.012932669	-0.10266956	-0.44404402	-0.06462376	0.2869925	0.16753766	-0.22684425	-0.16671975	0.009550392	0.14232317
G001871415	-0.103384584	-0.3662274	0.13279219	-0.10633883	0.4232542	0.077206194	0.4120916	0.10499338	0.3320322	-0.04546023	0.37608296	0.35508043	-0.11152055	-0.41906545	-0.051383995	-0.1418431	0.7654878	0.16180108	-0.2936726	-0.019761018	-0.2199342	0.672869	0.32683045	-0.34774944	0.5182163	-0.023831505	0.34200612	0.3687225	0.17106894	0.19984858	0.08534512	-0.12390021	-0.029316759	-0.30598745	0.8717965	-0.0775723	0.16245341	0.18343529	0.30182603	-0.20976722	0.16976975	0.49264136	0.4962328	-0.45783645	-0.5159823	-0.20317902	0.09076105	-0.11015604	-0.01905245	0.10914617	0.03532043	-0.116261855	0.030826256	-0.62539035	0.21775053	-0.24857071	0.2203694	0.0043148557	-0.0793064	-0.10797721	0.08294009	-0.034624275	-0.085109144	0.10480327	0.24580167	-0.119096965	0.19827269	-0.082095526	0.03920121	0.16617894	-0.3715943	-0.3590399	0.16678384	-0.23365912	-0.17675863	0.24131563	0.0011666354	0.024036158	-0.4943311	-0.25568092	-0.045193054	0.07535676	-0.13305154	-0.11936364	-0.092946574	0.12726797	0.43387118	-0.06220397	0.0379309	-0.030918181	-0.13906275	-0.047174267	0.39850473	-0.064153716	-0.15356313	-0.29695857	0.086638674	0.10795713	-0.2366553	0.077249706	-0.04215978	0.1240244	0.3005848	0.23200926	0.56234646	-0.28117085	-0.4473031	0.24141672	-0.20902401	0.013347754	0.019746328	0.13579212	-0.06255085	-0.065253526	0.3505485	0.2968885	-0.47122478	-0.08639454	0.015944807	0.31569356	-0.2088284	0.24612553	0.0880794	0.012014813	-0.10194166	0.10116705	0.13048178	0.38400927	-0.36261514	-0.19997498	-0.10748707	-0.412694	-0.0028147176	-0.14244574	0.013081266	-0.1239326	0.39614493	-0.40617865	-0.033919726	0.5071432	-0.00026164472	-0.0919766	-0.3068189	0.19977365	-0.07723116	0.16177183	0.27267134	0.0876735	-0.19567727	0.17221479	0.53965443	-0.03746844	-0.39797014	0.08286759	0.10862542	0.099128686	-0.23653227	-0.3366798	-0.4339549	-0.17171271	-0.048147622	0.17622244	-0.09558142	0.33237833	0.24972072	-0.014254553	0.18948577	0.35441464	-0.38394272	-0.042933315	-0.08337124	0.28140113	0.15684922	-0.2698635	0.32041493	0.3306585	0.39033857	0.07536199	0.30880344	0.010848613	0.0025942584	0.16558453	-0.051897082	0.40870583	-0.049642276	-0.0738646	-0.0027767515	-0.01568769	-0.04750721	-0.07650895	-0.19389999	-0.0017260172	0.21162225	-0.19804622	-0.15669158	-0.38304263	-0.6121324	0.1782759	-0.30570334	-0.2299225	0.17043765	0.32776606	0.21188559	0.042360455	0.13886733	0.22791262	0.06698553	-0.14008681	0.33671492	-0.18566266	0.20678173	0.1790355	-0.0015754311	-0.07816154	0.045708783	-0.2616941	-0.027185977	-0.2715847	0.38222033	-0.2563445	-0.07096686	0.18782596	0.08479718	-0.39244235	0.097071566	0.036521383	0.1293922	0.13648745	-0.44156688	-0.12332692	0.14957891	-0.07365518	0.24184404	-0.24371922	0.23592633	-0.099960566	-0.2543032	0.13302283	-0.049715318	0.33943936	-0.21888165	-0.30850267	0.17103542	0.036314085	0.15084058	-0.59742767	-0.35326332	-0.21902196	0.064286314	0.17152932	0.15621845	-0.26874015	-0.43979052	-0.05717919	0.40405083	0.12445358	-0.4129779	-0.055373948	0.3639672	0.06358389	-0.40976164	0.16285871	-0.10710535	-0.07737033	-0.2411683	0.14056492	-0.22232684	0.06497676	-0.013192459	0.018460346	-0.028060041	-0.17069684	-0.20992097	-0.2819247	0.10175018	0.12291559	-0.13872997	-0.084317125	-0.07866743	-0.26575541	0.36871004	0.23385729	0.1323327	-0.3134399	-0.16031182	-0.021884391	-0.31203738	0.019221604	-0.15063319	0.34528372	0.2550563	-0.15140396	-0.07624663	-0.33334222	-0.11225404	-0.46057332	0.17153428	0.22115354	-0.15267402	-0.13289	-0.50906	0.1927636	-0.3211474	-0.08547485	-0.09940862	-0.1486221	0.07856387	-0.2607844	-0.117033236	0.03907243	-0.09956514	0.19404818	-0.12702891	-0.19899152	0.1046536	0.101021565	0.47315705	0.053939573	-0.024061535	0.12192948	-0.08635634	0.0414178	0.2275105	-0.025055028	0.14227624	0.25308916	0.14819044	-0.17169018	-0.5125086	-0.041039858	0.011688114	0.20893593	0.29714435	0.07154716	-0.32924053	0.25947806	0.2270939	0.24287306	-0.28812328	-0.18751611	0.5201501	-0.26473853	-0.32835197	-0.20983243	0.18445905	-0.037199747	0.61851794	-0.074881636	0.10718741	0.45827696	-0.049977172	-0.21499048	-0.13959767	0.080105424	0.30390874	-0.11852613	-0.06605975	-0.15916748	0.12165836	0.26103932	-0.10927643	0.24889171	0.22790983	0.02512639	0.236885	0.2254775	0.1661807	0.39720568	0.13907766	0.12119115	0.20727447	-0.24215372	0.12504154	0.07908368	0.16311152	0.3072367	0.4342648	0.14329423	-0.15005292	-0.03092985	-0.22330248	-0.18939097	0.030654518	0.30559832	0.38285357	-0.29327166	-0.0059596957	0.40372977	0.032788366	-0.021958685	-0.0003579556	0.05462655	-0.18746768	0.0509458	-0.11298119	-0.009044639	0.61955714	-0.12277032	-0.09429556	-0.13747886	-0.12991536	0.33278888	-0.32146853	0.44207144	0.21609393	-0.23590748	-0.3119786	-0.078961946	-0.18910632	-0.1928661	0.30082634	0.07872959	-0.2963973	0.021768048	-0.13413563	0.21830139	-0.39037052	-0.28527454	-0.30693188	0.29702774	-0.04862023	-0.017591879	-0.09566581	0.22709803	0.35811943	-0.1262903	-0.21351945	-0.113620274	-0.003188697	-0.09170273	-0.03958677	-0.2971374	-0.20731282	0.1202853	0.12667619	0.47785866	0.064741254	-0.07284389	-0.18197387	0.19985151	-0.16211845	-0.06821175	0.114866614	0.26429385	-0.16541179	0.19453193	0.0150166135	-0.3065555	0.0042871037	0.113182805	-0.0075843893	-0.124518715	0.4314626	-0.17445372	0.3173232	-0.1442852	-0.34384033	-0.33251774	0.0050039864	0.012500759	-0.22876705	0.054874573	0.28383484	-0.16455893	0.1294604	-0.114272706	0.083201215	-0.041958336	-0.12797742	-0.14141907	0.062066168	0.22884734	0.03877454	0.026222903	-0.36827627	0.1519365	0.24947543	-0.081365556	-0.044769704	0.1518017	0.18187197	-0.32202962	-0.30097777	0.0052136183	-0.5456286	0.28379822	0.12607747	-0.058109704	0.15699238	0.07615471	0.090941735	-0.5164734	-0.23853523	0.30864954	-0.0871117	-0.13031295	0.038631007	0.15035065	0.00270782	0.089538075	0.2094043	-0.19072208	-0.34040573	0.15178007	0.10567357	-0.23132247	0.028617552	0.09362181	-0.26546118	-0.29346567	0.2381438	0.17953505	-0.18119192	0.12944362	0.09079452	-0.011492904	-0.002781037	-0.10764053	0.12759243	-0.20064323	-0.14275497	-0.2010553	-0.2765584	0.34514216	-0.123985164	-0.11891676	0.39134723	-0.4097037	-0.021760844	-0.049635883	-0.05870528	0.10572388	0.039375577	-0.10809079	0.11785202	-0.38686234	0.28740817	-0.11704171	0.06814615	-0.4623999	0.14032207	-0.21255232	0.49533474	-0.44600067	-0.41060653	-0.27623707	-0.46940657	-0.20092301	-0.014568108	0.04235285	-0.2859218	0.2432253	-0.3981981	-0.056021616	-0.4741689	0.05415494	-0.1272558	-0.119728625	0.05796174	-0.05837016	-0.34782693	-0.53497654	0.15248302	-0.26522005	-0.25672302	-0.1196019	-0.3632192	-0.012950913	0.31695372	-0.20748442	-0.005278225	-0.036838535	0.20048685	-0.05481298	0.21967019	-0.14708166	-0.1348403	0.10461734	-0.028874084	0.36551324	0.12761396	-0.24305844	-0.042743217	0.65186167	0.12942897	-0.5573483	-0.6959641	-0.007937146	0.06450875	-0.20180869	-0.2691146	0.21079531	0.33335596	0.12914197	0.13580711	0.16405056	0.1900773	0.14872597	-0.48011345	-0.011972865	-0.1998841	-0.02573409	-0.08599261	-0.22554193	-0.012572804	0.4394704	0.041549843	0.09287208	-0.14478193	-0.009164947	-0.12198554	-0.03387437	0.042011153	0.2550191	0.38455364	-0.16739447	-0.057084262	-0.28155115	-0.1713749	0.018632565	0.19357236	-0.21301961	-0.24751166	0.15879162	0.09726504	-0.5111658	0.026822109	-0.0063528544	0.0073591825	-0.26772493	-0.20860982	-0.36675242	0.17466158	0.09497834	-0.68964285	0.101867616	-0.32499996	-0.014733557	-0.026065635	-0.002499952	0.4272182	-0.4741827	0.4023553	-0.027413663	-0.05712554	-0.100004144	0.10759008	0.23162426	0.11280905	0.0075888135	0.14225787	-0.30115396	0.41547838	-0.40828073	0.24745207	-0.46149153	0.34224814	0.15264344	-0.29941827	0.47354546	-0.16387343	-0.09757499	-0.16266327	0.3266589	0.10418806	-0.18406641	0.2608692	0.15736313	-0.29877797	-0.1642956	0.27288362	0.14445205	0.25358918	0.20936324	-0.09369073	0.21997459	0.2591672	-0.27862883	-0.06414276	-0.070743755	0.17911893	-0.17011178	0.488689	0.26364645	0.065704495	0.2467341	-0.07292857	0.30922803	0.38803622	0.41929162	-0.089107744	0.3769859	-0.0025818513	0.047428526	-0.013127543	0.12740906	-0.3190377	-0.03808355	-0.25238913	0.03085368	-0.058224946	0.16120167	0.1723047	-0.38796467	0.21771015	-0.26907453	0.010659265	0.022659944	0.02760226	0.27402118	-0.034115676	0.20036721	-0.051507857	0.24996023	-0.025982432	-0.096075594	-0.16827618	-0.3180341	-0.067581795	-0.39360398	-0.302132	0.04182589	0.073866285	-0.6741139	0.0006449513	-0.3879483	-0.23628506	-0.09999147	-0.42063248	-0.07351556	-0.28575334	0.5351364	0.31233266	-0.29505497	-0.33458295	0.34215596	0.15647843	0.117019236	-0.07626532	-0.28892574	-0.0032606686	-0.22541483	0.23692891	-0.06910324	-0.34850764	-0.43265143	0.21498096	-0.21861957	-0.31657708	0.042610526	0.36551914	-0.21097155	-0.27619046	-0.015278011	0.11797721	-0.081721224	0.058225308	-0.5182382	-0.0061090086	0.08667539	-0.052293397	0.39560422	0.21265621	0.021773493	0.038868282	-0.22292817	0.3795296	-0.3524561	-0.092507295	0.12650438	0.18520124	0.34452075	0.25703776	-0.058650687	-0.16307844	-0.013602616	-0.24415848	0.075184666	0.3782087	-0.07420607	0.14817682	-0.25846362	-0.1292504	-0.011119108	-0.60189545	0.06678598	-0.16090944	-0.024832401	0.0036640808	0.073353074	0.18900426	-0.069453485	0.31385368	0.11448048	-0.18996622	0.062799685	0.005147375	-0.16465668	-0.35510427	0.3433484	0.059902098	-0.095050864	0.17595752	-0.38608184	-0.22508374	0.053576358	-0.50247645	-0.41409957	-0.04235788	0.18155307	-0.30762082	0.25671902	0.020900628	0.057767242	-0.22993925	0.17126381	0.02949058	-0.048213605	0.14836203	0.24059805	-0.12447385	0.09391014	-0.02789549	0.022227421	0.23293512	0.05458613	0.06980742	0.4099094	0.33598337	-0.074203305	0.019904979	0.12401743	0.00916871	-0.10052133	-0.37131947	-0.13619742	0.4602463	-0.38500404	-0.3333807	0.44919306	-0.17241864	-0.18015715	-0.02501207	0.37650946	-0.23404375	0.37185353	-0.4603953	-0.036443774	-0.04105346	0.28658766	0.36531976	0.29290158	-0.09770995	-0.19115259	0.008168581	0.08370228	0.19871062	-0.44976112	0.18357001	-0.54301614	0.361613	0.10155387	-0.20715821	0.1812693	-0.046957944	-0.15072586	0.15801567	0.019198755	-0.013868698	-0.18618831	-0.007235588	-0.19545195	-0.47059613	0.37996292	-0.42704797	-0.10582047	-0.12918685	0.030065853	-0.2094459	-0.11928808	-0.09133113	-0.1657481	-0.3065028	0.036286216	0.069355115	-0.23151876	0.5125408	-0.53353363	0.09963849	0.4314988	0.1773904	0.23254097	0.26748174	0.07377237	0.16965726	-0.20493208	-0.29398382	-0.18007778	0.18274099	0.46824357	-0.14275189	-0.17314953	0.21448287	0.09054836	0.20362853	0.2520555	-0.46411663	-0.050046105	-0.017573558	-0.05345004	-0.14044812	0.061116543	0.18641046	0.09277663	-0.16733894	-0.3986797	-0.48187655	-0.40629882	0.09881926	-0.29374284	0.025298	-0.18066306	-0.16481088	-0.18250276	0.31206346	0.105457805	0.066021055	0.2576063	0.09021887	-0.3561283	0.6558418	0.071641706	-0.016105926	0.15288296	-0.022537481	0.024519946	0.04306247	0.037715085	0.14246003	-0.12655376	-0.24490713	0.047595024	-0.19688903	0.19597086	-0.20200016	0.25336096	0.30281904	-0.19785064	0.30244657	0.07391488	-0.25007477	-0.0023904887	0.29834887	0.27342287	-0.2064423	0.058205046	0.28308403	0.23665006	0.102152616	-0.17999984	-0.15644278	-0.1788025	0.11918689	0.28057376	0.27713042	0.25369403	0.16146505	-0.5639637	0.39584148	0.5787018	-0.33186102	0.20434335	-0.19837762	0.20765129	-0.4006084	0.25345755	-0.064002514	0.2851191	0.020494772	-0.36380684	-0.15816358	0.17291941	0.12427717	0.48818684	-0.16871966	-0.1722449	0.0056452597	0.25938815	0.15015264	-0.23670785	-0.5343053	-0.21057358	-0.11992916	0.24362472	-0.07345882	-0.08550299	0.5619127	0.3488634	-0.10204927	-0.1600124	-0.124331184	-0.1786878	-0.24577647	-0.47211018	-0.07941397	-0.6053938	-0.4312986	-0.0565793	-0.17308158	-0.027381662	-0.24275792	0.12418684	-0.022660544	0.1423659	0.02342078	0.0012612536	-0.35082912	0.031029752	0.28048444	0.17165707	-0.20279449	-0.13972358	0.007461652	0.13401924
