G001871415	-0.8216248	0.73674196	-0.101215184	-0.023949787	0.15858117	0.007914167	0.10081925	-0.50984025	0.24324468	0.3233658	-0.1350396	-0.4105537	0.24840972	0.0725991	-0.15855685	0.16233425	-0.11895822	-0.73077166	-0.11449201	0.31466192	0.0776566	-0.33361226	0.57771164	-0.62127066	-0.0714665	0.4044057	-0.5309489	-0.64992297	-0.15504783	0.35552984	0.16753796	0.41999167	-0.26509985	-0.21752322	-0.4600497	0.72915703	-0.6646482	-0.12833264	0.08296732	0.016053617	0.27957955	0.4644122	-0.002204001	0.24587528	0.6744828	-0.032525405	-0.09003838	-0.02159911	0.17875294	0.5709844	0.022273138	-0.03740271	-0.023511164	0.24917975	-0.71976054	0.1006701	-0.4109969	-0.005920455	0.08484544	0.24192119	0.37805855	-0.23699798	0.6750009	-0.18738435	0.1945648	0.23346734	-0.14492445	0.6275139	0.025956213	0.056940805	0.24542977	-0.008999482	-0.45453787	-0.05788812	-0.045126677	-0.33326745	-0.11750199	-0.021333694	0.24375783	-0.11922209	-0.7603506	-0.29880586	-0.54451907	0.6351168	-0.06660369	0.12707636	0.22562996	-0.9831319	-0.4353615	0.61569977	0.14203665	0.32022205	-0.63983357	0.37728998	-0.39510417	-0.6221385	0.22726955	0.012383819	-0.03265866	-0.5273818	-0.24320376	0.17510453	-0.13673937	0.7524097	0.36334324	0.085457444	-0.24109016	-0.79687625	0.47868037	-0.30822667	0.041351795	-0.3943326	0.3418104	0.1890985	0.48107085	-0.32071733	-0.040558413	0.048833735	-0.54767	-0.1744763	-0.043219	0.55973643	-0.06580415	0.87168825	0.162886	0.5881897	0.26856327	-0.07163438	0.13879463	0.31253546	-0.3207169	-0.18914145	0.04961638	-0.32440573	0.17722215	-0.33394936	-0.24872279	0.5161548	0.0526762	0.65938866	0.009723328	-0.1199054	0.3340467	0.019233614	0.016141403	-0.14754227	0.7626846	0.072472155	0.51165116	0.18219797	0.5289672	-0.08467597	-0.02578716	-0.26016155	-0.058845367	0.08908574	0.10024648	0.38674244	-0.54285145	0.694988	0.3313485	0.008693263	-0.09317247	-0.2464287	0.16875422	0.41045552	-0.74678236	-0.65351725	0.1542666	0.22029418	-0.15175056	-0.095527485	-0.114209175	-0.15802607	0.82452774	-0.3669852	0.53255856	-0.13973632	-0.40161547	-0.7549402	-0.23674111	-0.04594513	-0.6538012	-0.3869262	-0.0043253303	0.29007658	0.32014585	-0.66734153	0.1263555	-0.20003754	0.31831348	-0.50366247	-0.36572558	0.64025664	0.62030756	0.08322794	0.117763534	-0.2644338	0.035463132	-0.21377704	0.0357187	0.52377933	0.18698199	0.057759427	0.59327185	-0.11108097	-0.1509307	0.10141339	0.28192905	0.1532863	0.07231906	0.65880316	0.03239718	0.52243394	-0.17796174	0.013901271	0.20835324	0.17683749	0.73610944	-0.26108494	-0.11169219	-0.6738091	-0.3047948	0.21885389	-0.03823123	-0.1464411	-0.4125682	0.067429855	-0.9232059	0.015393157	-0.32995793	0.19638509	0.3397748	0.8553933	0.23037304	-0.31083292	-0.45911083	-0.21854508	-0.009779356	-0.33915585	0.34188032	0.22811937	-0.41940767	-0.63403034	0.06420864	-0.14330089	-0.18067223	-0.45417872	0.1466872	-0.7203572	-0.06638005	-0.112869546	-0.23555446	0.28141186	-0.33362633	-0.22110097	0.4831813	-0.22637415	0.001976082	0.026397426	0.009228412	0.13440807	-0.14281404	0.062514454	0.004940156	-0.0027129948	0.5675817	0.08987667	0.16134451	-0.029609188	0.37241837	0.308227	-0.032628864	0.68976575	0.24590601	-0.28054833	0.6614318	-0.10323985	-0.24976365	-0.21342503	-0.15592502	-0.12183038	-0.24732219	-0.12985846	0.45004126	-0.23304409	0.0044306684	0.37103745	0.22986133	0.2253122	-0.06503776	-0.13552961	0.059635486	-0.71807253	0.15100358	0.1456157	0.11879504	-0.13917965	0.18374877	0.35291457	-0.73680156	0.5603712	0.72590846	-0.29231146	0.21999736	-0.3435738	-0.33481333	0.048007466	0.32685852	-0.16346769	0.2016811	-0.28430548	-0.11390947	-0.13164979	0.7635693	-0.82857347	-0.30258176	0.13683857	-0.30201617	0.5798033	-0.56685996	0.0688409	-0.5895695	-0.04951118	0.10574947	0.053411394	0.30984706	-0.10925773	-0.1603679	-0.38437212	0.08524969	-0.7604852	0.4547493	-0.9278239	-0.26304668	0.25608182	0.10535476	-0.89837736	-0.21788244	0.25861683	-0.08575772	-0.17829923	0.029410224	-0.21119934	0.72697335	-0.04054731	-0.35944894	-0.20351201	0.012960851	-0.47456565	-0.37004057	-0.47404516	0.07543714	0.43783146	-0.11447282	-0.089713864	-0.07203215	1.1251037	-0.2907476	-0.30906335	0.37768042	0.664491	0.24203484	0.4978848	-0.7645049	0.23415786	0.29284242	-0.18790491	-0.1932206	0.4915239	-0.0053500757	0.095533095	0.14483827	-0.079800405	0.018915035	0.15089811	0.76044244	-0.13820383	0.05510688	-0.04042501	0.12401415	-0.89890724	-0.038561262	-0.063768625	0.09222033	0.5147422	0.071283795	-0.1955031	0.24916817	0.13369332	0.01741742	-0.2428249	0.25410512	0.20775354	0.24893406	-0.03409545	-0.21105425	0.26256403	-0.25125563	-0.23018089	-0.21073756	0.07151604	0.32227245	0.005645184	-0.33069658	-0.17715117	-0.31297994	-0.1421144	0.20692609	-0.2735296	0.78700274	-0.07313489	0.15756808	0.17871797	0.066850364	0.019595526	-0.1949613	0.24897018	0.2637297	0.16807924	0.106294096	0.16198796	0.20394507	-0.30719358	0.118081115	-0.33502638	0.074797675	0.54795897	0.007593002	0.37619305	0.17344646	0.2346881	-0.018076375	-0.31389198	-0.0081784725	0.259899	0.1140387	0.06999858	0.2417247	-0.56817937	-0.17247233	-0.32068193	0.26087654	0.5317863	0.83430135	-0.037225403	0.2517346	0.113492265	-0.5527288	-0.003320843	0.58558273	0.07495777	0.7150842	0.18323387	0.34461254	0.16723467	0.23402214	0.065470226	0.42816427	0.21570855	0.19675204	-0.11372219	0.57910836	0.12626366	0.12072587	0.2795403	-0.18904492	0.30032894	0.016147822	0.42057526	0.110495076	-0.20519267	0.2640318	-0.32512853	0.3274144	0.10280798	0.27664697	0.2318496	-0.31569567	-0.22070828	-0.2651838	0.028969124	-0.52977604	-0.3381408	0.38645622	-0.059687976	0.09921041	-0.028815396	-0.14968352	-0.27591896	-0.56415397	-0.39813232	-0.01033093	-0.40729845	-0.19523685	0.75613254	-0.19052334	0.04526417	-0.19753441	0.058385354	-0.22889777	0.65085495	-0.17140833	-0.39530855	-0.07344121	-0.5707086	-0.1471226	0.34796083	0.012112588	0.46783465	-0.076301664	0.47245657	-0.6737746	0.35422876	0.31610596	0.8287662	0.6843471	-0.57417476	0.31073228	-0.037557855	-0.22006631	-0.005887842	0.31599954	0.31233162	-0.06726941	0.11555181	-0.16876522	0.5301425	-0.74759835	-0.1415072	0.21341285	0.18388544	-0.10490521	0.32396662	0.34573868	0.1854054	-0.20009534	-0.20553571	0.41444343	-0.38854122	-0.34709883	-0.6178025	0.48600847	-0.18268171	-0.008465929	0.17126235	0.20478466	-1.1410944	-0.037837394	0.046964407	-0.2613466	-0.76252604	-0.048035685	0.638372	0.49816626	-0.271218	0.07496281	0.16701846	0.041291997	-0.02537825	-0.3956901	-0.4391456	-0.5048182	0.1077161	0.48960605	-0.09720725	0.32299447	0.00820923	-0.3775377	-0.30419344	0.18242182	-0.1629808	0.4955989	-0.6129526	-0.09618236	0.38757467	0.043608308	-0.74724317	0.55713415	-0.34653017	-0.6485402	0.16298443	-0.022365842	0.29763508	-0.2723796	-0.6842766	0.05202423	-0.27623752	-0.18211688	-0.22686455	0.31313747	-0.015746593	-0.795362	0.094592154	-0.27738392	0.13962181	0.34794885	0.09955334	-0.16398093	-0.39140943	-0.4281317	0.70821697	-0.39564538	0.43675756	0.3502843	-0.00904873	-0.309958	-0.07981014	0.095936775	-0.19550288	-0.11619638	0.7865962	-0.41754448	0.4670173	-0.33687466	-0.14069867	0.5113013	-0.2442191	0.4119507	0.04144589	-0.1196433	0.090421006	0.33902588	0.9646825	-0.36789644	-0.113542326	-0.62105674	-0.13585132	-0.59669864	0.0755313	-0.7483244	-0.20084223	0.09987608	-0.097562484	-0.35852137	0.6965515	0.100762814	-0.1600308	-0.114559785	-0.083372205	0.0037522055	0.034793466	-0.11496984	0.25607914	-0.020338774	-0.004793398	-0.72866225	-0.17799965	0.25822905	-0.43550912	0.8673404	-0.17161669	-0.09713131	-0.973331	0.1627717	0.32588947	-0.095787115	0.651157	-0.08099594	-0.22296794	-0.4565167	-0.23321223	0.024363898	0.6854589	-0.16848972	-0.05727366	-0.05213164	-0.61534846	0.33980626	-0.6496313	0.028681982	0.09371677	0.47366408	-0.18900058	-0.36448845	-0.058829617	0.3769887	1.1250753	0.08781373	0.10989599	0.21972807	0.004994005	0.7051437	0.18933897	-0.14006385	-0.36744913	0.11334099	0.07156132	-0.9168608	-0.450121	0.3307836	-0.5439666	0.42538017	-0.17782639	-0.41463357	0.3722224	-0.30732265	-0.18144771	-0.0964618	0.11666276	0.13354401	0.19689155	-1.0555854	0.6984923	-0.21828686	-0.09139052	0.112628065	-0.3930615	0.7225573	0.48683596	0.3102556	-0.4929304	0.38579848	-0.2102407	0.07026382	0.078644454	-0.3790844	0.4255408	-0.12955886	-0.21377194	-0.44879287	-0.3744773	0.03193772	0.011223637	-0.46780822	-0.26438406	0.12481677	0.00507842	0.15468553	0.4725179	0.18433768	-0.22547084	-0.08501433	0.052983567	0.3277725	-0.67799246	-0.24502993	-0.09736672	-0.58423924	0.35364908	0.22198918	0.49617308	0.29348868	0.57651615	-0.046113536	0.7123518	0.40170047	0.049568232	-0.060300313	0.013435634	-0.3096201	0.3783241	-0.034163	0.47293776	-0.05298283	0.3912325	-0.24746329	0.3377532	-0.038884133	0.13945061	0.07975857	-0.6723339	0.45429033	0.18691117	0.061519638	-0.65171254	0.03550653	0.22304906	0.47496745	-0.29215136	-0.8569405	0.21103024	0.08743766	0.3608707	0.02601098	0.51204157	0.052897435	-0.29524684	0.22239068	-0.07098733	-0.20205495	0.044216655	0.21819939	-0.067838095	0.061055247	-0.074017525	0.15925837	0.30887765	-0.05518581	-0.120941766	-0.27192444	0.16031773	-0.17002386	0.4630902	-0.2689147	0.34735188	0.108342886	0.47647414	-0.69288176	-0.3585012	-0.043712705	-0.33402902	-0.16720676	-0.10446316	0.48589498	0.050355125	-0.66814774	0.577952	0.5827366	-0.24808143	-0.06628864	0.35284686	0.47542554	-0.03856823	0.15231383	0.08047047	0.67594504	0.33116925	-0.50770617	0.29517907	0.29533777	-0.27093548	0.084038	-0.68229604	-0.06307232	-0.24133979	-0.051667117	-0.10068292	0.18087521	-0.061033547	-0.24213967	0.2532508	-0.0018549562	-0.08453021	-0.24378374	-0.13303271	-0.077036396	-0.011073269	0.59878355	-0.114317924	0.35092935	-0.68084496	-0.25635076	-0.2208412	0.03947234	-0.16151798	0.33533806	-0.21922569	0.62852466	-0.6421964	0.12237315	0.37872434	-0.59911406	0.35839933	0.59892666	-0.047204226	-0.3047842	0.17598028	-0.28091004	0.29973125	-0.5375308	-0.50310045	0.39532912	-0.025294527	-0.2790691	0.251233	-0.29573452	-0.36356932	-0.0061454847	0.15268435	-0.36382282	-0.14940098	-0.109171875	0.38188747	0.09639318	-0.9151222	0.073635265	-0.36804783	0.32135996	-0.4333483	0.15834294	-0.6269412	0.47387347	-0.79040825	0.5101372	-0.07141787	0.70521504	0.6177385	0.3950834	-0.010763049	-0.24391124	0.0252724	0.23441598	0.026267871	-0.493402	-0.11654312	-0.25861388	-0.007812753	0.55806637	-0.09964181	0.31608415	-0.2601534	-0.059081346	0.765527	0.42303777	-0.043385748	0.1048006	-0.07337885	-0.31394032	0.01243905	0.54400504	0.16322953	0.22090082	-0.36404502	-0.21070635	0.31071305	-0.523895	0.09991573	-0.095243394	0.22393158	-0.81142473	0.34479958	-0.59284925	-0.16646379	1.0678704	0.43617713	-0.5746074	-0.16147329	0.104898065	-0.22377154	-0.27634186	-0.30917358	-0.31456545	-0.015367761	-0.74776655	0.20119432	-0.17757125	0.2395571	0.14076577	0.22596255	-0.4691556	0.33453265	0.1679351	-0.08683404	0.20345119	-0.21798542	0.017012116	-0.33294082	-0.014761228	-0.42553487	-0.4775697	-0.25933456	-0.28838205	-0.15519938	0.411103	-0.58267677	0.024831966	0.71498173	-0.08844857	-0.3734968	0.40412965	0.35864863	-0.80985254	-0.5591309	0.15152656	-0.48673493	-0.018439373	0.15139422	0.11576067	0.7367888	-0.04713118	-0.007160619	-0.006826356	0.39721042	-1.0763001	0.19365582	-0.048254028	0.057490647	0.3458835	-0.46879178	-0.23683378	0.07145362	-0.40334782	-0.44121054	-0.16748776	-0.37869748	0.26694936	-0.08704884	0.3520656	0.26385614	0.5497717	-0.28001297	0.23518036	-0.14773545	0.26504254	0.04208164	0.54728615	0.46012858	-0.27627796	0.49124208	-0.49080673	-0.3034137	-0.23384613	-0.15816039	-0.2748409	-0.072904535	0.37503988	0.18052013	0.064076826	0.34378594	-0.6425566	-0.112590164	-0.21978986	-0.18925735	-0.4348619	0.14636397	0.13262731	-0.27055448	0.12578875	0.46915945	-0.115282014	-0.006034039	0.569646	-0.1397054
G001940645	-0.73737246	0.75280094	0.17090656	0.08435838	0.11782149	0.10224895	0.08653634	-0.48111832	0.077179134	0.21297082	-0.17377679	-0.38260114	0.013243154	-0.12884817	-0.20389766	0.3743859	-0.27397645	-0.68108976	-0.26394612	0.2754928	0.14750159	-0.33336273	0.54670966	-0.71282864	-0.2341611	0.21138898	-0.3213911	-0.7584044	-0.008093253	0.32001263	-0.05509617	0.23857932	-0.12109347	-0.4167776	-0.45616436	0.6690838	-0.4431625	0.009287648	0.12671971	0.08297016	0.22179028	0.45867395	0.023434103	0.3491633	0.6891411	-0.33156455	0.12406606	-0.09775169	0.36240408	0.67952645	0.023484109	0.15638593	0.05003701	0.013050422	-0.56384104	0.029411035	-0.3792101	0.13864005	0.10202846	0.25329733	0.49018812	-0.24490097	0.706958	-0.27620387	0.33617482	0.3136636	-0.3513113	0.673687	-0.2353125	-0.07759714	0.21464248	-0.22163051	-0.56139517	-0.10583626	0.1949053	-0.45270282	-0.35904634	-0.13053851	0.3111567	-0.0939571	-0.50354457	-0.17382732	-0.6408534	0.58885133	-0.052398615	-0.21218874	0.41110662	-0.9426304	-0.4374823	0.59584653	0.08643992	0.4173904	-0.7022205	0.426238	-0.35273308	-0.5623655	0.2657038	-0.12634616	0.1323336	-0.59940135	-0.31310102	0.08051721	-0.30432943	0.5233751	0.31320214	0.23135148	-0.27503836	-0.8601866	0.24647063	-0.32431158	0.029982928	-0.4776712	0.3728547	0.14759201	0.19701973	-0.3032728	0.05370862	-0.044424325	-0.37396818	-0.18730071	-0.19586417	0.48162884	-0.18682696	0.9122148	0.29195032	0.4923665	0.30289063	-0.050314553	0.29567254	0.2523175	-0.33555079	-0.04693412	-0.042773232	-0.18989511	0.15428188	-0.4225252	-0.23203944	0.3945449	0.12674488	0.428568	0.34038275	-0.21752098	0.5306457	0.012454048	-0.055890962	-0.1863039	0.5404426	-0.14971131	0.6712829	-0.07759258	0.36815614	-0.14916754	-0.1739373	-0.23601048	-0.0518949	0.17278948	0.08218687	0.3749274	-0.51356244	0.85307664	0.49496058	0.1967825	-0.21884796	-0.24579059	0.07230994	0.28663492	-0.61626375	-0.55278367	0.24317378	0.33103204	0.12733172	-0.17841369	-0.16852503	-0.2331626	0.7590675	-0.40760452	0.40033486	-0.0154816285	-0.47103596	-0.3863556	-0.23124376	-0.13816129	-0.44120705	-0.22413267	-0.15036014	0.26499704	0.26499194	-0.6900519	0.12490093	-0.20428929	0.40191883	-0.6815208	-0.38757786	0.44634944	0.4003513	-0.10277416	0.32857838	-0.35456827	0.08558294	-0.30228025	0.12854287	0.49391612	0.23312372	-0.06362061	0.6946182	-0.17355768	-0.078201324	-0.015297259	0.41896993	0.039532423	0.18641588	0.5238897	-0.12751465	0.42692018	-0.37287265	0.25462776	0.21279132	0.26349822	0.5589557	-0.26277336	0.076304846	-0.6761191	-0.46220228	0.3858078	-0.11456321	-0.12777622	-0.28032425	0.035524167	-0.78907686	-0.19668318	-0.26552582	0.14210963	0.24094507	0.8170903	0.18883798	-0.32382622	-0.67442924	-0.32412243	0.12264086	-0.42597657	0.36401093	0.14935447	-0.25518554	-0.55143297	-0.016024612	0.19476706	-0.13203041	-0.5058015	0.200636	-0.92538416	0.10721975	-0.20079285	-0.25516203	0.35501146	-0.31780198	0.063884765	0.5253955	-0.042223353	-0.05679992	-1.3634562e-06	0.1869299	0.22688521	-0.20554313	0.33457524	0.03915384	0.12009853	0.6507563	0.008094728	0.29567644	-0.15217793	0.41706085	0.17191641	-0.1287497	0.7924549	0.18267632	-0.12443203	0.47281545	0.02961354	0.015216051	-0.26363146	-0.39054078	-0.06994236	-0.19056123	-0.031763054	0.45062745	-0.15766914	-0.061270133	0.20403299	0.18608667	0.17122075	0.052785445	-0.22952732	0.119957745	-0.732429	0.3181672	-0.025695011	0.24034397	-0.06449407	0.41774142	0.4466256	-0.6727294	0.43111408	0.65653676	-0.10758993	0.35781902	-0.41099077	-0.09614001	0.102098085	0.2918454	0.13582155	0.06466909	-0.31961262	-0.049608644	-0.0043575764	0.6107247	-0.6293856	-0.4462674	-0.006253466	-0.06689392	0.48849332	-0.5767632	0.30039015	-0.50103784	-0.062092327	0.10437702	0.049348578	0.25340533	-0.13367817	-0.28045818	-0.43043	0.18445796	-0.7193851	0.32516924	-1.0572716	-0.19683635	0.37440112	0.027398892	-0.88104105	-0.14124158	0.2814409	-0.26019242	-0.2151411	0.33007663	-0.3771627	0.6365705	0.016266406	-0.22506264	-0.18850265	0.06279562	-0.49661702	-0.19416004	-0.4347571	0.0045086965	0.46009165	-0.31077364	0.008057296	-0.120842606	1.1446073	-0.3791869	-0.5455404	0.46344605	0.73390436	0.32144195	0.5596416	-0.7081621	0.09083975	0.015051846	-0.14071627	-0.3040428	0.43480968	0.17268714	0.04474029	-0.025583193	-0.20146757	0.13430524	0.028599836	0.6335359	0.057073426	0.038993374	0.050694287	0.07926357	-0.98709774	0.12168524	-0.23781477	0.0028889216	0.519174	-0.056782275	0.088823766	0.09961262	0.29767847	-0.058009773	-0.33260402	0.43725345	0.12264892	0.18456352	-0.08459236	-0.28831413	0.060621314	-0.23559102	-0.20851812	-0.37316817	-0.08128537	0.31802565	-0.11012541	-0.31374288	-0.3173023	-0.23466107	-0.042024806	0.4523347	-0.33528888	0.83506656	-0.2022628	0.16168737	0.13449283	-0.15235902	-0.029439539	-0.008560885	0.3085957	0.3617963	0.17586668	0.14218974	0.3200629	0.15877742	-0.21764147	0.3686291	-0.10975318	0.24899633	0.5343782	-0.05493015	0.3206706	0.19671926	0.121719114	-0.20786391	-0.33025897	0.04076218	0.5041969	0.20656559	0.049383096	0.101822786	-0.52021766	-0.1391341	-0.32976726	0.39697415	0.7323443	0.7873478	-0.049824193	0.30970258	0.15792541	-0.47636327	-0.12963454	0.43306985	0.104785085	0.7355418	0.1467957	0.425561	0.40439737	0.293843	0.17825313	0.5296688	-0.014048815	0.094352454	-0.19266076	0.47875592	0.23604634	0.18777943	0.08960804	-0.2395228	0.28361994	-0.024933696	0.49283317	0.10984062	-0.35726932	0.3832173	-0.41412362	0.3519592	0.20018876	0.18071364	0.25125697	-0.32027882	-0.17585039	-0.4325073	-0.15740585	-0.36111218	-0.4273361	0.23574215	-0.01532042	-0.14093104	-0.15149665	-0.24816853	-0.3258416	-0.5879023	-0.34772983	-0.05713366	-0.51592565	-0.07088946	0.6884712	-0.3514536	-0.115229696	-0.40290362	0.073531926	0.013973683	0.43146548	-0.09821902	-0.41763496	-0.05987054	-0.4896846	-0.28251827	0.17230439	0.024355914	0.22699285	0.13027273	0.49915874	-0.6009343	0.41727632	0.43363672	0.7992575	0.64303064	-0.7237916	0.28715765	0.12171131	-0.38036698	0.10585573	0.18131092	0.56726754	0.06973719	0.07034275	-0.1740267	0.45751244	-0.69408417	-0.1384721	0.08547652	0.35144007	-0.07782645	0.3657006	0.57685477	0.1299277	0.02806919	-0.33290762	0.44460005	-0.5009385	-0.35308018	-0.7051221	0.44860792	-0.23242155	0.06942734	0.14105716	0.014505994	-1.1571282	0.013920318	0.035082802	-0.18271987	-0.8446854	-0.17786449	0.70937645	0.550475	-0.18534327	0.2996251	0.21015137	0.044585414	0.13337925	-0.16069329	-0.4386177	-0.7033826	0.20842497	0.4026333	-0.14303032	0.23726448	0.049495175	-0.10339638	-0.3710674	0.21862102	-0.19552338	0.5899501	-0.5361982	-0.029468015	0.4889173	0.08375117	-0.6572035	0.5437443	-0.02995599	-0.4819104	0.15687254	-0.20051609	0.2589695	-0.27833757	-0.5385615	0.12958112	-0.21266538	-0.3124681	-0.23591124	0.21888334	0.11620797	-0.65074897	-0.1650287	-0.24443102	0.13192569	0.44403976	0.12490335	-0.092160456	-0.10929395	-0.4308422	0.5171757	-0.3371781	0.3930963	0.23780856	-0.117413074	-0.32505298	-0.21398768	0.1151832	-0.25954062	-0.2099041	0.6442712	-0.41138127	0.45690992	-0.24363115	-0.15992078	0.59903544	-0.40755945	0.30292982	0.00090894103	-0.018188607	0.030362278	0.47011298	0.7070569	-0.26956666	-0.17329219	-0.7996969	-0.30475286	-0.7293556	0.06599611	-0.6581223	0.06179791	0.19199747	0.13397512	-0.21382117	0.6727855	0.09567776	-0.3945051	-0.03555765	0.016366974	0.14147392	0.046526954	0.112030566	0.17628291	0.020789634	0.03428872	-0.6367753	-0.24324718	0.086758226	-0.27179882	0.68936336	0.12503052	-0.08897203	-0.9484676	0.16899747	0.23584586	-0.19404376	0.63256544	-0.09425587	-0.3255363	-0.34564707	-0.10809724	-0.10020994	0.6667019	-0.12758417	-0.08005835	-0.111455694	-0.5717493	0.4251845	-0.63880575	-0.14811788	-0.058793627	0.47567317	7.452071e-05	-0.36973143	-0.15304641	0.14787549	0.9225515	-0.13232653	0.19468963	0.05387299	-0.12956545	0.51820755	0.15214768	-0.16090333	-0.38930327	0.15185049	0.20471868	-0.80112904	-0.5490966	0.39540407	-0.6777855	0.4738199	0.08996618	-0.511993	0.3793422	-0.20172952	-0.17317332	0.105162516	0.13553554	-0.08872237	0.09160703	-1.1971922	0.63435495	-0.0007423982	-0.09928327	0.25877908	-0.2804056	0.5642527	0.5458356	0.071712986	-0.5052434	0.351216	-0.44613367	0.07310878	0.123033695	-0.39126337	0.44585848	-0.021106713	-0.28113002	-0.50130874	-0.21621598	-0.048693083	-0.022916134	-0.34639254	-0.36658412	0.06412862	0.09647653	0.29383537	0.53002214	0.22653514	-0.040318742	-0.069993354	-0.099687375	0.27446532	-0.7703612	-0.23567653	-0.1783575	-0.71650136	-0.077678114	0.13883944	0.39017832	0.25974506	0.42868888	0.013095349	0.7019979	0.23376235	-0.016092263	-0.02111131	0.16834426	-0.20128354	0.47138676	-0.27946144	0.35225505	-0.2848099	0.19420332	-0.2904219	0.45286807	0.0035321414	0.008946076	0.0059869885	-0.3295952	0.21148445	0.39805424	-0.06164047	-0.7113794	0.06709906	0.17572355	0.45503944	-0.22623712	-0.74456525	0.18918683	0.16840363	0.33062297	-0.097932875	0.5211749	0.13585287	-0.18283457	0.15479507	-0.05527925	-0.2977718	-0.11023359	0.03928429	-0.046997417	-0.21505517	-0.21629797	0.10225529	0.06332776	0.06151271	-0.22738507	-0.26068652	0.25928473	-0.2253249	0.42863098	-0.3578261	0.5916143	0.13161004	0.42948365	-0.7035079	-0.2058345	0.030518843	-0.35359028	-0.10852173	-0.123740986	0.5442104	-0.10173873	-0.5823011	0.50368273	0.64119935	-0.43617105	-0.10671665	0.522867	0.51677257	-0.11825879	0.2452108	0.04432191	0.56583565	0.19815512	-0.3155908	0.22562611	0.50610465	-0.07350709	0.1212351	-0.6812409	-0.11581633	-0.4311828	-0.09183389	0.13106307	0.15025613	-0.1860069	-0.28646418	0.24995175	0.04737073	-0.20778498	-0.21287473	-0.06651235	-0.07312764	-0.053792834	0.54489857	0.14168656	0.37057307	-0.5013	-0.29787627	-0.32126355	0.066864	-0.06940894	0.14485319	-0.37941998	0.51800543	-0.58123565	0.0993972	0.3002018	-0.5944507	0.09072986	0.13602307	0.06681121	0.072865546	0.20714323	-0.18756792	0.3430668	-0.55272394	-0.33145565	0.23152825	-0.17208931	-0.26250738	0.30283815	-0.43032768	-0.2980032	0.034154896	0.20513403	-0.4971092	-0.15345293	-0.090095066	0.59408385	0.20474067	-0.92138565	-0.15867567	-0.36941656	0.7113522	-0.44547853	-0.050286956	-0.41964343	0.57384986	-0.6654212	0.47677976	-0.0038163513	0.7237826	0.35715187	0.48656648	0.13887304	-0.12331013	-0.14521378	0.1979762	0.17113124	-0.50151974	-0.14953054	-0.31155655	-0.11378878	0.43875185	-0.34530324	0.32893142	0.023139216	0.0056461357	0.6462058	0.45302168	0.11611005	0.24472387	-0.19381016	-0.20253156	-0.12546936	0.59775925	0.32740206	0.2533353	-0.32432535	-0.26003724	0.11780231	-0.43566728	0.04267952	-0.17350236	0.11853024	-0.62341875	0.4401831	-0.45927837	-0.13398814	0.73338604	0.20881955	-0.57132864	-0.2741148	0.31399804	-0.17471504	-0.41202474	-0.40515095	-0.22381173	0.08918601	-0.53873754	0.1673975	-0.30683407	0.086208284	0.071740516	0.04192906	-0.3031127	0.5276034	0.36554405	0.17847183	0.49249837	-0.06272785	-0.026954412	-0.3033139	0.052052304	-0.2907108	-0.61369276	-0.21627393	-0.503913	-0.01083158	0.36190096	-0.5292746	-0.15467636	0.9764139	0.008649677	-0.57165533	0.4232426	0.49972302	-0.85971236	-0.4974507	0.1571306	-0.37328994	-0.07530084	0.26536822	0.23317415	0.75950605	0.040565625	-0.034151122	-0.050651893	0.36488375	-1.2054874	0.13931274	0.032607038	-0.10025249	0.33450663	-0.24400608	-0.16145556	0.0003402233	-0.4762297	-0.21992448	-0.2888444	-0.342767	0.27285832	0.03403446	0.5893661	0.26596534	0.36744565	-0.038903013	0.28228357	0.019813739	0.09197588	-0.103593364	0.62675977	0.51505744	-0.2062915	0.43023688	-0.5365593	-0.22525024	-0.403252	-0.18785213	-0.2694977	-0.076306835	0.53185624	0.11377543	-0.0009303987	0.3210521	-0.58647686	-7.793307e-06	-0.39673054	-0.11748232	-0.20819251	-0.057599887	0.30759287	-0.42808008	0.3708619	0.5030707	-0.23354417	0.04439907	0.45481998	-0.15492493
G000830295	-0.6323247	0.78127307	0.1040189	-0.02399987	0.015763693	0.027703198	0.10079177	-0.5921765	0.11060043	0.23150736	-0.22028337	-0.40035772	0.06563105	0.04602258	-0.2696233	0.05295644	-0.17101674	-0.625233	-0.14548945	0.31692755	0.16484907	-0.27805018	0.5462423	-0.60476357	-0.18475464	0.38718265	-0.45654228	-0.80408996	-0.12378879	0.42869377	0.12769093	0.29898775	-0.16037801	-0.43330246	-0.45334458	0.64333373	-0.43330324	-0.097158484	-0.024558872	0.04063032	0.23455171	0.37907827	-0.027662992	0.22586656	0.7260743	-0.20447992	0.042118922	-0.06794985	0.24054149	0.5535959	0.01147392	0.064669386	-0.009823121	0.2711754	-0.74084854	-0.002273202	-0.2212553	0.027242333	0.101563916	0.19473945	0.45287386	-0.14889468	0.55485725	-0.24947745	0.12976533	0.17387944	-0.1611395	0.66241884	-0.07025246	0.10493709	0.23544212	0.012559649	-0.48214975	0.042182658	0.07342881	-0.22870603	-0.3060248	-0.1306664	0.09760097	-0.17358106	-0.73571396	-0.20993128	-0.5971301	0.47788352	-0.08323195	-0.08371514	0.35585126	-0.8938343	-0.43054336	0.58326185	0.09288433	0.36388803	-0.6096316	0.27564612	-0.32248428	-0.42881027	0.2782291	-0.09329454	0.006634563	-0.44825697	-0.20767029	0.22371228	-0.10177737	0.5759658	0.31794196	0.004647024	-0.20557323	-0.7568858	0.2552301	-0.35295135	0.10935232	-0.38321522	0.41010725	0.1791603	0.3613542	-0.52086014	0.11817344	-0.06397778	-0.54413986	-0.18881541	0.043983325	0.45678565	-0.2252406	0.9075962	0.3070876	0.47251832	0.15824474	-0.044011354	0.067341484	0.3390583	-0.31836325	-0.07161981	0.11004762	-0.38304836	0.15799013	-0.2655314	-0.38325128	0.44897738	-0.045525298	0.5555337	0.20471647	-0.09600474	0.4558316	0.06318559	-0.044281118	-0.22979426	0.5969459	0.007481031	0.58354723	0.088672206	0.5396832	-0.015834711	-0.12204188	-0.2510413	-0.11065446	-0.04501553	0.07277394	0.35007155	-0.65398777	0.7273657	0.34181926	0.073329926	-0.18579355	-0.13974819	0.12615326	0.33085155	-0.6431949	-0.57883	0.22097996	0.1848787	-0.052816067	-0.10449946	-0.1081769	-0.20066082	0.6509315	-0.20346837	0.45265192	-0.16434279	-0.3205701	-0.45273346	-0.074521765	-0.11083357	-0.489109	-0.36931357	-0.044399947	0.2707951	0.28980508	-0.6691496	0.2411594	-0.391453	0.4422887	-0.4758046	-0.41046217	0.4633421	0.69951504	0.016300052	0.151445	-0.21711138	0.089153096	-0.16927671	0.10522924	0.37577352	0.122662015	0.08987197	0.7012926	-0.11916429	-0.109538734	0.11453209	0.36935937	0.13235638	-0.006934271	0.55269295	0.027522981	0.5050939	-0.23471712	-0.02405388	0.20145404	0.15939128	0.5885134	-0.20012096	-0.08845082	-0.725261	-0.31777662	0.23329937	-0.09440597	-0.17324664	-0.30425674	0.109200284	-0.8881476	-0.12336987	-0.2520554	0.2399272	0.34846932	0.7867937	0.15517588	-0.37987986	-0.5445652	-0.24054384	0.012675941	-0.29323977	0.39030576	0.19269536	-0.34100658	-0.5873381	0.06712781	0.029609356	-0.123061635	-0.4689902	0.14920232	-0.7241843	0.06240159	-0.060515888	-0.14277789	0.35191858	-0.2572673	-0.16941735	0.5067665	-0.10153278	-0.009321928	-0.0086435005	0.05096461	0.16109179	-0.28363073	0.21313003	-0.16646957	0.15641847	0.5722886	0.045150794	0.2136685	-0.06413287	0.38015744	0.15199883	-0.12137221	0.6802296	0.19255626	-0.12142443	0.52235126	-0.09641569	-0.06626259	-0.28983265	-0.103573054	-0.14821438	-0.275808	-0.09107296	0.48208117	-0.24626479	0.029058054	0.37756047	-0.015798843	0.16400288	-0.025628924	-0.2065307	0.07372362	-0.6862118	0.18802539	-0.043957382	0.12147862	-0.032751307	0.3036287	0.34213954	-0.5506283	0.4785138	0.69879496	-0.1934746	0.3691007	-0.42122462	-0.19628565	0.058365755	0.17212227	-0.13771112	0.22190586	-0.16729811	-0.10621047	-0.09544723	0.77239335	-0.6873319	-0.23804268	0.042915	-0.21274948	0.49711105	-0.42281115	0.25220484	-0.45383623	-0.09978252	0.15534323	0.11400339	0.20700473	-0.064260945	-0.27614108	-0.26267183	0.07411002	-0.64672744	0.43401024	-0.9214989	-0.3051306	0.23130865	0.10548828	-1.0226429	-0.3113948	0.2661374	-0.066325046	-0.29814667	0.07071367	-0.30818316	0.67262495	-0.009541318	-0.2288773	-0.14815925	-0.021769881	-0.52465004	-0.17749673	-0.5200432	0.048831567	0.48736697	-0.21435624	-0.090689346	0.0050824955	1.1169395	-0.3220045	-0.49945056	0.3821134	0.84415436	0.2818988	0.5569041	-0.6556561	0.11976811	0.14060456	-0.14856678	-0.15265031	0.46280676	0.22921124	0.12220229	0.11790295	-0.13965566	0.14284	0.20123354	0.6416231	-0.031003952	0.16577747	0.05590841	0.03707267	-0.87403375	0.09772534	-0.011888966	0.14721578	0.55120504	-0.06662822	-0.04531909	0.2904443	0.056523025	-0.09938001	-0.25790775	0.17561778	0.22843069	0.18686554	-0.08546139	-0.3516235	0.14959213	-0.23054487	-0.31892315	-0.20734996	0.06329095	0.2667305	-0.076883405	-0.2738099	-0.20369765	-0.2494599	-0.14606632	0.28590724	-0.24393027	0.7942581	-0.06195371	0.055310003	0.22789288	0.023035556	-0.06583815	-0.16162059	0.27616987	0.402151	0.22912449	0.09894377	0.25756398	0.14776425	-0.17762959	0.19228214	-0.24733222	-0.003999844	0.45823652	0.0088848425	0.22842345	0.13820241	0.11850941	-0.072166756	-0.3981679	-0.011482425	0.26782966	0.11829488	0.06685425	0.107449666	-0.6212326	-0.21676433	-0.33984005	0.2915543	0.71177125	0.7443794	0.02626127	0.37125456	0.08171433	-0.44196314	-0.03592591	0.5302418	0.05140999	0.66083723	0.1212915	0.38409433	0.22114752	0.35609627	0.11436173	0.39934197	0.24509008	0.17080295	-0.1454835	0.44576418	0.26488733	0.33531007	0.1701907	-0.10131544	0.36866635	-0.10177425	0.49669224	0.1483393	-0.08143419	0.31543422	-0.34742656	0.32674426	0.13813356	0.38448215	0.3235682	-0.3309363	-0.10232447	-0.31476676	0.05818384	-0.45438576	-0.28750482	0.32572752	-0.08048245	0.14876384	-0.022650816	-0.23646167	-0.31271544	-0.6604467	-0.49021012	-0.025404468	-0.29365253	-0.10966389	0.8250954	-0.36730406	-0.07413004	-0.24985826	0.0050791204	-0.09584155	0.63065857	-0.2524536	-0.39273274	-0.12657946	-0.51394725	-0.12549417	0.23590675	-0.010913456	0.30536795	-0.024274848	0.39813852	-0.7165987	0.43898162	0.3212885	0.82045704	0.58909774	-0.65321004	0.27890968	0.08990432	-0.29776618	-0.041826405	0.08340733	0.34320283	-0.007893552	0.115695566	-0.28622967	0.582774	-0.64419985	-0.022706911	0.19145587	0.23178618	-0.16815999	0.40533248	0.2943833	0.12425009	-0.14816551	-0.1823468	0.47242215	-0.5384525	-0.33947152	-0.6278077	0.4914044	-0.22787893	0.037446663	0.17827012	0.1548729	-1.108381	-0.020036755	0.08470686	-0.35030776	-0.6534409	-0.19528034	0.47522455	0.5561701	-0.006330736	0.03971626	0.21230775	-0.020539584	-0.039106023	-0.27299973	-0.38262933	-0.7281664	0.101529315	0.43168125	-0.052068405	0.24297509	0.015706204	-0.22219785	-0.20980264	0.104904175	-0.16586235	0.5983353	-0.60586804	-0.041691177	0.37875235	0.20636237	-0.5204942	0.49927637	-0.22370315	-0.59627914	0.19374317	-0.06598286	0.2626023	-0.3313399	-0.65349203	-0.011145151	-0.32810104	-0.32253623	-0.112287514	0.3315589	0.04531707	-0.65129626	0.023678228	-0.43657026	0.09291087	0.5062207	0.020081423	-0.13875663	-0.26238722	-0.3546247	0.5850248	-0.3688141	0.3895184	0.13021384	0.04026729	-0.18166934	-0.05317223	-0.020203225	-0.08981283	-0.16427298	0.65875244	-0.30517203	0.537023	-0.30673748	-0.19198056	0.39990368	-0.4316966	0.18617488	-0.11433504	-0.1094899	-0.14471686	0.31439823	0.8519685	-0.27288514	-0.043739162	-0.65912837	-0.24604578	-0.5858999	0.017184526	-0.6067626	-0.16245843	0.17290537	0.02224943	-0.32284594	0.6883267	0.006425768	-0.31285626	-0.13164729	-0.080832236	0.011091216	0.1226718	0.099087864	0.17461498	-0.11187221	-0.02198377	-0.659312	-0.1364789	0.2727238	-0.339374	0.7467847	-0.0669939	-0.058573708	-1.0563905	0.053206474	0.49411815	-0.21668953	0.70495176	-0.10300897	-0.20286949	-0.26843464	-0.18969142	-0.050792217	0.61693674	-0.24652286	-0.0378862	0.021165185	-0.3195377	0.35723764	-0.6220161	0.064649194	-0.04743793	0.4241039	-0.01923883	-0.4598049	-0.038657516	0.40010327	1.1599226	-0.023543268	0.105990395	0.23789419	-0.10109137	0.69839793	0.23569614	-0.26103476	-0.45297828	0.07085599	-0.0049075633	-0.7974301	-0.47677624	0.3220531	-0.6747167	0.38686383	-0.08190688	-0.49194887	0.3182233	-0.22098565	-0.13353622	0.134571	-0.004716903	0.053452715	0.2811949	-1.0947866	0.5853512	-0.05482485	-0.21937843	0.09111898	-0.3014031	0.66340613	0.36420238	0.33725247	-0.3433294	0.46731985	-0.25785917	0.12338209	0.016642079	-0.36073136	0.33468944	-0.013526227	-0.302283	-0.45352757	-0.24753347	-0.04777328	0.034367554	-0.29216057	-0.22796047	0.20681086	-0.18199849	0.20923477	0.4345113	0.18847497	-0.1591984	-0.118152335	0.17796822	0.2784152	-0.7528804	-0.23818517	-0.25910076	-0.6679963	0.23521274	0.115503475	0.49704129	0.29090828	0.40902528	-0.0724996	0.6401535	0.21964084	0.03350269	0.0020277947	0.12337664	-0.23055297	0.42363447	-0.17497355	0.39120978	-0.1306697	0.3201991	-0.27140808	0.38598284	-0.04998152	0.13743886	-0.16785452	-0.61816734	0.25919658	0.31459886	0.003905639	-0.6687116	-0.023816973	0.110352844	0.39819354	-0.30506876	-0.6860291	-0.00054353476	0.10983713	0.3124409	-0.0958443	0.63544333	-0.09448945	-0.22472666	0.2305485	-0.10278523	-0.20639218	0.024435218	0.10273342	-0.020653604	-0.07351865	-0.13075873	0.15301661	0.2627131	-0.10669783	-0.08580454	-0.291385	0.017675102	-0.17632687	0.5402179	-0.22946814	0.4780263	0.11718659	0.37617487	-0.64304423	-0.24934757	0.18634897	-0.29332215	-0.09983749	-0.12996751	0.52525663	-0.16265965	-0.5873626	0.49787882	0.66131496	-0.2712657	-0.16608371	0.37380555	0.4679249	-0.13555796	0.05736974	0.12318972	0.6570622	0.26885825	-0.386727	0.3828792	0.23652136	-0.18244821	0.17331828	-0.5732663	-0.14230275	-0.2569961	-0.022585578	-0.20135151	0.10333271	-0.10250734	-0.3079309	0.1838849	0.037379757	0.06125336	-0.30483383	0.0105895065	-0.077527	0.122885086	0.5990596	0.06683865	0.37696272	-0.5961043	-0.33170763	-0.14047739	0.12895006	-0.16540672	0.24298069	-0.116996475	0.66125345	-0.6349454	0.06788552	0.27453756	-0.6535864	0.195959	0.4804154	-0.11277428	-0.20594254	0.10169825	-0.28214452	0.29630914	-0.5152755	-0.3785575	0.345766	-0.21924686	-0.18931177	0.31441993	-0.302121	-0.4545533	-0.013482071	0.16784412	-0.33642083	-0.091588475	-0.08062771	0.5215452	0.03720557	-0.8129416	0.0015721023	-0.29375046	0.33142367	-0.33393708	0.17257252	-0.49786404	0.5067946	-0.64824677	0.54853624	-0.23184268	0.6527668	0.4838892	0.53108186	0.05971378	-0.17965756	0.041460097	0.13027708	0.044132926	-0.49598587	-0.033391953	-0.19606763	-0.023857929	0.34661013	-0.20262322	0.18240896	0.0023462698	0.09688419	0.68507904	0.3928025	0.1526398	0.15289241	-0.07461528	-0.31224164	-0.03896358	0.40407375	0.22483283	0.11004339	-0.43489572	-0.31070006	0.15329799	-0.50323606	-0.03686355	-0.033661693	0.18130893	-0.74602973	0.32238263	-0.5480352	-0.10098631	0.9340595	0.3398409	-0.58121866	-0.29838225	0.161158	-0.14873882	-0.40703115	-0.33709905	-0.37770844	0.07167882	-0.5665864	0.15884326	-0.2648477	0.2327152	0.009612575	0.09123286	-0.19325794	0.28848973	0.3083112	-0.09657889	0.2954675	-0.14021602	-0.054701746	-0.08965207	-0.010564956	-0.41530514	-0.5715673	-0.32230076	-0.23910765	-0.112073705	0.29464257	-0.61536413	-0.021810398	0.74742293	-0.07344332	-0.3591822	0.36750016	0.31530017	-0.6654256	-0.34501544	0.23583469	-0.39989364	0.027590804	0.12960543	0.16576546	0.6315319	0.06571214	-0.039085798	0.06069322	0.17992705	-1.0682482	0.308663	0.094499394	-0.0013969671	0.32384017	-0.2851452	-0.2208736	-0.053358257	-0.29460025	-0.4759855	-0.20387551	-0.28817	0.2921527	-0.20814797	0.48898315	0.2462082	0.502006	-0.21193947	0.346567	-0.13271195	0.16796318	-0.112123646	0.5115118	0.32655445	-0.27627805	0.35667616	-0.48727524	-0.28623813	-0.32735735	-0.1343975	-0.2244119	-0.20570426	0.41687658	0.14648981	0.03503433	0.42753544	-0.7131171	-0.1080112	-0.21554698	-0.15810098	-0.31776464	0.04805106	0.30568212	-0.31388825	0.23304741	0.5679618	-0.18999377	0.06715581	0.5080499	-0.26246977
