G000830275	0.06949526	-0.089343734	-0.21975878	-0.6137431	0.3249043	-0.58409333	-0.025637152	-0.8874898	-0.054834496	0.5078276	-0.09674362	0.113091834	0.14359887	0.1627547	0.3275401	0.42517573	-0.1614939	-0.27257127	0.09258793	0.11990954	-0.026920563	-0.6210538	0.18996279	-0.1528454	0.14399247	-0.32956597	0.21791923	0.039868183	-0.83750427	-0.14859927	0.07325991	0.03844701	-0.6003892	0.29481044	0.023106646	-0.28007376	-0.36249146	-0.26836312	-0.22905406	0.10400817	0.8831005	-0.15329778	-0.25717837	-0.43231654	0.69526005	-0.1877098	0.40228194	-0.36524042	0.80050826	-0.4661974	0.45654503	-0.04208257	1.0323167	-0.042467616	-0.2977931	-0.39679328	0.267118	-0.110976525	-0.120772354	-0.3058419	0.45191067	-0.24358706	0.16813704	-0.03310307	0.6926743	-0.51762253	0.25473154	-0.24117307	0.09289554	0.18497884	-0.13651662	-0.20893951	0.092476085	-0.22643757	-0.42828882	-0.12453617	0.6641344	0.55108887	0.14094386	0.0050028805	0.24484691	0.07704269	0.38343692	-0.02960189	-0.28784338	0.37441096	-0.40724957	-0.5947143	-0.1890694	0.17126986	0.008498816	0.054462492	-0.008514854	0.18130454	0.23929112	-0.2608197	0.3553717	-0.23165709	-0.19930282	0.17062633	-0.6007737	0.36125615	0.16665536	-0.13239397	0.5673796	-0.17081968	0.015045729	-0.38906968	-0.19889279	-0.16412742	-0.060452215	0.12124405	-0.052197065	-0.05411454	-0.20621678	-0.14553702	-0.22535783	-0.4464796	-0.19242793	-0.93513393	-0.10872641	-0.39408302	-0.08731399	0.35126147	-0.1287815	-0.044928037	0.12779509	0.06659305	-0.046093434	-0.21683569	0.2800718	0.29836172	-0.28404483	0.9023526	-0.49524218	-0.12111345	0.3036358	-0.3682849	0.07652806	0.26945266	0.42061624	0.70332587	0.100255944	-0.40457532	0.25427005	0.585431	-0.06687897	-0.13016489	-0.0980024	-0.06140226	0.22555935	0.08127475	0.0045986753	-0.04557841	-0.27610907	-0.3309581	-0.18717381	-0.21581829	-0.5277197	0.2177434	0.42167965	0.8814192	0.30175534	0.60323644	-0.13899113	0.022093577	-0.24374463	0.24185605	-0.2563687	0.060563795	0.3219102	-0.5491522	0.35202137	0.22702126	0.2261363	0.05959411	0.26376915	-0.26698554	0.1319248	0.10056783	0.28597006	0.00061555207	0.3366234	0.61447036	-0.03842584	0.6555281	0.26731223	-0.34615025	0.028579848	-0.25879776	0.020574385	0.20792517	0.29064098	-0.39564133	-0.2413335	-0.40344185	-0.20306492	-0.07956161	-0.72666043	0.23739445	0.4341603	0.31610677	0.31554714	-0.11407007	0.22704047	0.6190063	0.31375962	0.18945587	0.02817304	-0.49846566	-0.16399495	-0.24141756	0.3482357	0.042307723	-0.3650911	-0.029190917	-0.07756289	0.009454429	-0.3236005	0.30019268	-0.4394134	-0.23600844	0.59927654	0.29834947	-0.3802345	-0.6417217	0.33053574	-0.09739666	-0.19480506	0.034998298	0.26622736	0.07525788	0.7812788	-0.05889532	0.11902045	0.5763303	0.2523562	-0.04734094	-0.12999292	0.39204723	0.14781271	-0.28689164	-0.5453846	-0.12943007	0.564384	0.25614917	-0.62754184	0.38248837	0.43287715	0.12437387	0.07152321	0.42479283	0.036499947	-0.054297328	0.40826917	-0.25540122	-0.31435937	-0.008133734	0.39153865	0.1736068	-0.30607745	-0.31801778	0.15122937	0.19764686	-0.06210361	0.2783535	-0.28184545	-0.15304922	-0.19978762	-0.21089415	0.45753264	0.7911265	-0.388359	-0.11867556	0.061368987	0.2805777	0.7684767	0.5991289	-1.0611461	-0.6454776	0.4005694	-0.12479289	0.26507738	-0.5135006	0.3064327	-0.70435077	-0.08920054	-0.3183753	0.41114473	0.119819626	0.3625293	-0.09469837	0.59491813	0.33115894	-0.090218596	0.24215603	-0.13831042	-0.27835646	0.39590156	0.11826835	-0.07560836	0.22066092	-0.16137102	0.75505126	0.5461047	0.4475167	-0.20376058	0.7222402	0.44863173	-0.2436387	-0.45030853	-0.062261008	0.04937489	0.36586052	-0.13633011	0.3091007	-0.28518727	-0.18727146	-0.14161393	-0.010715703	0.1516029	-0.6858011	-0.2804167	-0.29625076	-0.21871917	-0.12120094	-0.004965812	-0.2845694	0.20733196	0.07428238	-0.24465491	0.2816564	-0.9148749	-0.38896453	-0.26987213	0.32711855	0.13030338	-1.055974	-0.59208554	0.4990554	0.10922866	0.30583635	-0.40842074	0.017864317	-0.24341783	-0.39594665	-0.26235345	-0.2801839	-0.057650294	0.0027642502	-0.160811	-0.5816291	0.35970342	-0.00042065233	0.27159953	0.5338444	0.65934336	0.058983296	-0.27839804	0.27135238	-0.20867251	-1.1244894	-0.19216833	0.038333118	0.020965591	-0.30880445	0.31329703	0.60054183	-0.24161363	-0.4413615	-0.73813134	0.27825773	-0.48276374	0.14341879	-0.3817341	0.13827848	0.94465953	-0.5392338	0.5102521	0.2937704	-0.37431628	0.3503169	0.03307806	0.07210261	-0.5136355	-0.0025859084	-0.3284871	0.052335806	-0.35700747	-0.795389	-0.5928076	0.06456912	-0.4760037	-0.10760593	-0.27165875	0.2501284	0.18418695	0.06770338	0.49189442	-0.46624398	0.06799543	-0.5572412	-0.025656672	0.15165402	0.13453639	0.29372054	0.65931237	-1.0452468	-0.7509939	0.06048084	-0.49981475	-0.090177536	-0.18275939	-0.35193947	-0.035078153	0.22954844	0.18046439	-0.59311473	0.4039537	-0.5770822	-0.45091775	0.36613977	0.21810125	0.116901204	-0.24720894	-0.28183493	0.43440473	-0.4306637	0.056164764	0.07034886	1.1636804	-0.023742788	0.26050368	-0.0049802363	-0.51396656	-0.41592085	-0.27443278	0.08170658	-0.13933432	0.052506693	0.32539818	0.28888616	-0.21275853	0.6568259	0.2663517	0.21861073	-0.5395236	-0.3026103	-0.43882573	-0.12003919	0.3161929	0.4322235	0.2408479	0.20892905	0.35965347	0.10575565	0.7349296	-0.30897668	-0.22750898	-0.54344213	0.21428864	-0.4493719	0.04658109	-0.32785648	-0.822645	-0.18257649	0.0781647	-0.073421456	0.15792193	0.21069996	0.058893606	0.07348626	0.5502035	-0.22478248	0.20434716	0.01813991	0.04223104	-0.06966773	-0.5818604	0.42523032	0.25646704	0.11512316	-0.05038532	0.30440792	-0.15447226	0.28204134	-0.33192155	0.2651462	0.1689668	-0.19014698	-0.6783994	0.39047423	-0.6224152	0.23680708	0.59350854	-0.3603764	-0.27184698	-0.047115058	0.35188058	-0.07177733	0.22272836	-0.5010191	-0.4299232	-0.21277188	-0.38564208	0.24029697	0.49980742	-0.2368309	-0.06078224	-0.50492436	0.119449414	-0.0125735905	0.3795595	0.42905053	-0.34183496	0.0043574404	-0.551262	-0.22623804	-0.5658094	0.3967638	0.48319584	0.13548103	0.099233545	-0.17682096	-0.087420866	-0.18149641	0.515922	-0.2678037	-0.6024881	0.008341676	0.21132134	-0.27521598	-0.009399058	-0.22026946	-0.07015827	-0.12700474	0.4797505	0.43026704	-0.16926223	0.09318611	0.3385972	-0.19516355	-0.095262125	0.07888458	0.42670152	0.64981925	0.41487724	-0.19399218	-0.014548539	-0.16709712	-0.5458413	-0.11427235	0.48201832	-0.063765734	-0.4650999	0.23292689	0.006459838	-0.048541132	-0.27957183	-0.08206932	0.4641328	-0.8024492	0.25083214	-0.47490782	0.073524736	0.63162875	0.14334896	-0.3378777	-0.11228835	0.11359109	-0.23358902	0.0626709	0.12651607	-0.55275035	-0.21750651	-0.33393943	-0.9885633	-0.8160287	-0.40130457	-0.046856314	0.2900679	0.00021490641	-0.4173422	0.020390486	-0.09050276	0.16100648	-0.094874755	-0.03611523	-0.2542084	0.06933957	0.23654564	-0.11502759	-0.2180073	0.21506119	-0.033208705	-0.5026853	-0.12411938	0.55169445	0.37750491	-0.041660912	0.29636562	0.14965552	0.39057648	-0.5639672	-0.7923996	0.20905282	-0.08888909	0.52824765	-0.6716706	-0.046900593	-0.33356014	-0.51448894	-0.49019763	0.33324456	-0.041664448	-0.024783826	-0.113182314	-0.16905457	-0.5607434	-0.21209423	-0.55093706	0.49126145	0.22008066	-0.6456223	0.57636386	-0.3329855	-0.323581	-0.44806316	0.4439688	0.057624064	-0.47885972	0.11999302	0.077785455	0.022380421	0.19676001	-0.20955107	0.3345319	0.09800367	-0.20520261	-0.0034557395	0.2600145	-0.52597845	0.63662237	0.034897104	-0.13748631	-0.25811097	0.41837656	-0.49232644	-0.003382478	-0.7126653	-0.24730906	0.11314157	0.5066598	-0.45146424	-0.38432848	0.22305614	0.47942767	0.1813836	0.091270514	0.19939871	0.31499413	-0.5093363	0.08380722	0.5002812	-0.19542536	0.016378252	-0.450533	0.7102246	-0.41033763	0.17751485	0.27382728	0.30389622	-0.37641755	-0.8401335	0.20586643	0.06848458	0.32957894	6.769039e-05	0.5007406	0.18138497	0.12173513	0.30230394	-0.019295359	0.23021615	0.038452514	0.089645974	0.39934203	-0.24054559	0.13141912	-0.6601609	0.37377194	0.061066777	-0.27890286	0.43056428	0.44979018	0.34542662	0.5549023	-0.42361253	0.18619221	0.59200835	0.25930905	-0.7108764	-0.033434138	-0.08557354	-0.18470788	0.706437	0.6586925	0.8315097	-0.051826496	-0.60407025	0.043010294	-0.16553058	0.3980482	0.78203243	-0.25354245	-0.31612927	-0.35293776	-0.009144081	0.16741294	-0.39460027	0.4878953	0.19107571	-0.047597814	-0.4382058	0.16283639	-0.40225482	0.7102608	0.86832184	0.12277112	0.05842763	-0.1362682	0.1307768	-0.22356209	-0.29941124	0.42332727	0.4532106	-0.15409271	-0.19547394	0.08037157	0.42601115	-0.16783865	-0.43236718	0.22507234	0.43014398	0.05712145	-0.008974481	0.1585362	0.038066924	0.14617908	-0.015549118	-0.18537258	0.41135395	-0.039358526	0.86084384	-0.09315441	-0.22362535	-0.7360126	-0.0530335	-0.17289643	0.52152413	-0.13154542	-0.108896025	-0.3697109	0.14509177	-0.5956844	-0.13418114	0.41206467	0.04573106	0.37884462	0.554211	0.20713669	0.045076482	-0.064265594	-0.026388645	-0.090077594	0.011422889	0.2845638	0.045909856	0.1954243	-0.0046527013	-0.41237018	-0.3090655	-0.6053306	0.26051497	0.17301582	-0.43222383	0.35776508	0.0897448	-0.21298778	0.059890572	-0.4243952	0.12896805	-0.4836178	-0.542441	0.39730448	0.46469432	0.11190173	0.25052056	0.029482517	-0.6700554	0.07131047	-0.012224851	-0.80511135	0.31253326	-0.12861371	-0.08482875	-0.1129723	-0.3747087	-0.22305226	0.41508776	-0.45848358	0.4315073	0.047072493	-0.46674824	0.25626028	-0.11998144	-0.45741925	-0.40572456	0.31935576	0.0249433	-0.48132575	0.13584043	-0.26512223	0.30709836	-0.06886491	-0.10434483	0.13519718	-0.27334127	0.42707074	0.3710987	0.2429004	-0.37545204	-0.2575555	0.20853706	0.06648421	0.09309256	-0.049753133	-0.25403082	-0.21280342	-0.23830795	0.92674506	0.1395851	0.26466012	0.14078312	-0.06753884	0.03494454	0.7007593	-0.90199363	-0.20321956	-0.15315768	0.1612152	0.46502322	0.15634552	-0.36428738	0.038083933	0.19187465	-0.14660382	-0.58380854	0.15292715	0.009341432	0.18672688	-0.44111082	0.06746663	-0.11377228	-0.5167763	0.43449494	-0.025054434	0.2468101	-0.015508184	0.40301916	-0.011286484	-0.58986855	0.23259813	0.15496625	0.068937615	-0.061789487	0.0206439	0.2551292	0.3539116	0.1103359	0.34590673	0.58040774	0.5042021	0.4872215	-0.05420903	-1.2220467	-0.117667586	-0.37273422	0.50023043	-0.19392219	0.24199727	0.109479174	0.6014697	0.10497169	-0.39573213	0.037924502	0.36145556	0.17681378	-0.3680149	0.48877084	-0.3686297	-0.036110524	0.3031629	-0.0142065715	0.12251298	-0.1883331	-0.8051491	-0.59907	-0.4575739	-0.26607466	-0.05360451	0.3675827	-0.06183879	-0.2945512	-0.050175063	-0.41512698	-0.10471274	0.3594524	0.36898762	0.67157525	0.2736105	0.05004089	-0.6092303	-0.40138453	-0.3911649	0.16457611	-0.06523598	-0.37410247	-0.53099114	0.11846214	0.22680317	-0.7073341	-0.11342631	0.2876526	-0.54332125	0.54920965	-0.6334613	-0.14970762	0.39042106	0.29959592	-0.16844974	-0.13008906	0.019194903	-0.27957854	0.4047853	0.0075328387	-0.06141539	0.26924893	0.030721692	0.45338216	-0.23520494	0.381608	-0.19655824	-0.13406934	0.0889211	-0.26378945	-0.13003947	-0.4512894	-0.8050917	-0.14716195	0.28845477	-0.15701029	0.87912184	0.18418191	0.32923424	-0.8669801	0.1756548	0.18398058	-0.320202	0.010193509	0.56485116	0.7518731	-0.80467904	0.1633916	0.74685955	0.1482745	0.38623285	-0.046581622	-0.3475243	0.74404424	0.4572211	-0.20884895	-0.0699859	0.33516383	-0.20415927	-0.1504927	-0.4598485	-0.16879967	-0.1958861	-0.33243448	0.83144724	0.5979762	0.10296303	0.013007604	-0.23315854	-0.048993476	-0.01633286	-0.39022788	0.40450686	-0.117234714	0.5575257	0.10921801	0.21938469	-0.04050736	-0.04328981	0.0025081625	-0.39040226	-0.6328823	-0.26022607	0.12846723	-0.16291584	0.44860122	-0.62268925	0.20247288	0.55728483	-0.101731285	-0.19552587	0.2279973	-0.427232	0.11702641	0.13558093	0.1026623	-0.15598598	-0.0951066
G000402355	0.0606912	-0.10873651	-0.25455686	-0.5678272	0.29424202	-0.54114735	0.021410493	-0.87691396	-0.100546435	0.63868517	-0.18462858	0.09262171	0.10783943	0.21637152	0.33415186	0.42580003	-0.21302211	-0.25283137	0.06390412	0.10422197	0.01569316	-0.5585617	0.12248762	-0.08186048	0.21135543	-0.3201496	0.13343558	0.059501037	-0.89320433	-0.23542432	0.10725142	0.009135429	-0.49639222	0.31594688	0.044880684	-0.27720043	-0.351074	-0.22054847	-0.28869814	0.13255069	0.8954568	-0.10853404	-0.2400764	-0.5086974	0.57317567	-0.1914554	0.42810792	-0.43268764	0.86767244	-0.43097073	0.3833654	-0.013795456	1.0151681	0.07349693	-0.3009056	-0.44594947	0.20202298	-0.08782975	-0.16832909	-0.3955637	0.485113	-0.2183895	0.22053309	-0.029036544	0.6642364	-0.60378927	0.24323425	-0.22077413	0.073507115	0.28337625	-0.14818333	-0.27951545	0.018810527	-0.25296953	-0.4383144	-0.22049794	0.6514213	0.5617323	0.20864442	0.020216221	0.21694699	0.056002207	0.44237992	-0.09958697	-0.30750838	0.34482867	-0.3995677	-0.59862393	-0.23610304	0.19999923	0.10953579	0.17439403	0.06335453	0.1175662	0.2355815	-0.25240514	0.41185537	-0.19116297	-0.16345215	0.23952736	-0.52345395	0.27369502	0.104716584	-0.1276097	0.5093196	-0.16861884	0.081968665	-0.37006694	-0.16388007	-0.085539326	-0.021603638	0.24127962	-0.09717244	-0.08504924	-0.24216811	-0.13502282	-0.27125254	-0.49145487	-0.16523919	-0.98605907	-0.132985	-0.44528714	-0.10782972	0.38432807	-0.15148881	0.019212835	0.19022332	0.07064077	-0.022097347	-0.1940537	0.20942552	0.18169284	-0.28362098	0.8982681	-0.49885687	-0.13852282	0.3494248	-0.3677314	0.12730488	0.27124837	0.49643105	0.74041945	0.037432738	-0.3939139	0.27433425	0.5862197	-0.0594026	-0.18657917	-0.09184616	-0.011869639	0.24300927	0.03496378	-0.059115827	-0.025530253	-0.26331356	-0.34144533	-0.21999353	-0.16305926	-0.5771864	0.17308454	0.43716443	0.8735118	0.31122378	0.615868	-0.009052677	-0.02924581	-0.28084788	0.21998994	-0.19057125	0.073317386	0.35892928	-0.5771062	0.25786817	0.29826012	0.21167332	0.037736103	0.28194737	-0.2685059	0.08565827	0.09591675	0.31223044	-0.04710357	0.37383145	0.5574009	0.0062988605	0.67360556	0.31757024	-0.40294653	-0.019030964	-0.3392776	0.0111070145	0.21403171	0.36608952	-0.35048157	-0.2657205	-0.45160937	-0.19205259	-0.036291473	-0.672178	0.20609534	0.42909652	0.33369616	0.3212841	-0.1047661	0.2330626	0.5154876	0.43565515	0.1941679	0.002651047	-0.37503922	-0.34102702	-0.21885185	0.43505225	-0.10734387	-0.32939315	-0.06546019	-0.047724076	0.071793795	-0.29571867	0.3453651	-0.35893852	-0.39332458	0.5845408	0.17642206	-0.39682424	-0.64196897	0.37365097	-0.21043606	-0.14996834	0.09062004	0.18854988	0.16450633	0.8276217	-0.039956793	0.1212444	0.60211825	0.20840521	-0.07112606	-0.15863384	0.40477628	0.030584019	-0.34711295	-0.52233076	-0.22441803	0.5638841	0.25343797	-0.70332414	0.41804272	0.32965553	0.090140045	0.03862258	0.3589248	0.019985346	-0.089284435	0.48451856	-0.2157643	-0.3595795	0.0120561775	0.3188106	0.16387548	-0.35782287	-0.2726857	0.07473449	0.25071082	-0.10590445	0.27719072	-0.32295996	-0.15711418	-0.12906934	-0.2561453	0.41470906	0.83479893	-0.3561834	-0.117086336	0.13200718	0.32961687	0.70090336	0.560927	-1.076911	-0.62557125	0.3200297	0.019608935	0.25945243	-0.4820109	0.32160965	-0.65146315	-0.100585386	-0.2587585	0.34283763	0.18838276	0.3214256	-0.018884897	0.5394039	0.37020898	-0.089996	0.21837628	-0.08173353	-0.25400758	0.43579227	0.07269173	-0.12745996	0.14967276	-0.18974635	0.76740336	0.611402	0.4461902	-0.17542575	0.61758876	0.48057777	-0.21388027	-0.4899167	-0.044631533	0.03575064	0.25869635	-0.09595442	0.28054422	-0.23891182	-0.21070014	-0.028467571	0.0069510546	0.16552685	-0.72826976	-0.27263156	-0.21131878	-0.22694959	-0.08150535	-0.0036487132	-0.28742525	0.21739228	0.058228232	-0.2373329	0.2021553	-0.8957838	-0.39832732	-0.28661078	0.23955531	0.07813679	-1.0653512	-0.5135214	0.45296675	0.13937281	0.20576079	-0.34496105	-0.10715619	-0.3358144	-0.3971799	-0.27721316	-0.31469247	-0.1080818	-0.024847392	-0.23196779	-0.71028227	0.4447478	0.041721962	0.22311948	0.49317688	0.6883771	0.027422993	-0.26595235	0.23729391	-0.24957192	-1.1331062	-0.260595	0.11208817	0.0038850456	-0.23915027	0.34253237	0.6127441	-0.3238353	-0.4000785	-0.78737605	0.27962545	-0.49775156	0.16606607	-0.303047	0.12243366	0.8975388	-0.6319009	0.5399186	0.28164297	-0.36755553	0.3979353	0.005220848	0.025630271	-0.49022138	-0.008898413	-0.32562128	0.085228	-0.3793287	-0.84913105	-0.63316643	-0.01156842	-0.4653371	-0.022155045	-0.2648764	0.24719162	0.09211697	0.062021088	0.45540133	-0.42399073	0.22093673	-0.6571458	-0.12060672	0.102329634	0.13495831	0.17478576	0.7431025	-1.0756686	-0.7298811	0.07863148	-0.527593	-0.050045658	-0.110143006	-0.30021435	-0.07612151	0.27309272	0.25804153	-0.5725259	0.3652768	-0.5464516	-0.45979384	0.40119055	0.2658298	0.005476147	-0.26243192	-0.2247231	0.42809537	-0.30816242	0.03751432	0.11823681	1.0816463	-0.07781419	0.41855726	0.06491004	-0.53421307	-0.39389056	-0.2246706	0.030196542	-0.12779468	0.076046295	0.39752594	0.27191383	-0.25449118	0.596212	0.3404169	0.2970525	-0.48288387	-0.34691373	-0.4564708	-0.020535529	0.31029916	0.44854295	0.25879976	0.25250223	0.40867606	0.13357127	0.65065515	-0.38008365	-0.14249326	-0.51659083	0.17281215	-0.43554986	0.05177421	-0.28539142	-0.7785246	-0.13185364	0.027471395	-0.13230562	0.116488256	0.18025823	0.024969343	0.101726435	0.65068275	-0.18897937	0.19338606	-0.04274297	0.0066144746	-0.022365823	-0.5562522	0.35630092	0.33836538	0.13804474	-0.009297012	0.24845894	-0.1922152	0.24699722	-0.2267953	0.28523648	0.1739252	-0.27158475	-0.6784005	0.42601994	-0.64600176	0.19073959	0.6113968	-0.35801333	-0.29040107	-0.0033953805	0.3750416	-0.031626627	0.20781595	-0.55284905	-0.4368963	-0.25540692	-0.30010366	0.20703991	0.45575637	-0.21191554	-0.034423783	-0.46920925	0.10264664	0.01930348	0.35563448	0.439159	-0.35760245	-0.109034985	-0.5176848	-0.14442903	-0.543922	0.46753514	0.5070973	0.038904905	0.106676206	-0.19939527	-0.17946415	-0.16538717	0.5212353	-0.25177252	-0.64128065	0.018369323	0.29220518	-0.28860873	-0.022939952	-0.26671767	-0.06799189	-0.14225754	0.49053282	0.33126807	-0.24541557	0.017168714	0.36482278	-0.17890935	-0.029709946	0.12690476	0.4049478	0.67346114	0.43532547	-0.08701658	0.023543615	-0.23521605	-0.631749	-0.06611312	0.5357593	-0.06651694	-0.45349002	0.16426472	0.03452582	-0.076728344	-0.35615543	-0.14545067	0.41625306	-0.8379456	0.22306815	-0.4099344	0.08461071	0.6968924	0.2417328	-0.36818367	-0.094304524	0.18174545	-0.21664864	0.14859062	0.0893995	-0.501607	-0.2119088	-0.3259978	-0.9293432	-0.7743872	-0.42687598	-0.10580542	0.2827216	0.04409229	-0.4137967	0.06767636	-0.058505	0.07582713	-0.14738941	-0.025970476	-0.23974916	0.020813528	0.25857484	-0.08215642	-0.19307038	0.242363	-0.044926904	-0.5130191	-0.13465399	0.5218864	0.3046494	0.0027571414	0.30030406	0.15260458	0.39386696	-0.51573443	-0.84213734	0.21393374	-0.07742597	0.51175857	-0.6509699	-0.015348604	-0.29806316	-0.5129002	-0.4669765	0.27829462	0.0012336113	-0.08913512	-0.10330937	-0.09145608	-0.52106506	-0.24565442	-0.63591796	0.4642577	0.19947451	-0.6383384	0.57342803	-0.25001574	-0.33389282	-0.4151667	0.3906483	0.0030296072	-0.4146826	0.19857062	0.024047641	-0.10110492	0.22315747	-0.14591503	0.30356655	0.071780965	-0.14962631	0.0320525	0.22394998	-0.41827378	0.65661514	0.060965866	-0.09463143	-0.24361895	0.39475155	-0.4958775	-0.015440095	-0.67155087	-0.26730734	0.08299771	0.5348902	-0.4163517	-0.41443697	0.25833997	0.5512314	0.25151277	0.080063425	0.20472144	0.31736696	-0.4686688	0.069726065	0.5966356	-0.18007492	0.027750818	-0.42780343	0.7887732	-0.40839666	0.16929232	0.32479274	0.28031558	-0.38838923	-0.84257025	0.31872654	0.024788732	0.37510365	-0.0572797	0.5446701	0.21422555	0.13013373	0.4196286	-0.12245038	0.26276582	0.122707255	-0.016883431	0.4143296	-0.20324078	0.19699855	-0.6655419	0.40357873	0.03241153	-0.3408198	0.34359255	0.45798764	0.3980365	0.50827146	-0.5116855	0.18815628	0.64480305	0.24682745	-0.7228493	-0.04135228	-0.07539763	-0.25069875	0.69109195	0.6326922	0.7725779	-0.05647059	-0.60424566	0.0052778777	-0.16989712	0.3675296	0.7867316	-0.27991363	-0.25249693	-0.32310122	-0.024674786	0.25628683	-0.49707562	0.42938054	0.1822623	-0.019990437	-0.4319438	0.15386465	-0.36185154	0.70651525	0.86499226	0.19673888	0.12870884	-0.11205295	0.20867765	-0.13035147	-0.33290648	0.48015982	0.39957038	-0.147835	-0.20204344	0.13270415	0.3965608	-0.17033537	-0.49068996	0.113784716	0.4126037	0.08017858	0.024586212	0.08881165	-0.0043331534	0.16321272	0.010641595	-0.2088176	0.47827858	-0.057418168	0.8260735	-0.07821143	-0.26921338	-0.73018163	-0.05339852	-0.25260776	0.53059816	-0.11297315	-0.14551228	-0.3193664	0.14569879	-0.58112705	-0.11934559	0.3311087	-0.025183663	0.31910855	0.45583186	0.10580364	0.098596044	-0.1209348	-0.00015737116	-0.03330382	0.14335163	0.2209426	-0.043073308	0.23443173	0.03847669	-0.51003134	-0.3477489	-0.58024746	0.20382455	0.16638632	-0.51152074	0.32922125	0.07113709	-0.20557544	0.025026433	-0.4639846	0.10008323	-0.36389536	-0.48723945	0.39647758	0.45112085	0.21327601	0.25030404	0.041492913	-0.6986855	0.10718071	0.050208718	-0.7386386	0.2949569	-0.11049663	-0.11064401	-0.15476774	-0.4889225	-0.26827008	0.44476944	-0.43120745	0.45421624	0.09679255	-0.5397019	0.3691068	-0.12829487	-0.53339666	-0.4727002	0.28668085	-0.023847453	-0.35767344	0.1670347	-0.3038885	0.40194312	-0.0563465	-0.11801835	0.16845231	-0.27932283	0.4259142	0.37441796	0.21243724	-0.3980159	-0.27579942	0.2094039	0.0889516	0.044023048	-0.030949917	-0.20936364	-0.19209534	-0.14570539	0.8455925	0.1222549	0.2782175	0.15541874	-0.05309421	0.10892888	0.58324146	-0.8263693	-0.1713859	-0.19445488	0.11702648	0.5730295	0.12757629	-0.4132505	0.06636121	0.19045712	-0.09549647	-0.5565634	0.079481885	0.05188617	0.16792949	-0.35426512	0.07847808	-0.14202975	-0.50102925	0.48269737	-0.037013374	0.171851	0.052720577	0.48261687	0.02194552	-0.55084723	0.240859	-0.0023957621	0.07874586	-0.07486871	-0.0076227617	0.14264432	0.29897362	0.072027415	0.3316414	0.5293766	0.50621796	0.5407099	-0.02380739	-1.1193932	-0.18408427	-0.3926226	0.58180475	-0.13612172	0.27049658	0.15270765	0.57457954	0.253188	-0.43311307	0.06921108	0.38621274	0.0916015	-0.3744956	0.50461215	-0.36278406	-0.13889809	0.40565985	0.011584373	0.15654235	-0.20919372	-0.8366616	-0.5493984	-0.46881032	-0.29567972	-0.046551395	0.2718049	-0.14061712	-0.25666878	-0.048265398	-0.37319648	-0.08023892	0.28352422	0.3267696	0.57569814	0.3417488	0.054376934	-0.5784744	-0.41586465	-0.3572113	0.22294088	-0.05356922	-0.37927777	-0.597252	-0.015907058	0.2273388	-0.6870773	-0.0886978	0.42007947	-0.5688439	0.5913082	-0.63482726	-0.10113693	0.4481228	0.22107911	-0.19852032	-0.17913759	0.06681653	-0.2600195	0.37907937	0.06648581	-0.048599448	0.27038682	0.13753596	0.37673774	-0.2228171	0.4723218	-0.21052158	-0.17008008	0.12822591	-0.18992172	-0.16644262	-0.47367212	-0.7856638	-0.1661833	0.3100449	-0.13239013	0.83442324	0.15221645	0.3952034	-1.0234741	0.22439654	0.21711491	-0.30421984	0.0034947963	0.6429871	0.79335976	-0.82172227	0.24644409	0.66454816	0.12863323	0.29075032	-0.027937915	-0.44806504	0.6660318	0.43940717	-0.19790527	-0.020660799	0.33249897	-0.2634027	-0.14801052	-0.47685337	-0.21228917	-0.14942446	-0.34942254	0.8791175	0.64697003	0.116361074	0.05269795	-0.27568933	-0.0941403	-0.08857203	-0.40688464	0.39638606	-0.15131202	0.5182882	0.10772234	0.19420907	-0.04647693	0.0069684517	0.013327091	-0.43589216	-0.69528383	-0.23786859	0.12797083	-0.14584912	0.47983497	-0.6242786	0.19540966	0.5774613	-0.11741415	-0.21748433	0.19591892	-0.30691114	0.16942847	0.10989129	0.083727665	-0.16572088	-0.0630234
