G001871415	-0.82162493	0.73672086	-0.101230524	-0.023958376	0.15860356	0.007908367	0.10081653	-0.5098915	0.24323201	0.32344303	-0.13510758	-0.4105378	0.24845739	0.07255872	-0.15852995	0.16237316	-0.11890742	-0.730811	-0.114519306	0.31460175	0.077669896	-0.33358636	0.5776825	-0.6212667	-0.07147898	0.40441957	-0.53090733	-0.64990807	-0.15502214	0.35550857	0.16754739	0.41997042	-0.26510745	-0.2175409	-0.4600872	0.7291666	-0.66464454	-0.12831269	0.08298338	0.016062738	0.27956945	0.4643966	-0.0021855347	0.2458183	0.6744689	-0.032509767	-0.09002424	-0.021622006	0.17879872	0.57101685	0.022252094	-0.037423946	-0.02350429	0.24922225	-0.7197304	0.100691356	-0.41099733	-0.005890904	0.084813714	0.24184005	0.3780787	-0.23693347	0.6750045	-0.18738264	0.19461423	0.2334353	-0.14491934	0.6275442	0.025965873	0.056970354	0.24545723	-0.008948602	-0.4545383	-0.057940453	-0.045107573	-0.3333248	-0.11749807	-0.021327134	0.24373335	-0.11920941	-0.7603775	-0.2987561	-0.54452085	0.6350307	-0.066602334	0.1270968	0.22561276	-0.9831346	-0.4353495	0.6156598	0.14205179	0.3202004	-0.639826	0.37729445	-0.3951021	-0.62210375	0.22723798	0.012354129	-0.03269648	-0.5273835	-0.2431466	0.17511658	-0.13680027	0.75238967	0.36338016	0.085447885	-0.24109001	-0.7968701	0.47863117	-0.30824488	0.041351724	-0.39429772	0.34182715	0.18909949	0.4810313	-0.32076377	-0.04059738	0.04880894	-0.5477058	-0.17445949	-0.043225605	0.559746	-0.065793976	0.87166494	0.16286507	0.5881725	0.26855025	-0.071627975	0.13876297	0.31254852	-0.32072628	-0.18915847	0.0496423	-0.32442626	0.17720778	-0.33393767	-0.2487351	0.5161621	0.05266987	0.65940166	0.009727297	-0.11995576	0.33405587	0.019240592	0.016121805	-0.14755678	0.76265687	0.07246733	0.51166433	0.18220654	0.52897096	-0.084676005	-0.025810122	-0.2601714	-0.058827426	0.08904839	0.10022386	0.38674843	-0.5427919	0.69501024	0.33139932	0.008713333	-0.093172885	-0.24645235	0.16873772	0.41044825	-0.746744	-0.6534835	0.15426053	0.22030489	-0.15172356	-0.09556426	-0.11417086	-0.15803966	0.8245372	-0.36698207	0.5325698	-0.13972795	-0.40158352	-0.75494486	-0.23673476	-0.045947187	-0.6538226	-0.386924	-0.0043469993	0.29008374	0.32012847	-0.66733927	0.12633194	-0.20004663	0.3183066	-0.50366837	-0.36577344	0.64026576	0.6202865	0.08324391	0.11776847	-0.26447323	0.035467982	-0.2138043	0.035723716	0.5237945	0.18694365	0.057757746	0.59327835	-0.11110176	-0.15095183	0.101434976	0.2819522	0.1533179	0.07231362	0.65881336	0.032422587	0.52245003	-0.17797476	0.01390422	0.20833923	0.17685227	0.736093	-0.26106784	-0.11172941	-0.6737908	-0.30481195	0.21885338	-0.038242895	-0.14642172	-0.41256893	0.067353174	-0.92319775	0.015399754	-0.32993537	0.19637871	0.33978784	0.8554098	0.23041366	-0.31085652	-0.45912048	-0.21857451	-0.009793202	-0.33908343	0.34191617	0.22806728	-0.4194159	-0.634021	0.06421228	-0.14331849	-0.18064643	-0.45420206	0.14670046	-0.72034514	-0.06641779	-0.11286588	-0.23553413	0.28143647	-0.333596	-0.2210944	0.4831259	-0.22636274	0.0019819485	0.02640763	0.009182146	0.1343493	-0.14280236	0.06250901	0.004898643	-0.0027521304	0.56761354	0.089886844	0.16134691	-0.02957155	0.3724266	0.30820054	-0.03263631	0.6897556	0.24595098	-0.28057384	0.66146976	-0.10326521	-0.24978235	-0.21343495	-0.15593341	-0.121826015	-0.24732283	-0.12985253	0.45004764	-0.23304899	0.004468672	0.37104085	0.22992754	0.2253565	-0.06500712	-0.13558167	0.059617873	-0.7180234	0.15102297	0.14559457	0.11878632	-0.13920288	0.1837813	0.3529537	-0.73675334	0.5603734	0.72593653	-0.29230508	0.2199859	-0.34357703	-0.3347854	0.048051268	0.32681778	-0.16347334	0.20164476	-0.28428233	-0.113909945	-0.1316423	0.7635525	-0.8286258	-0.30259243	0.13680841	-0.30200285	0.5797807	-0.56685215	0.06886357	-0.5895674	-0.049487527	0.105772436	0.053372804	0.30984345	-0.109267436	-0.16038704	-0.38434446	0.08527807	-0.7604614	0.4548057	-0.9278187	-0.26302397	0.25606304	0.105327345	-0.89839184	-0.2178193	0.25863642	-0.08574583	-0.17827545	0.029436465	-0.21116857	0.7269344	-0.040526573	-0.35942551	-0.2035003	0.012979126	-0.474551	-0.37001178	-0.47399676	0.075458184	0.43784782	-0.11444684	-0.08974424	-0.07202452	1.1250459	-0.29077756	-0.3090352	0.37766612	0.66447204	0.24205182	0.49788713	-0.76452255	0.2341865	0.29290408	-0.1878859	-0.19324484	0.49157298	-0.0053615794	0.09551697	0.14483714	-0.07983412	0.01891609	0.15094262	0.7603948	-0.13820824	0.055104684	-0.04042214	0.12404729	-0.8988757	-0.038547017	-0.063771755	0.092217036	0.51473594	0.071280815	-0.19547062	0.24914524	0.13366407	0.017433837	-0.24282746	0.25408843	0.2077715	0.24892849	-0.034086652	-0.21103284	0.2626182	-0.25126085	-0.23019072	-0.2107349	0.07152413	0.32227898	0.005655272	-0.3307282	-0.1771408	-0.31301925	-0.1420966	0.20692189	-0.27357057	0.7869621	-0.07315891	0.15755105	0.17874308	0.06682713	0.019605756	-0.19496945	0.24895348	0.2637128	0.16813898	0.10626997	0.16197589	0.20399007	-0.3072219	0.11810342	-0.33502862	0.07482174	0.5479888	0.007619327	0.3762112	0.17345497	0.234704	-0.018098135	-0.31392598	-0.008213123	0.25985596	0.11403391	0.0699563	0.24171132	-0.5681828	-0.17247981	-0.320688	0.2608741	0.53182167	0.83425766	-0.037206914	0.25170338	0.11346891	-0.5527334	-0.0033345488	0.5856019	0.074894585	0.71508497	0.18322921	0.34461132	0.16719185	0.23406059	0.06546045	0.42820597	0.21570529	0.19675313	-0.11375444	0.5791419	0.12628724	0.12071987	0.27952868	-0.18894538	0.30031654	0.016166504	0.4205482	0.110490255	-0.20526144	0.26405326	-0.32512197	0.3274249	0.102821104	0.27667364	0.23188889	-0.3156883	-0.22072949	-0.26518005	0.028944433	-0.52981776	-0.33814886	0.3864342	-0.05972884	0.09926096	-0.028813694	-0.14969991	-0.27592564	-0.5641312	-0.39816758	-0.010353178	-0.40730408	-0.19527578	0.75613713	-0.19049765	0.04519802	-0.19750457	0.05838383	-0.2288567	0.6508782	-0.1714348	-0.3953177	-0.073445246	-0.5706986	-0.14711364	0.3479721	0.012092449	0.4678124	-0.07630401	0.4724256	-0.67379194	0.3542548	0.31611478	0.8288127	0.6843055	-0.57416695	0.31072578	-0.03755758	-0.22008118	-0.005870438	0.31605738	0.31232327	-0.067221805	0.11557134	-0.16873622	0.5301217	-0.7475865	-0.14152172	0.21340494	0.18393064	-0.10491678	0.32397223	0.34571975	0.18543229	-0.2000912	-0.2054829	0.41441724	-0.38848987	-0.3470828	-0.6178791	0.48598766	-0.18265486	-0.008464243	0.17126898	0.20476997	-1.1410927	-0.03779635	0.04692609	-0.2613949	-0.76258427	-0.047997393	0.6383823	0.49818873	-0.27122846	0.0748858	0.16703568	0.04129708	-0.025367461	-0.39563996	-0.43911365	-0.50483763	0.10764157	0.4896233	-0.09720099	0.3229595	0.00821178	-0.37751082	-0.30424875	0.18239205	-0.16299179	0.49559316	-0.61293817	-0.09622395	0.38754454	0.043573838	-0.7472416	0.5571176	-0.34655726	-0.64855075	0.16297455	-0.022342127	0.29763475	-0.27234694	-0.6842786	0.052041147	-0.27626154	-0.18212149	-0.22683871	0.3131444	-0.015725423	-0.7953398	0.09457961	-0.27737203	0.13960683	0.34795758	0.09949863	-0.16398464	-0.39140248	-0.42813852	0.7081835	-0.39566252	0.43683347	0.3503253	-0.009012831	-0.31002492	-0.07979905	0.09592246	-0.19550467	-0.116215736	0.7866014	-0.4175745	0.46703598	-0.33690435	-0.14072695	0.5112805	-0.24417844	0.41192684	0.041462757	-0.1196476	0.09040183	0.3390035	0.9646888	-0.36792457	-0.11351822	-0.62105966	-0.13588257	-0.5967031	0.07551901	-0.74838144	-0.20081665	0.09988539	-0.09753686	-0.35853413	0.69652265	0.100799136	-0.16005205	-0.11457162	-0.08334926	0.0037617409	0.03476516	-0.115019	0.25603506	-0.02034549	-0.0047502946	-0.7286645	-0.17798616	0.2582258	-0.43554166	0.8673723	-0.17164421	-0.097135685	-0.97334063	0.16281429	0.32587683	-0.095749386	0.6511576	-0.08099911	-0.22300114	-0.45652008	-0.23320206	0.024337195	0.6854413	-0.16844873	-0.05727166	-0.052121956	-0.6153984	0.33981737	-0.64959836	0.02869433	0.09366108	0.47365817	-0.1889766	-0.3644917	-0.058856077	0.37701756	1.1250714	0.08783088	0.109884724	0.21972018	0.005005273	0.7051531	0.18935761	-0.14006414	-0.36749324	0.11332178	0.07155053	-0.9168948	-0.4501123	0.33075085	-0.5439622	0.42536783	-0.17777179	-0.41463184	0.37221083	-0.30730096	-0.18144655	-0.09646575	0.11666031	0.13363439	0.19682904	-1.0556004	0.69850504	-0.21830875	-0.09136469	0.11259739	-0.39304578	0.7225496	0.48689395	0.31022108	-0.49300703	0.38579082	-0.21022663	0.07025944	0.07863415	-0.37907845	0.42562062	-0.12954882	-0.21378824	-0.4487792	-0.37449777	0.031948395	0.011263133	-0.4678006	-0.2643927	0.12485049	0.0050335806	0.15472977	0.47250235	0.18432827	-0.2255336	-0.08501621	0.053011857	0.32777578	-0.67802334	-0.24503367	-0.09736551	-0.58420855	0.35360733	0.22195722	0.49613944	0.29345337	0.5765175	-0.04611338	0.71235305	0.40171215	0.049532212	-0.06032624	0.01343713	-0.30964494	0.37834764	-0.034147162	0.47295186	-0.052989967	0.39127234	-0.24743997	0.3377312	-0.03887283	0.13948242	0.07976821	-0.67232364	0.4542342	0.18689626	0.06155767	-0.65169156	0.035495214	0.22306983	0.4750039	-0.29212523	-0.8569564	0.21105953	0.087456614	0.3608631	0.026063735	0.5120885	0.052900437	-0.29522726	0.22238012	-0.07098027	-0.20203987	0.044202268	0.2182091	-0.06787997	0.06106791	-0.07403876	0.15923972	0.30884275	-0.055173002	-0.12097767	-0.27193874	0.16029248	-0.1700312	0.4631012	-0.26889417	0.34731013	0.108376466	0.47651353	-0.69287014	-0.35848945	-0.04374248	-0.33399817	-0.1672036	-0.1044561	0.48586047	0.05035535	-0.668208	0.5779598	0.5827449	-0.24813072	-0.066271126	0.35286567	0.47541448	-0.038561672	0.15230875	0.080482304	0.67593575	0.3312074	-0.5077055	0.29519823	0.2953239	-0.27094027	0.08402094	-0.68230003	-0.06309296	-0.24130185	-0.051644344	-0.100714095	0.18087283	-0.061050184	-0.24215584	0.25328565	-0.0018164627	-0.08449191	-0.24378496	-0.13299476	-0.07706162	-0.011014594	0.598808	-0.11434668	0.3509348	-0.6808415	-0.25636473	-0.22083811	0.0394715	-0.16153623	0.33535016	-0.21925291	0.6285111	-0.64222866	0.12238963	0.37871537	-0.59909207	0.3583673	0.59890014	-0.047228046	-0.3047816	0.17599896	-0.280904	0.2997117	-0.537527	-0.50310826	0.39537573	-0.025282519	-0.2790775	0.25117797	-0.29573068	-0.36359853	-0.006143287	0.15267631	-0.3638579	-0.14940636	-0.10914949	0.38189736	0.09636092	-0.9151235	0.07364866	-0.368003	0.32132825	-0.43334806	0.1583568	-0.6268658	0.47388315	-0.79035544	0.51017624	-0.07144029	0.70526373	0.6177037	0.39510217	-0.010729077	-0.24393989	0.025289698	0.23436166	0.026256368	-0.49343085	-0.1165548	-0.25859603	-0.0078111915	0.5580925	-0.09965572	0.31609347	-0.2601882	-0.05909946	0.7655354	0.42302525	-0.04341226	0.104774304	-0.07332806	-0.31396496	0.012429771	0.5439998	0.16327119	0.22092952	-0.36402327	-0.21068975	0.3106878	-0.52389306	0.09992969	-0.09524487	0.22394755	-0.8113925	0.34490213	-0.5928609	-0.1664817	1.0678763	0.43617514	-0.5745717	-0.1615487	0.10495412	-0.22382407	-0.27633724	-0.30917752	-0.31457254	-0.015363565	-0.7477699	0.20114744	-0.17758189	0.23956653	0.14074351	0.22595692	-0.46913695	0.33451495	0.16791566	-0.086809814	0.20345038	-0.21798457	0.017008647	-0.33301225	-0.014771276	-0.42557096	-0.4775458	-0.2593274	-0.28834468	-0.15520239	0.41113573	-0.58269036	0.02483012	0.7149662	-0.08840682	-0.37350482	0.40418392	0.35865864	-0.8098637	-0.5590987	0.15154503	-0.48677266	-0.018396085	0.15138155	0.11574707	0.7367799	-0.04712423	-0.007160349	-0.0068129506	0.39717504	-1.076295	0.19365603	-0.04824992	0.057499275	0.345892	-0.46876532	-0.23687945	0.07146716	-0.403327	-0.4411501	-0.16748883	-0.37870052	0.2669168	-0.08707561	0.35203543	0.2638373	0.5497755	-0.27999502	0.23514861	-0.14772923	0.2650287	0.042024158	0.54729503	0.46012628	-0.27628052	0.4912501	-0.49081033	-0.30338705	-0.23383513	-0.1581654	-0.2747892	-0.072947904	0.37504694	0.18051301	0.06408146	0.34379202	-0.6425379	-0.11260904	-0.21973445	-0.18923423	-0.43486547	0.14641513	0.13260497	-0.27055877	0.12576723	0.46923235	-0.11530283	-0.0060312888	0.5696821	-0.13967417
G001940645	-0.73737675	0.75278026	0.17089005	0.08434837	0.11784381	0.102244966	0.086534545	-0.4811653	0.07716716	0.21304792	-0.17384613	-0.38258544	0.013285984	-0.12888902	-0.20387061	0.37442532	-0.27392817	-0.68112904	-0.2639772	0.27543566	0.14751287	-0.33333576	0.54667914	-0.7128219	-0.23416832	0.2114048	-0.32135037	-0.75838625	-0.008069073	0.31999114	-0.055087894	0.23855762	-0.121099554	-0.4167952	-0.45619804	0.6690887	-0.44316283	0.009308072	0.12673146	0.082976915	0.2217805	0.45865804	0.02345084	0.3491112	0.6891278	-0.33154663	0.12408333	-0.09777583	0.36244732	0.6795588	0.02346545	0.15636759	0.050042007	0.013095392	-0.5638118	0.029430063	-0.37921184	0.13867176	0.101996034	0.25321668	0.4902052	-0.24483544	0.7069554	-0.27619955	0.33622658	0.3136318	-0.35130054	0.6737127	-0.23530574	-0.07756528	0.21466835	-0.22157705	-0.5613966	-0.10588531	0.19492456	-0.45275593	-0.35904342	-0.13053504	0.31113216	-0.09394379	-0.5035715	-0.1737813	-0.6408552	0.5887667	-0.052402183	-0.21216682	0.41109014	-0.94263273	-0.43747053	0.59581107	0.08645932	0.4173665	-0.7022141	0.42624286	-0.35272747	-0.56233305	0.2656721	-0.12637392	0.13229677	-0.599405	-0.31304058	0.08052564	-0.30438855	0.5233545	0.3132405	0.23134597	-0.2750391	-0.8601828	0.24642172	-0.32433012	0.029983792	-0.47763947	0.3728668	0.1475944	0.19698532	-0.30331966	0.05366891	-0.044451647	-0.37400603	-0.1872822	-0.19586961	0.4816385	-0.18681763	0.91219425	0.29193172	0.49234784	0.30288547	-0.050307192	0.29563794	0.25233233	-0.33555922	-0.046948902	-0.042746197	-0.18991615	0.15426722	-0.42251363	-0.23204614	0.39454797	0.12673809	0.4285847	0.34038278	-0.21757038	0.5306551	0.01245823	-0.055910792	-0.18631816	0.54041564	-0.14971541	0.6712987	-0.077581234	0.3681673	-0.14916746	-0.1739564	-0.23601839	-0.051879343	0.1727517	0.08216698	0.37493864	-0.5135089	0.85309994	0.49501187	0.19680607	-0.21885099	-0.24581286	0.072289646	0.28662997	-0.6162254	-0.55274874	0.24316785	0.33104178	0.12735833	-0.1784517	-0.16848494	-0.23317394	0.7590824	-0.40760112	0.40034693	-0.015474095	-0.47100285	-0.3863656	-0.23123445	-0.13816307	-0.4412299	-0.22413082	-0.15038529	0.2650095	0.26497433	-0.69005036	0.12487595	-0.20429657	0.40190935	-0.6815334	-0.38762376	0.44635665	0.40033183	-0.102756314	0.32858458	-0.35461208	0.085588306	-0.30230775	0.12854722	0.4939332	0.23308234	-0.063620314	0.6946232	-0.17357747	-0.07821815	-0.015279714	0.4189891	0.03956059	0.18641156	0.52390075	-0.12748972	0.42693442	-0.37288886	0.25462896	0.21277416	0.26351684	0.5589378	-0.2627561	0.07627164	-0.6761046	-0.46222156	0.38580987	-0.114577845	-0.12775598	-0.28031635	0.035448268	-0.78906846	-0.19667792	-0.26550668	0.14209777	0.24096113	0.81710774	0.18888049	-0.32385212	-0.6744414	-0.3241535	0.122626014	-0.42590302	0.36404935	0.14930321	-0.25519615	-0.5514205	-0.016019069	0.19475015	-0.13200417	-0.50582623	0.20064956	-0.9253729	0.1071768	-0.20078659	-0.25514197	0.35503674	-0.3177716	0.06388995	0.5253429	-0.042211253	-0.056788888	1.1072494e-05	0.18688524	0.22682536	-0.20552994	0.33456972	0.03911504	0.12005901	0.6507861	0.008101223	0.29567954	-0.15214193	0.41707015	0.17188981	-0.12875922	0.792452	0.18272431	-0.124455094	0.47285068	0.029586298	0.015196629	-0.26364133	-0.39055052	-0.06993642	-0.19056128	-0.0317546	0.45063525	-0.15766893	-0.061229996	0.20403849	0.18615048	0.17126776	0.05281762	-0.2295771	0.11993949	-0.73237956	0.31819108	-0.025718017	0.24033311	-0.064523324	0.41777563	0.44665998	-0.67268366	0.43111992	0.6565693	-0.107585035	0.3578086	-0.41098863	-0.09611283	0.10213825	0.29180604	0.13581693	0.06463002	-0.3195891	-0.04960884	-0.004352024	0.61070627	-0.6294444	-0.44627658	-0.006283543	-0.066878125	0.4884733	-0.576751	0.30041182	-0.5010346	-0.06206699	0.10440426	0.049308892	0.25340372	-0.1336869	-0.2804756	-0.4303987	0.18448806	-0.719363	0.32522362	-1.0572703	-0.19681308	0.37438256	0.027369106	-0.8810515	-0.1411821	0.28145808	-0.26017675	-0.21511851	0.33010015	-0.37713373	0.63653725	0.016286042	-0.22504057	-0.18849176	0.06281371	-0.49660486	-0.19413354	-0.43471238	0.004525273	0.46010906	-0.31074536	0.008028958	-0.12083288	1.1445451	-0.3792191	-0.5455119	0.46343604	0.7338805	0.32146084	0.5596434	-0.7081796	0.09086928	0.015111197	-0.14070007	-0.30406678	0.4348575	0.172674	0.044723995	-0.025581945	-0.20150343	0.13430883	0.02864107	0.6334898	0.057067566	0.038992453	0.05070036	0.07929735	-0.98706865	0.12170305	-0.23781584	0.0028840387	0.5191685	-0.056785386	0.08885709	0.099593066	0.29765263	-0.057991013	-0.3326033	0.437241	0.122667484	0.18455756	-0.08458518	-0.28828993	0.060678385	-0.23559475	-0.20852919	-0.37316492	-0.0812747	0.31803882	-0.110119544	-0.3137736	-0.31729433	-0.23470093	-0.042008907	0.45233265	-0.3353298	0.83502674	-0.20228797	0.16166724	0.13451977	-0.15238075	-0.029435769	-0.008568687	0.30857933	0.36178085	0.17592826	0.14216769	0.32005328	0.15882342	-0.21766895	0.36865512	-0.10975949	0.24901971	0.53441066	-0.05490116	0.32069367	0.19672789	0.12173373	-0.20788597	-0.3302915	0.040726952	0.504151	0.20656234	0.049339857	0.10181051	-0.52021545	-0.13914332	-0.3297728	0.39697245	0.73238283	0.7873059	-0.049804445	0.30966526	0.15789993	-0.47636753	-0.12964463	0.4330936	0.10472203	0.7355391	0.14678994	0.4255614	0.404353	0.29387492	0.17824185	0.52971184	-0.01404977	0.094352685	-0.19269258	0.47879183	0.23607142	0.18777213	0.08959979	-0.23942295	0.28360504	-0.024916328	0.49280703	0.10983888	-0.3573345	0.38323838	-0.4141186	0.35197064	0.20020574	0.18073888	0.25129473	-0.32027155	-0.17587036	-0.43250212	-0.15743026	-0.36114907	-0.42734608	0.23571998	-0.015359627	-0.14088205	-0.15149492	-0.24818416	-0.32585135	-0.58787984	-0.34776735	-0.05715195	-0.5159302	-0.07092907	0.68847555	-0.35142964	-0.115298405	-0.40287283	0.07352889	0.014016745	0.43148863	-0.098245025	-0.41763967	-0.059874892	-0.48967528	-0.2825081	0.17231768	0.024334427	0.2269683	0.13027066	0.49912617	-0.60094875	0.41729978	0.43364283	0.79930484	0.6429905	-0.7237847	0.28715083	0.12171123	-0.38038293	0.1058772	0.18137255	0.56725997	0.06978737	0.0703594	-0.17399502	0.45749334	-0.69407797	-0.13849191	0.08547051	0.35148197	-0.07783574	0.3657072	0.5768372	0.12995039	0.028070072	-0.33285287	0.44457507	-0.50087976	-0.35306916	-0.7052005	0.4485828	-0.2323983	0.0694326	0.14106685	0.014486767	-1.1571279	0.013963878	0.03504209	-0.18276624	-0.8447401	-0.17782423	0.7093884	0.55049884	-0.18535496	0.2995461	0.21017061	0.04459061	0.1333893	-0.16064274	-0.4385865	-0.70340735	0.20834811	0.40264982	-0.1430297	0.2372272	0.04949679	-0.10336783	-0.37112197	0.21858868	-0.19553763	0.58994776	-0.53618395	-0.029511154	0.4888845	0.08371731	-0.657204	0.5437293	-0.029985582	-0.4819202	0.15686502	-0.20049562	0.25896773	-0.27830476	-0.5385636	0.12960066	-0.21269053	-0.3124747	-0.2358835	0.21888708	0.11622892	-0.650729	-0.16504268	-0.24442124	0.13191384	0.44404945	0.12485191	-0.09216557	-0.10928818	-0.4308508	0.5171423	-0.33719504	0.39317247	0.2378535	-0.117379494	-0.32512152	-0.21397758	0.11516809	-0.25954273	-0.20992348	0.64427495	-0.41141003	0.45692837	-0.2436637	-0.15994787	0.5990169	-0.4075205	0.3029031	0.0009283959	-0.018195277	0.030343939	0.4700929	0.7070613	-0.26959783	-0.17327143	-0.79969966	-0.30478272	-0.72936374	0.06598628	-0.6581817	0.061824046	0.19200706	0.133999	-0.21383642	0.67275476	0.09571183	-0.39452365	-0.035565127	0.01639331	0.14148508	0.04649793	0.11198396	0.17623465	0.020782106	0.03433162	-0.6367812	-0.24323703	0.08675874	-0.27183336	0.6893927	0.12499913	-0.08897435	-0.94848037	0.16904266	0.23583622	-0.19400406	0.63256985	-0.0942614	-0.32556546	-0.3456504	-0.10808281	-0.10023966	0.6666854	-0.12754391	-0.08005333	-0.11144476	-0.5718019	0.42519185	-0.6387757	-0.14810294	-0.058849387	0.47567028	9.6615404e-05	-0.36974168	-0.1530784	0.14790729	0.9225505	-0.13231063	0.19467549	0.053862922	-0.12955205	0.5182171	0.15216264	-0.1609085	-0.38935146	0.151833	0.20471182	-0.8011628	-0.5490834	0.3953699	-0.6777816	0.47380474	0.09002153	-0.5119914	0.37933388	-0.20171139	-0.17317234	0.105161086	0.13553467	-0.088629626	0.09154813	-1.1972106	0.63436717	-0.0007613152	-0.09925833	0.2587462	-0.2803904	0.564249	0.5458905	0.07167816	-0.5053183	0.35121167	-0.44612116	0.0731033	0.12301975	-0.39125854	0.44594	-0.021097723	-0.28114724	-0.5012972	-0.21623784	-0.048683032	-0.022877224	-0.34638885	-0.36659282	0.06416316	0.09643102	0.29388192	0.53000367	0.22652541	-0.040382333	-0.06999669	-0.09966012	0.2744673	-0.7703943	-0.2356822	-0.17835607	-0.7164689	-0.077716455	0.13880475	0.39014485	0.259712	0.42869282	0.013095506	0.7019989	0.23377436	-0.016125983	-0.021140628	0.16834481	-0.20130676	0.47140494	-0.2794478	0.35226655	-0.28481585	0.1942438	-0.29040146	0.45284584	0.0035416987	0.008981989	0.0059996285	-0.329585	0.21142706	0.39803514	-0.061601687	-0.7113575	0.06709104	0.17574546	0.45507807	-0.22621633	-0.74457914	0.18921979	0.16842505	0.33061403	-0.09788104	0.5212224	0.13585775	-0.18281327	0.1547834	-0.055274185	-0.29775792	-0.11024541	0.03929378	-0.0470411	-0.21504095	-0.21631937	0.10223667	0.06329048	0.061525993	-0.2274226	-0.26070476	0.25925833	-0.22533363	0.42864168	-0.35780647	0.5915686	0.13164072	0.42952543	-0.7034954	-0.20582229	0.030491296	-0.35356283	-0.10851795	-0.123733506	0.5441768	-0.10173467	-0.5823597	0.5036881	0.64120585	-0.43622106	-0.10670045	0.5228913	0.51676	-0.11825046	0.24520148	0.044333685	0.56582755	0.19819517	-0.3155875	0.2256481	0.50609314	-0.0735132	0.12121602	-0.6812439	-0.11584106	-0.43114108	-0.09181317	0.13103493	0.15025279	-0.18602553	-0.28648117	0.24998535	0.047406424	-0.20774363	-0.2128754	-0.06647356	-0.07315713	-0.05373943	0.5449277	0.14165404	0.37057406	-0.5012955	-0.29788864	-0.3212602	0.06686189	-0.06942628	0.14486492	-0.37944692	0.5179889	-0.581269	0.09941304	0.3001945	-0.5944281	0.090696774	0.13599832	0.06679011	0.0728651	0.20716003	-0.18756218	0.34304827	-0.55271876	-0.331461	0.23157671	-0.17207818	-0.26251668	0.30278105	-0.4303233	-0.29803142	0.034160107	0.20512575	-0.49713874	-0.15345562	-0.090070836	0.5940939	0.20471084	-0.92138505	-0.15866256	-0.3693763	0.711325	-0.44547933	-0.050272472	-0.4195674	0.57385904	-0.6653692	0.47682	-0.0038367268	0.72383255	0.35711923	0.4865815	0.13890308	-0.123337805	-0.14519684	0.19792412	0.17111683	-0.50154483	-0.14954102	-0.31153843	-0.11379092	0.43878108	-0.34531742	0.32893947	0.02310232	0.00563135	0.6462113	0.4530118	0.116083	0.24469754	-0.1937627	-0.20255643	-0.12548144	0.5977555	0.3274445	0.25336087	-0.32430136	-0.2600226	0.11777489	-0.43566397	0.042694364	-0.17350361	0.118545994	-0.6233857	0.44028684	-0.45928955	-0.13400722	0.733395	0.2088199	-0.5712945	-0.27419263	0.31405538	-0.17476621	-0.41202095	-0.405155	-0.22382237	0.089186735	-0.5387434	0.16734874	-0.30685088	0.086217105	0.07172034	0.04192482	-0.30308896	0.52758545	0.36552697	0.17849435	0.49249962	-0.062732525	-0.026956007	-0.3033852	0.05204375	-0.2907428	-0.6136699	-0.21626665	-0.50387883	-0.01083347	0.36193326	-0.52928436	-0.15467797	0.97639287	0.008694613	-0.5716624	0.423297	0.49973062	-0.8597277	-0.49741876	0.15715414	-0.373331	-0.0752588	0.26535675	0.23316091	0.7594986	0.040575556	-0.034150243	-0.05063829	0.36484846	-1.2054794	0.13930994	0.032610428	-0.100244954	0.334513	-0.24398072	-0.16150017	0.00035217032	-0.4762081	-0.21986307	-0.2888469	-0.3427701	0.27282992	0.03400533	0.58933824	0.26594582	0.36744577	-0.03888474	0.2822565	0.019818276	0.09196081	-0.10365016	0.6267674	0.51505566	-0.20629479	0.4302444	-0.53656405	-0.22522596	-0.40324354	-0.18786035	-0.2694515	-0.07635276	0.53186476	0.11376924	-0.00092253555	0.32105526	-0.5864603	-2.4247915e-05	-0.39667812	-0.11745978	-0.20819716	-0.057552274	0.307567	-0.42808205	0.3708401	0.5031415	-0.23356715	0.04440677	0.45485508	-0.15489407
G000830295	-0.63232726	0.7812503	0.10400412	-0.024008064	0.015783101	0.027700812	0.1007871	-0.59222627	0.11058644	0.2315871	-0.22035038	-0.40034214	0.065674916	0.045982055	-0.2695968	0.052995678	-0.17096509	-0.6252718	-0.14551812	0.31686932	0.16485974	-0.2780248	0.5462104	-0.6047577	-0.18476643	0.3871986	-0.45650062	-0.804074	-0.12376313	0.42867333	0.1276995	0.29896852	-0.1603869	-0.43332008	-0.4533818	0.64334106	-0.43330067	-0.09713915	-0.024545958	0.04063655	0.23454043	0.37906376	-0.027644556	0.22581099	0.7260616	-0.20446463	0.04213537	-0.067974016	0.24058712	0.5536284	0.011453497	0.064648814	-0.009815369	0.27121738	-0.740821	-0.0022530314	-0.2212557	0.027272763	0.10152978	0.1946588	0.45289397	-0.14882985	0.55485725	-0.24947456	0.12981682	0.1738466	-0.16112983	0.6624449	-0.070244126	0.104968116	0.23546757	0.012611464	-0.4821498	0.042129636	0.07345021	-0.22876157	-0.30602005	-0.13065939	0.09757715	-0.17356856	-0.7357389	-0.20988278	-0.59713	0.4777992	-0.0832323	-0.08369591	0.3558333	-0.89383745	-0.43053076	0.5832235	0.09290034	0.36386505	-0.60962284	0.27565154	-0.32248083	-0.42877468	0.27819717	-0.093323	0.0065949	-0.4482584	-0.20760967	0.22372347	-0.10183981	0.5759449	0.31798002	0.0046380768	-0.20557241	-0.7568794	0.25518042	-0.3529682	0.109354176	-0.38318005	0.41012198	0.1791621	0.3613146	-0.5209075	0.11813455	-0.064004116	-0.5441767	-0.18879862	0.043975893	0.4567942	-0.22523038	0.90757436	0.3070662	0.47250038	0.1582342	-0.044005513	0.067309454	0.3390699	-0.31837216	-0.07163425	0.11007297	-0.38306788	0.15797664	-0.26551977	-0.38326082	0.44898334	-0.04553361	0.55554736	0.20472011	-0.09605445	0.45584124	0.06319107	-0.044300515	-0.22980937	0.59691846	0.00747383	0.58356094	0.08868149	0.5396892	-0.015836451	-0.12206196	-0.2510489	-0.110637695	-0.0450543	0.072753064	0.35007912	-0.6539307	0.7273872	0.34187	0.07334871	-0.18579613	-0.1397695	0.12613456	0.3308434	-0.64315534	-0.5787958	0.22097231	0.18488924	-0.052788947	-0.10453735	-0.10813836	-0.20067486	0.6509447	-0.20346546	0.45266354	-0.16433717	-0.3205383	-0.45273885	-0.07451449	-0.11083626	-0.48913094	-0.36930963	-0.044422943	0.2708037	0.28978693	-0.66914666	0.24113293	-0.3914608	0.44228083	-0.47581303	-0.41051066	0.4633506	0.6994973	0.0163162	0.15145053	-0.21715435	0.089158386	-0.16930547	0.10523265	0.37578878	0.12262034	0.08987072	0.70129776	-0.11918466	-0.10955694	0.114551604	0.36938357	0.1323893	-0.0069410186	0.55270386	0.027548768	0.50510937	-0.23473017	-0.024051823	0.20143825	0.15940943	0.5884949	-0.20010419	-0.088486254	-0.72524315	-0.31779617	0.23329753	-0.0944182	-0.17322737	-0.3042546	0.10912441	-0.8881393	-0.12336123	-0.252034	0.23991981	0.34848157	0.7868096	0.15521587	-0.37990543	-0.5445755	-0.24057391	0.01266556	-0.2931653	0.3903436	0.19264162	-0.34101427	-0.5873284	0.067131065	0.029593732	-0.12303814	-0.4690143	0.14921677	-0.72417206	0.062361285	-0.060511794	-0.14275698	0.3519438	-0.2572349	-0.16941144	0.506714	-0.10152118	-0.0093134595	-0.008632897	0.050918996	0.16103128	-0.2836163	0.2131246	-0.16651009	0.15637887	0.5723185	0.045157515	0.21366903	-0.06409465	0.3801662	0.15197343	-0.12137931	0.6802207	0.19260271	-0.12145051	0.52238905	-0.09644006	-0.06628121	-0.28984416	-0.1035803	-0.14821002	-0.27580953	-0.09106594	0.48208913	-0.24626811	0.029096998	0.3775635	-0.015733087	0.16404977	-0.025599508	-0.20658329	0.07370503	-0.6861618	0.18804544	-0.043979272	0.12146894	-0.032776576	0.3036627	0.34217602	-0.5505803	0.47851717	0.69882387	-0.19346981	0.36909	-0.421225	-0.19625641	0.058408767	0.17208177	-0.13771603	0.2218694	-0.16727385	-0.106210366	-0.09543878	0.7723761	-0.68738735	-0.23805209	0.04288453	-0.21273468	0.49708936	-0.4228011	0.25222918	-0.4538342	-0.09975906	0.15536736	0.11396681	0.20700073	-0.06427116	-0.27616176	-0.26264435	0.07413858	-0.6467033	0.4340694	-0.92149466	-0.3051086	0.23128904	0.105457105	-1.0226561	-0.31133378	0.2661587	-0.06631249	-0.29812503	0.07073827	-0.3081544	0.6725878	-0.009521651	-0.22885361	-0.1481476	-0.021752143	-0.524638	-0.17746757	-0.5199959	0.048850775	0.4873859	-0.21433313	-0.09071702	0.005092074	1.116881	-0.32203686	-0.49942067	0.38210008	0.8441315	0.28191578	0.556908	-0.6556729	0.11979592	0.14066605	-0.14854702	-0.15267411	0.46285492	0.2292009	0.12218622	0.117901355	-0.13969126	0.14284126	0.20127763	0.6415767	-0.031006992	0.16577709	0.055913135	0.037106663	-0.8740058	0.09774143	-0.011890196	0.14721295	0.5511976	-0.06663094	-0.04528611	0.2904233	0.05649126	-0.09936471	-0.2579112	0.1756026	0.22844996	0.18686128	-0.085450284	-0.35159984	0.1496456	-0.23054951	-0.31893405	-0.20734626	0.063300565	0.2667398	-0.07687553	-0.2738425	-0.20368743	-0.2494976	-0.14604929	0.2859039	-0.24396977	0.79421824	-0.06197732	0.055291407	0.22791749	0.023012195	-0.06582959	-0.16162899	0.27615136	0.4021342	0.22918338	0.09891979	0.2575518	0.14781035	-0.17765659	0.19230819	-0.24733521	-0.003976951	0.45826897	0.008913672	0.22844133	0.13821055	0.11852468	-0.07218897	-0.39820164	-0.011516927	0.26778683	0.11828935	0.066811085	0.10743671	-0.6212349	-0.21677327	-0.33984885	0.29155353	0.7118067	0.7443369	0.02628019	0.37121978	0.081688106	-0.44196907	-0.035936724	0.53026325	0.051348396	0.6608375	0.12128726	0.38409352	0.22110456	0.35613236	0.114351414	0.39938414	0.24508817	0.17080429	-0.14551297	0.44579962	0.26491004	0.33530253	0.17017812	-0.10121365	0.36865208	-0.10175421	0.4966644	0.14833516	-0.0815021	0.31545302	-0.34742254	0.32675445	0.13814816	0.3845087	0.32360452	-0.33093026	-0.10234478	-0.31476176	0.05815869	-0.45442533	-0.28751314	0.3257045	-0.080524266	0.14881398	-0.022648368	-0.23647866	-0.31272516	-0.6604232	-0.49024573	-0.025426645	-0.29365706	-0.10970146	0.8251001	-0.36727938	-0.07419789	-0.2498283	0.005076789	-0.09579758	0.6306822	-0.25247774	-0.39274326	-0.12658325	-0.5139359	-0.12548327	0.23591843	-0.010933645	0.3053457	-0.024276886	0.3981077	-0.71661603	0.43900636	0.32129896	0.82050717	0.58905464	-0.6532028	0.27889994	0.089904115	-0.29778156	-0.041805945	0.08346662	0.34319383	-0.007843422	0.11571192	-0.28619936	0.58275354	-0.64419013	-0.022724891	0.19144882	0.2318339	-0.1681709	0.40533826	0.2943625	0.12427606	-0.1481647	-0.18229239	0.4723986	-0.53839725	-0.33945706	-0.6278851	0.49138325	-0.2278514	0.037449423	0.17827618	0.1548574	-1.1083802	-0.019996569	0.08466506	-0.35035637	-0.65349907	-0.19524314	0.47523305	0.5561939	-0.006341258	0.039639063	0.21232668	-0.02053618	-0.03909471	-0.27295166	-0.38259616	-0.72818667	0.10145303	0.43169716	-0.052063894	0.24294259	0.015711088	-0.22217208	-0.20985901	0.10487325	-0.16587383	0.598333	-0.6058531	-0.04173615	0.37872046	0.20632681	-0.5204944	0.49926385	-0.22373365	-0.59628946	0.19373381	-0.06595883	0.262602	-0.3313043	-0.6534938	-0.011129034	-0.32812604	-0.32253996	-0.11225967	0.33156455	0.045336273	-0.6512764	0.023665354	-0.4365594	0.0928978	0.50623053	0.02002953	-0.13876298	-0.26238087	-0.35463274	0.58498955	-0.36883035	0.38959175	0.13025644	0.04030242	-0.18173555	-0.053161897	-0.020217732	-0.08981385	-0.1642928	0.65875864	-0.30520248	0.5370401	-0.3067677	-0.19200723	0.3998829	-0.43165532	0.18615024	-0.11431567	-0.1094987	-0.14473376	0.31437767	0.85197306	-0.2729116	-0.043717057	-0.65913105	-0.24607621	-0.5859043	0.017170187	-0.60682005	-0.16243154	0.17291671	0.022274347	-0.32286158	0.68829846	0.006463279	-0.31287637	-0.13165672	-0.08080705	0.011102395	0.12264391	0.099038385	0.17456947	-0.111880116	-0.02194023	-0.6593145	-0.13646781	0.27272314	-0.33940628	0.74681544	-0.067025565	-0.058577243	-1.0564005	0.053248666	0.494107	-0.21665001	0.7049531	-0.10301619	-0.2029004	-0.26843935	-0.18967931	-0.050821565	0.6169221	-0.24648197	-0.037883326	0.021172877	-0.3195882	0.35724387	-0.62198544	0.064663604	-0.047492705	0.4240992	-0.019214604	-0.4598125	-0.038685188	0.40013307	1.1599183	-0.023524957	0.10597953	0.23788339	-0.1010809	0.69840956	0.23571219	-0.26103944	-0.45302403	0.070835434	-0.004918024	-0.7974627	-0.47676477	0.32201883	-0.6747142	0.38684967	-0.081851795	-0.49194765	0.31821337	-0.22096437	-0.13353531	0.1345693	-0.00471796	0.053546555	0.28113416	-1.0948029	0.58536285	-0.054844335	-0.21935154	0.091089055	-0.3013886	0.66340023	0.36426014	0.33721626	-0.34340715	0.46731427	-0.25784773	0.12337621	0.01662958	-0.360727	0.33476865	-0.013515178	-0.30229855	-0.4535151	-0.24755529	-0.047764175	0.03440588	-0.29215643	-0.22796886	0.20684466	-0.18204163	0.20928024	0.4344952	0.18846534	-0.15925881	-0.11815404	0.17799409	0.27841908	-0.7529117	-0.23819058	-0.25909987	-0.66796416	0.23517273	0.11547013	0.49700794	0.29087436	0.40902907	-0.07249801	0.6401559	0.21965164	0.033467166	0.002000957	0.1233781	-0.2305775	0.42365602	-0.1749587	0.39122516	-0.13067669	0.32023945	-0.2713856	0.38595858	-0.04996974	0.13747402	-0.16784407	-0.6181576	0.25913945	0.31458277	0.003944134	-0.6686906	-0.023827435	0.11037311	0.39823282	-0.3050448	-0.68604463	-0.00051505584	0.10985638	0.3124336	-0.095793284	0.6354894	-0.09448717	-0.22470641	0.23053813	-0.10278087	-0.20637862	0.02442234	0.10274072	-0.020696651	-0.07350792	-0.13078214	0.15299852	0.26267684	-0.10668496	-0.085840315	-0.29139826	0.01765022	-0.1763332	0.5402315	-0.22944602	0.47798234	0.11721737	0.3762132	-0.6430339	-0.24933487	0.18631959	-0.29328987	-0.09983279	-0.12996161	0.5252219	-0.16265747	-0.5874196	0.497887	0.66132164	-0.27131394	-0.16606613	0.37382755	0.46791455	-0.13554902	0.05736541	0.123201296	0.6570533	0.26889908	-0.3867241	0.3828993	0.23650719	-0.18245162	0.17329867	-0.5732728	-0.14232531	-0.25695643	-0.022562739	-0.20138344	0.10332991	-0.10252801	-0.30794603	0.18391937	0.037416864	0.061294172	-0.30483744	0.010626842	-0.07755458	0.12294288	0.5990843	0.06680916	0.37696338	-0.59610045	-0.33172292	-0.1404725	0.12894973	-0.16542545	0.24299002	-0.117023684	0.6612377	-0.6349768	0.06790221	0.27452713	-0.65356255	0.1959257	0.48038897	-0.112795524	-0.20594138	0.10171651	-0.2821393	0.2962891	-0.5152714	-0.3785635	0.34581417	-0.21923505	-0.18932344	0.31436437	-0.3021186	-0.45458266	-0.013478145	0.16783883	-0.3364507	-0.09159365	-0.08060349	0.5215567	0.03717424	-0.8129439	0.0015852489	-0.29370737	0.3313962	-0.33393684	0.17258374	-0.49778956	0.5068044	-0.6481935	0.5485747	-0.23186506	0.65281665	0.48385337	0.53110075	0.059746545	-0.17968228	0.04148003	0.13022557	0.04411933	-0.49601245	-0.033404935	-0.19604795	-0.023857888	0.34663835	-0.20263632	0.18241656	0.0023096087	0.09686565	0.6850869	0.39278933	0.15261254	0.15286563	-0.074564174	-0.3122646	-0.03897636	0.40406844	0.22487542	0.11007149	-0.43487385	-0.310684	0.1532724	-0.5032322	-0.036851134	-0.03366546	0.18132675	-0.7459957	0.32248357	-0.5480471	-0.101004206	0.93406576	0.33983842	-0.5811842	-0.29845962	0.16121498	-0.14879169	-0.4070261	-0.33710504	-0.37771556	0.07168355	-0.56658965	0.15879619	-0.2648601	0.23272492	0.009591679	0.09122971	-0.19323754	0.28847277	0.30829385	-0.096552856	0.29546687	-0.14021672	-0.054702334	-0.08972413	-0.010575452	-0.41533923	-0.5715425	-0.32229376	-0.23907207	-0.11207969	0.2946749	-0.61537564	-0.021808887	0.7474054	-0.07339934	-0.35919106	0.36755395	0.3153083	-0.66543615	-0.3449839	0.23585391	-0.399932	0.027634243	0.12959196	0.16575164	0.6315222	0.065719806	-0.03908816	0.060704887	0.17989416	-1.0682411	0.30866018	0.09450501	-0.0013867784	0.32385123	-0.285119	-0.2209198	-0.053346623	-0.29457965	-0.47592565	-0.20387448	-0.28817344	0.29212186	-0.20817712	0.48895654	0.24618807	0.5020105	-0.21191901	0.34653735	-0.13270763	0.16794807	-0.11218151	0.51152015	0.32655278	-0.2762815	0.35668302	-0.48727846	-0.28621045	-0.32734647	-0.13440347	-0.22436263	-0.20575057	0.41688335	0.14648017	0.035040148	0.42753953	-0.7130971	-0.10802935	-0.21549326	-0.15807682	-0.31777173	0.04810152	0.30565798	-0.3138938	0.23302616	0.56803375	-0.19001588	0.06716129	0.5080854	-0.26243767
